tree
version=v4
num_class=1
num_tree_per_iteration=1
label_index=0
max_feature_idx=10
objective=regression
feature_names=plate_x plate_z plate_x_adj zone_center_dist out_of_zone_dist in_zone pfx_x pfx_z release_speed stand_cat same_side
feature_infos=[-4.1323760440572581:3.4973000601252711] [-2.9590560398209829:7.9574856186801775] [-4.1323760440572581:3.8931758861791561] [0.0040378621407267798:6.4580329434746169] [0:5.171887393280028] [0:1] [-1.6499999999999999:1.8799999999999999] [-2.0299999999999998:1.53] [63.700000000000003:91.900000000000006] -1:1:0 [0:1]
tree_sizes=3560 3889 3549 3660 3656 5237 3731 5500 4300 2909 5074 2935 4251 3931 3008 2943 4873 3047 4860 5204 3418 3861 6084 4876 4692 3523 3570 3802 4540 3759 4886 4554 3342 4516 2460 3887 5296 3234 2769 3901

Tree=0
num_leaves=37
num_cat=0
split_feature=4 0 3 1 0 1 1 3 3 4 1 6 0 0 1 0 3 6 0 8 0 8 0 8 6 8 7 4 4 4 1 1 0 0 4 0
split_gain=4.59498 2.4238 1.93118 1.87138 1.3306 0.872801 0.856675 0.767867 0.66469 0.709483 0.384213 0.366896 0.33818 0.298685 0.286267 0.257385 0.246436 0.270258 0.226419 0.222375 0.199244 0.195402 0.186915 0.175101 0.175427 0.158078 0.122113 0.107787 0.0768376 0.0718448 0.0712457 0.0510126 0.042465 0.0238591 0.0295566 0.0218058
threshold=0.90202042337497434 -0.94921892307765654 0.42406283858746513 3.5927742091159396 1.0455040748010731 2.6521319379627171 1.0739690569288232 2.5918073664620054 0.64943728597014327 0.049243162803027825 2.1060482084284229 0.56500000000000006 0.67933568093104391 -0.24696068715636685 2.0624703072863402 -0.72981978558561855 0.34037409906562544 0.31500000000000006 1.0296460571160495 80.750000000000014 1.8717469959637267 83.65000000000002 -1.2319955591919605 84.850000000000009 0.51500000000000012 78.950000000000017 -0.64499999999999991 0.31715218994821948 1.1252829501894872 0.34290015859709844 2.3354038632198653 1.8251819222617371 -0.94921892307765654 1.1723718582791467 1.75972301686633 0.36617665746171157
decision_type=2 2 2 2 2 2 2 2 2 2 2 8 2 2 2 2 2 10 2 2 2 2 2 2 10 2 2 2 2 2 2 2 2 2 2 2
left_child=1 11 5 4 8 13 7 18 10 12 19 22 -10 -3 23 -11 17 -15 25 -4 32 -12 -1 24 -6 -2 35 -13 -8 -5 -19 -24 -9 34 -34 -27
right_child=6 2 3 29 14 -7 28 20 9 15 21 27 -14 16 -16 -17 -18 30 -20 -21 -22 -23 31 -25 -26 26 -28 -29 -30 -31 -32 -33 33 -35 -36 -37
leaf_value=-0.0016305525746018129 -0.0021657025374201165 -0.0034936883769703052 -0.0036340176340200572 -0.0020698627756171491 -0.0018881370221304422 -0.0043107459403588719 -0.0010473611022939924 -0.0012136722681274389 -0.0045470408279321591 -0.0029788014117297177 -0.0037198303948039351 -0.0019386769614484214 -0.0055031864195773323 -0.0013626079874369166 -0.001761889381312351 -0.0040790885893680082 -0.00090420259805204864 -0.0022076960927096068 -0.0020166263947668929 -0.0022814467686468765 -0.00034607152775170463 -0.0049140686380831104 -0.0035326062879234392 -0.0041891558477040259 -0.0033288299264543422 -0.003285969461385806 -0.0040182915159568174 -0.00069293369141168286 0.000111372368157022 -0.00098168607540653546 -0.0031849855660853812 -0.0026595797117472779 -0.0024995842649802816 -0.0016098182020387558 -0.0018218938451752679 -0.0028176500538172724
leaf_weight=337 333 333 526 304 321 577 314 314 6732 572 1569 303 1092 541 498 6571 485 307 577 701 304 444 318 318 639 575 489 517 379 391 517 333 349 480 428 490
leaf_count=337 333 333 526 304 321 577 314 314 6732 572 1569 303 1092 541 498 6571 485 307 577 701 304 444 318 318 639 575 489 517 379 391 517 333 349 480 428 490
internal_value=-0.00341761 -0.00369261 -0.00382887 -0.00399483 -0.00408376 -0.00258753 -0.0020381 -0.00230115 -0.00421131 -0.00435192 -0.00356012 -0.00192977 -0.00468138 -0.00212957 -0.00277924 -0.00399023 -0.00188142 -0.00223389 -0.00288456 -0.00286505 -0.00153782 -0.00398633 -0.00258796 -0.00318056 -0.00284081 -0.0031532 -0.00336869 -0.0011448 -0.000402276 -0.00144786 -0.00281379 -0.00309323 -0.00177342 -0.00191887 -0.00211829 -0.00306545
internal_weight=30278 25246 23438 20678 19983 2760 5032 4339 18207 14967 3240 1808 7824 2183 1776 7143 1850 1365 2464 1227 1875 2013 988 1278 960 1887 1554 820 693 695 824 651 1571 1257 777 1065
internal_count=30278 25246 23438 20678 19983 2760 5032 4339 18207 14967 3240 1808 7824 2183 1776 7143 1850 1365 2464 1227 1875 2013 988 1278 960 1887 1554 820 693 695 824 651 1571 1257 777 1065
is_linear=0
shrinkage=1


Tree=1
num_leaves=41
num_cat=0
split_feature=4 0 3 0 0 0 4 3 6 0 0 3 6 8 0 8 6 8 7 7 8 6 0 0 8 0 0 8 7 3 4 0 7 0 8 0 6 0 8 0
split_gain=4.14983 2.18853 1.7434 1.14954 0.704052 0.787027 0.540317 1.12031 0.331055 0.322593 0.28277 0.279418 0.269906 0.237911 0.211954 0.206142 0.226301 0.199682 0.199215 0.437411 0.183678 0.181986 0.168682 0.142484 0.134954 0.134284 0.119814 0.118002 0.101382 0.117009 0.0968476 0.0780322 0.0684916 0.0482875 0.0373164 0.045302 0.036567 0.0329675 0.0291514 0.00696294
threshold=0.90202042337497434 -0.94921892307765654 0.42406283858746513 1.0455040748010731 -1.6287924252115717 1.8009558684373579 0.049243162803027825 0.68453550335800906 0.56500000000000006 -0.68861367153149455 0.67933568093104391 2.5918073664620054 -0.60499999999999987 84.15000000000002 -0.37908138433200828 84.850000000000009 0.89500000000000013 76.350000000000009 -0.28499999999999998 -0.5149999999999999 85.850000000000009 0.20500000000000004 -1.2319955591919605 0.45894364440547625 81.550000000000011 -0.52794121762566415 0.045972033130016 79.350000000000009 -0.95499999999999985 0.28918301211245229 0.31715218994821948 0.14724506385586428 -0.69499999999999984 1.21823792307058 81.15000000000002 0.80711082440058957 0.045000000000000005 1.0296460571160495 85.15000000000002 0.069446535552763602
decision_type=2 2 2 2 2 2 2 2 8 2 2 2 10 2 2 2 10 2 2 2 2 10 2 2 2 2 2 2 2 2 2 2 2 2 2 2 10 2 2 2
left_child=1 8 18 6 -2 11 7 13 22 21 17 23 -11 14 -4 16 33 -9 19 26 -14 -8 -1 25 -25 -6 28 -12 -3 -30 -10 -28 39 -5 -13 -36 -24 -26 -15 -27
right_child=4 2 3 15 5 -7 9 10 30 12 27 34 20 38 -16 -17 -18 -19 -20 -21 -22 -23 36 24 37 32 31 -29 29 -31 -32 -33 -34 -35 35 -37 -38 -39 -40 -41
leaf_value=0.0016979654770573193 0.0032678725185545567 5.7725932701657194e-05 -0.00076080871571560264 0.00094143282322443108 0.00094376072205739313 0.0028376060369291415 -0.00026521875424317167 7.1495203212655801e-05 0.0014052262240042376 0.00099043194522544713 -0.0011563579060905834 0.0017951843088590783 -0.00043903939607393429 -0.0014045796639474261 0.00021076980465348704 -0.00038264020498958109 0 -0.0011892628709206899 0.0019258199080046026 -0.00098948748131827001 -0.0014203990657288977 0.0013059923032019451 -6.0320527496514844e-05 0.0015811863137436483 0.00015761228566664714 0 0.0019645776369862315 -0.0023449518490928486 0.00028608528918858551 0.0016404594168518945 0.0025887020901663583 0.00095466342786038744 -0.00073655564145543235 0.0016833294940021772 0.00079232733009496873 0.0015473735600021815 0.00067569330495477356 0.00085384607964136957 -0.00070128544010084537 0.00034131442298386522
leaf_weight=337 423 542 729 460 423 590 312 324 303 308 318 531 6219 323 2426 376 453 5813 341 354 522 433 319 509 372 321 339 772 321 339 517 524 309 531 396 506 332 350 359 302
leaf_count=337 423 542 729 460 423 590 312 324 303 308 318 531 6219 323 2426 376 453 5813 341 354 522 433 319 509 372 321 339 772 321 339 517 524 309 531 396 506 332 350 359 302
internal_value=1.1438e-08 -0.000261169 -0.000390652 -0.000548345 0.00131116 0.00112983 -0.000664294 -0.000889206 0.0014139 -0.000344306 -0.0012559 0.000877235 -0.000449312 -0.000197081 -1.23105e-05 0.000650024 0.000922456 -0.00112189 0.00078875 0.000625664 -0.000515974 0.000641806 0.000788287 0.000563346 0.000953648 0.000204632 0.000905312 -0.00200415 0.000574581 0.000990735 0.00215973 0.00135898 -0.000126123 0.00134529 0.00143941 0.00122267 0.000307827 0.000502752 -0.00104326 0.000169326
internal_weight=30278 25246 23438 20678 5032 4609 18858 11064 1808 7794 7227 4019 7049 3837 3155 1820 1444 6137 2760 2419 6741 745 988 2586 1231 1355 2065 1090 1202 660 820 863 932 991 1433 902 651 722 682 623
internal_count=30278 25246 23438 20678 5032 4609 18858 11064 1808 7794 7227 4019 7049 3837 3155 1820 1444 6137 2760 2419 6741 745 988 2586 1231 1355 2065 1090 1202 660 820 863 932 991 1433 902 651 722 682 623
is_linear=0
shrinkage=0.05


Tree=2
num_leaves=37
num_cat=0
split_feature=4 0 3 1 0 1 1 3 3 4 1 0 1 0 1 3 3 0 8 0 1 1 8 0 8 7 8 4 4 0 1 1 7 3 0 0
split_gain=3.74769 1.97619 1.57478 1.65362 1.08797 0.787117 0.722547 0.628429 0.552491 0.563387 0.339931 0.273736 0.271419 0.267805 0.249303 0.219799 0.218068 0.210317 0.207429 0.192563 0.178729 0.248914 0.165186 0.163735 0.143984 0.0893062 0.0876874 0.067131 0.0633876 0.0564096 0.0446437 0.0373374 0.0292723 0.0270426 0.0229313 0.0067459
threshold=0.90202042337497434 -0.94921892307765654 0.42406283858746513 3.5927742091159396 1.0455040748010731 2.6521319379627171 1.0739690569288232 2.5918073664620054 0.64943728597014327 0.049243162803027825 2.1060482084284229 0.67933568093104391 1.8734524069801162 -0.24696068715636685 2.0624703072863402 1.2515800379441397 0.34037409906562544 -0.72981978558561855 80.750000000000014 0.58379572283795245 2.4400550581724474 2.3354038632198653 83.65000000000002 1.8717469959637267 84.850000000000009 -0.64499999999999991 81.65000000000002 1.1252829501894872 0.34290015859709844 1.1312171534551634 1.2829371159850316 0.047327082665328403 -0.91499999999999992 2.8287685227185642 -0.19375312263191793 0.29433872591716154
decision_type=2 2 2 2 2 2 2 2 2 2 2 2 2 2 2 2 2 2 2 2 2 2 2 2 2 2 2 2 2 2 2 2 2 2 2 2
left_child=1 12 5 4 8 13 7 19 10 11 18 -10 -1 -3 24 -14 20 -11 -4 25 21 -15 -12 31 30 34 -21 -8 -5 -28 -6 33 -17 -9 -2 -35
right_child=6 2 3 28 14 -7 27 23 9 17 22 -13 15 16 -16 32 -18 -19 -20 26 -22 -23 -24 -25 -26 -27 29 -29 -30 -31 -32 -33 -34 35 -36 -37
leaf_value=0.00043742569877317059 0.0007175485592125848 -0.0001063824690840748 -0.00021483923730984851 0.0012861598332824767 0.00011505764933860709 -0.00088652640046788683 0.0021442835481471517 0.00091469651466297662 -0.0010207654025552299 0.00038804990188649378 -0.00028171909135057456 -0.0018817388054568835 0.00093331904029688741 0.0012948784223363527 0.0015242042960419428 0.0019076778402034836 0.0023393681426881843 -0.0006060148894040144 0.0010913228657777952 0.0015684785574458814 0.0017624480996073543 -0.00051740826895837891 -0.0013803568416006283 0.0027770465802931851 -0.00071402089294049097 -0.00044187609358690679 0.00014582257291709196 0.0032293636538957612 0.0023123610528317821 0.0011031795202946695 0.00081626367049575778 0.0019868423623987195 0.0026538250665106892 0.0017279452920824397 0.00018213855310263906 0.0013299704056958476
leaf_weight=578 340 333 526 304 429 577 314 340 6732 572 1569 1092 497 485 498 338 485 6571 701 409 575 305 444 304 318 499 337 379 391 306 531 333 395 352 573 546
leaf_count=578 340 333 526 304 429 577 314 340 6732 572 1569 1092 497 485 498 338 485 6571 701 409 575 305 444 304 318 499 337 379 391 306 531 333 395 352 573 546
internal_value=1.45145e-07 -0.00024805 -0.000371099 -0.00052098 -0.000604587 0.00074978 0.00124616 0.00100445 -0.000719936 -0.000848138 -0.000126094 -0.0011418 0.00134366 0.00118478 0.000574863 0.00176475 0.00141982 -0.000525669 0.000527596 0.000476403 0.00108796 0.000589107 -0.000527089 0.00169508 0.000200121 9.07951e-05 0.000988642 0.00274871 0.00187317 0.000610193 0.000508561 0.0014809 0.00231964 0.00133928 0.000387562 0.00149328
internal_weight=30278 25246 23438 20678 19983 2760 5032 4339 18207 14967 3240 7824 1808 2183 1776 1230 1850 7143 1227 2464 1365 790 2013 1875 1278 1412 1052 693 695 643 960 1571 733 1238 913 898
internal_count=30278 25246 23438 20678 19983 2760 5032 4339 18207 14967 3240 7824 1808 2183 1776 1230 1850 7143 1227 2464 1365 790 2013 1875 1278 1412 1052 693 695 643 960 1571 733 1238 913 898
is_linear=0
shrinkage=0.05


Tree=3
num_leaves=38
num_cat=0
split_feature=4 0 2 3 1 0 1 3 4 1 1 2 3 6 0 1 3 6 0 0 6 6 0 0 4 1 4 1 6 4 2 1 4 2 6 3 4
split_gain=3.38514 1.78478 1.72873 1.42123 1.4933 0.982397 0.71065 0.502156 0.578322 0.502985 0.385286 0.382988 0.300006 0.287515 0.242012 0.224938 0.196587 0.244985 0.189927 0.145241 0.140241 0.136781 0.133994 0.0839713 0.0801394 0.0708811 0.0650098 0.0611838 0.0573946 0.0568613 0.0559092 0.0398942 0.0339707 0.028825 0.0273749 0.0180288 0.000242536
threshold=0.90202042337497434 -0.94921892307765654 -1.7100210493739474 0.42406283858746513 3.5927742091159396 1.0455040748010731 2.6521319379627171 0.68453550335800906 0.049243162803027825 2.1060482084284229 1.9937010033647182 0.38131101470704493 2.5600505267490932 0.56500000000000006 -0.24696068715636685 2.0624703072863402 0.34037409906562544 0.31500000000000006 -0.72981978558561855 -1.2319955591919605 0.93500000000000016 0.24500000000000002 0.45894364440547625 -0.52794121762566415 0.31715218994821948 0.36990936483821352 1.0317098713599293 2.3354038632198653 0.51500000000000012 0.34290015859709844 1.1974926498934599 1.8251819222617371 1.1373152705030878 0.80673349135613659 0.47500000000000003 2.7796116352857902 2.0084775108674768
decision_type=2 2 2 2 2 2 2 2 2 2 2 2 2 8 2 2 2 10 2 2 10 10 2 2 2 2 2 2 10 2 2 2 2 2 10 2 2
left_child=1 13 -2 6 5 7 14 9 11 20 12 -9 22 19 -3 28 17 -16 -10 -1 -5 -11 23 -4 -15 -24 -27 -19 -7 -6 -30 -21 -25 35 -35 -14 -37
right_child=2 3 10 4 29 15 -8 8 18 21 -12 -13 33 24 16 -17 -18 27 -20 31 -22 -23 25 32 -26 26 -28 -29 30 -31 -32 -33 -34 34 -36 36 -38
leaf_value=0.0015375993556956784 0.0045320617826092079 -0.0001010792721292941 0.00067682878439979987 0.00079242924874566457 0.0012220626793568955 0.00057706898584252819 -0.00084227678550799652 -0.00083781157459148024 0.00036868123587777184 -0.0012083107531569918 0.0023060882030861291 -0.0015866589783324711 0.00077740896561056313 0.0012823717615384868 0.0018626926363192583 0.0014481467944430493 0.0022226404028787114 0.0010421925169021053 -0.00057571869839661584 -0.00014017716432603364 -0.00035732737663628152 -0.00037317096831481508 0.00014244734537120478 -0.00054106740094704206 0.0023634597859528541 0.00052856324152740649 0.0014232861469367312 0.00013783537867568022 -0.00046713774215423516 0.0021970379292954984 0.00041782014518328608 0.00063199768197885861 7.393453917837808e-05 0.0018329311794045297 0.0011445062072033886 0.0011042681623951354 0.0014064717701310844
leaf_weight=337 358 333 371 1176 304 549 577 4361 572 726 459 2866 394 303 541 498 485 307 6571 318 335 1600 327 424 517 396 478 517 428 391 301 333 450 401 330 333 311
leaf_count=337 358 333 371 1176 304 549 577 4361 572 726 459 2866 394 303 541 498 485 307 6571 318 335 1600 327 424 517 396 478 517 428 391 301 333 450 401 330 333 311
internal_value=3.00776e-07 -0.000235576 0.00118452 -0.000352522 -0.000494915 -0.000574376 0.000712271 -0.000683991 -0.000819766 -0.000174117 0.000926135 -0.00113565 0.000774165 0.00127705 0.00112565 0.00054631 0.0013491 0.00103366 -0.000499352 0.00069371 0.000534145 -0.000636394 0.000412132 4.42786e-05 0.00197212 0.000788949 0.00102468 0.00048169 0.000190123 0.00178013 -9.48225e-05 0.000247501 -0.000218982 0.00127141 0.00153097 0.0010825 0.00125991
internal_weight=30278 25246 5032 23438 20678 19983 2760 18207 14370 3837 4674 7227 4215 1808 2183 1776 1850 1365 7143 988 1511 2326 2446 1245 820 1201 874 824 1278 695 729 651 874 1769 731 1038 644
internal_count=30278 25246 5032 23438 20678 19983 2760 18207 14370 3837 4674 7227 4215 1808 2183 1776 1850 1365 7143 988 1511 2326 2446 1245 820 1201 874 824 1278 695 729 651 874 1769 731 1038 644
is_linear=0
shrinkage=0.05


Tree=4
num_leaves=38
num_cat=0
split_feature=4 2 0 3 1 1 3 0 1 3 1 4 2 0 1 3 8 1 1 7 1 8 8 8 1 3 1 4 7 8 2 3 1 8 8 2 7
split_gain=3.05937 1.77841 1.30914 1.4391 1.09039 0.867426 0.647845 0.642787 0.641785 0.558262 0.45397 0.333861 0.334205 0.218807 0.19449 0.17708 0.172183 0.166177 0.218422 0.157073 0.154137 0.135872 0.132488 0.13183 0.127012 0.0900719 0.140718 0.0880728 0.0868812 0.0566208 0.0366871 0.0470412 0.0293051 0.0180441 0.0383521 0.00938432 0.00837012
threshold=0.6751457731420446 -1.7100210493739474 -0.88883545848075973 0.42406283858746513 3.5927742091159396 1.2734284041336561 2.2618526860207431 1.0455040748010731 2.6521319379627171 0.68453550335800906 2.1060482084284229 0.031579649279595452 0.38131101470704493 -0.24696068715636685 2.4257227660315963 0.34037409906562544 79.250000000000014 2.4400550581724474 2.3354038632198653 -1.1649999999999998 2.0624703072863402 83.950000000000017 84.450000000000017 80.250000000000014 2.5462591930240626 2.5918073664620054 0.24813085401810728 0.27279602598848041 -0.8849999999999999 81.65000000000002 0.43203764465794575 1.9591068249655235 2.236317443778435 84.550000000000011 81.550000000000011 1.2651326486211862 -0.89499999999999991
decision_type=2 2 2 2 2 2 2 2 2 2 2 2 2 2 2 2 2 2 2 2 2 2 2 2 2 2 2 2 2 2 2 2 2 2 2 2 2
left_child=2 -2 14 8 7 6 16 9 13 10 21 12 -11 -4 23 17 -3 18 -15 -18 28 -5 -13 -1 -12 26 -8 -16 -9 -28 31 -21 -7 34 -27 -34 -36
right_child=1 5 3 4 -6 32 25 20 -10 11 24 22 -14 15 27 -17 19 -19 -20 30 -22 -23 -24 -25 -26 33 29 -29 -30 -31 -32 -33 35 -35 36 -37 -38
leaf_value=0.0012304711384673699 0.0043129349235759649 0.00068770396395079788 -9.6040469201136679e-05 0.00075100335353911691 0.0015914280927650051 0.0015471613550873467 8.0785270274154274e-05 0.00072149483129230511 -0.00080023581409326573 -0.00080936586874893286 -0.00023184154814339856 -0.00047149137668343882 -0.0015275952505851727 0.0011632397326056779 0.0009419897308053319 0.0021117370166826477 0.00073840545414858281 0.0016324130412656108 -0.00053456707641648231 -0.00096091063237059744 0.0012525769582041348 -0.00040903003084642741 -0.0010961051825835748 3.1588000975750137e-05 -0.00097790213407379927 0.001395798932651353 0.0016379587299789223 0.0020315522664757341 -0.00031939971571874891 0.00072585455281819807 -0.00012785214161110131 -0.00032895507851036902 0.002502805797668936 0.0015620315948297503 0.0010215519118950236 0.0019835889500028916 0.00057793138733990739
leaf_weight=394 363 567 333 1198 576 303 591 323 577 4173 1171 4988 2709 485 343 485 312 575 305 572 420 313 1045 568 1155 661 320 482 520 436 576 679 329 399 300 432 300
leaf_count=394 363 567 333 1198 576 303 591 323 577 4173 1171 4988 2709 485 343 485 312 575 305 572 420 313 1045 568 1155 661 320 482 520 436 576 679 329 399 300 432 300
internal_value=4.54209e-07 0.000905311 -0.00027858 -0.000387569 -0.000545884 0.000721439 0.000475982 -0.000614584 0.000676826 -0.000696713 -0.000165491 -0.000854125 -0.00109299 0.00106971 0.0010203 0.00128219 -8.36074e-05 0.00098245 0.000501589 -0.000290627 0.000470484 0.000507287 -0.000580676 0.000528567 -0.000604716 0.000981078 0.000668255 0.0015863 7.38828e-05 0.00112019 -0.000469399 -0.000622437 0.00203301 0.00123135 0.0011216 0.00221761 0.000809392
internal_weight=30278 7140 23138 21351 18591 6777 5713 18015 2760 16752 3837 12915 6882 2183 1787 1850 2706 1365 790 2139 1263 1511 6033 962 2326 3007 1347 825 843 756 1827 1251 1064 1660 1261 761 600
internal_count=30278 7140 23138 21351 18591 6777 5713 18015 2760 16752 3837 12915 6882 2183 1787 1850 2706 1365 790 2139 1263 1511 6033 962 2326 3007 1347 825 843 756 1827 1251 1064 1660 1261 761 600
is_linear=0
shrinkage=0.05


Tree=5
num_leaves=55
num_cat=0
split_feature=4 2 3 4 1 1 3 3 3 1 1 2 7 7 7 2 1 7 8 2 7 8 8 8 8 7 2 7 8 6 6 8 2 8 6 6 3 2 8 7 6 3 1 7 8 6 6 8 1 2 8 6 6 2
split_gain=2.7631 1.60503 1.03445 1.10066 1.60245 0.783216 0.752908 0.630746 0.585481 0.579448 0.409724 0.31324 0.211963 0.197178 0.27383 0.193453 0.178287 0.169811 0.203926 0.165554 0.162244 0.341421 0.256183 0.161062 0.155476 0.14192 0.133095 0.153416 0.129404 0.184418 0.122885 0.17394 0.111674 0.108834 0.105639 0.0910817 0.0906902 0.0849086 0.084447 0.126815 0.0822042 0.0811414 0.126996 0.0598046 0.0465694 0.0400513 0.0467277 0.0288993 0.0260995 0.0178698 0.0278416 0.0167064 0.0185422 0.0080574
threshold=0.6751457731420446 -1.7100210493739474 0.42406283858746513 0.049243162803027825 2.0624703072863402 1.2734284041336561 0.68453550335800906 1.2436389554203162 2.2618526860207431 2.6521319379627171 2.1060482084284229 0.38131101470704493 -0.91499999999999992 -0.33499999999999996 -0.58499999999999985 -0.95998566939568608 3.0876102052820511 -0.32499999999999996 82.750000000000014 1.2217440511077047 -0.95499999999999985 81.65000000000002 79.450000000000017 78.850000000000009 79.250000000000014 -1.1649999999999998 0.24078314635042306 -0.61499999999999988 84.450000000000017 0.91500000000000015 0.24500000000000002 83.550000000000011 0.28055298407965479 81.550000000000011 0.56500000000000006 0.47500000000000003 0.87207780867878781 0.90777099052901 84.250000000000014 -1.0549999999999999 0.23500000000000001 2.5918073664620054 0.28053707611912732 -0.57499999999999984 81.950000000000017 0.75500000000000012 0.43500000000000005 81.850000000000009 2.236317443778435 1.1040929877334034 81.550000000000011 0.78500000000000014 0.41500000000000004 1.2651326486211862
decision_type=2 2 2 2 2 2 2 2 2 2 2 2 2 2 2 2 2 2 2 2 2 2 2 2 2 2 2 2 2 10 10 2 2 2 8 10 2 2 2 2 10 2 2 2 2 10 10 2 2 2 2 10 10 2
left_child=2 -2 9 6 15 8 10 34 24 13 26 12 23 14 20 33 38 18 -14 28 22 -22 -1 -8 -3 -26 27 35 29 -17 43 32 -32 -5 37 -4 -25 -6 39 -13 -30 42 47 -12 -44 46 -27 -10 -7 50 -43 52 -9 -50
right_child=1 5 3 4 7 48 11 51 41 -11 30 16 17 -15 -16 19 -18 -19 -20 -21 21 -23 -24 36 25 45 -28 -29 40 -31 31 -33 -34 -35 -36 -37 -38 -39 -40 -41 -42 49 44 -45 -46 -47 -48 -49 53 -51 -52 -53 -54 -55
leaf_value=-0.00053753558057976006 0.0040978806420461401 0.00065337928799046605 -0.00032107115016358299 0.0011228899309312884 0.00040457924976172553 0.0014700577389138696 -0.000451698979365249 0.0019016793564695053 0.00044488030001339513 -0.00076029324542945583 -0.0015682190166137603 -0.0021043368195780361 0.00015745337770446292 0.0021731707224905109 -0.00052750406719893276 -0.00024599401659627701 -0.00039486398523702051 -0.0012831548891322903 -0.00085198191267335944 0.00061806809922955463 0.0026226422367206393 0.00053074487071196671 0.0013209150017265108 -0.00099993696486303375 0.00070160312798824877 -0.00039685731681883936 -0.00041266353037121278 0.0016195214753666814 -0.0015547593077092185 -0.00097844227526797133 -0.00049884291119856115 -0.0012845011261676132 0.00045090678494776005 -0.00015928509142582438 0.00078810302731857477 0.000748584375815911 -0.0018882278767453652 -0.00072543518572117018 -0.0022212521629218288 -0.0011912186342784151 -0.00063530289413147093 0.0013280394407991333 0.0015777073508654246 -0.00062484422989839757 0.00070645118506245459 -9.5743094450975183e-06 -0.0010732404059230079 -0.00020842307829298077 0.002378044715914946 0.0014185331005959053 0.00077627212628450764 0.0022005340877323128 0.001350322193635117 0.0018846385641661111
leaf_weight=311 363 567 306 304 324 303 556 605 358 577 372 546 1211 319 311 3670 373 505 844 326 399 396 447 564 312 1040 320 344 452 1135 641 364 595 349 517 541 681 334 460 1487 591 480 313 354 368 426 361 308 329 587 593 367 340 432
leaf_count=311 363 567 306 304 324 303 556 605 358 577 372 546 1211 319 311 3670 373 505 844 326 399 396 447 564 312 1040 320 344 452 1135 641 364 595 349 517 541 681 334 460 1487 591 480 313 354 368 426 361 308 329 587 593 367 340 432
internal_value=5.4468e-07 0.000860482 -0.000264627 -0.000387821 1.21588e-05 0.000685759 -0.000724959 0.00109903 0.000452463 0.000642957 -0.000157293 -0.00102559 -0.000756006 0.00101633 0.000814606 -0.000383146 -0.00143365 -0.00046012 -0.000254908 -0.000470097 0.00108676 0.0015889 0.00055212 -0.00117333 -7.94269e-05 -0.000276228 0.000481768 0.000726425 -0.000531708 -0.000420215 -0.000574613 -0.000325022 -3.76045e-05 0.000430782 0.0002523 0.000356325 -0.00149096 -0.000161658 -0.00158685 -0.00143983 -0.00103966 0.00093264 0.000635304 -0.0011166 0.00111595 -0.000446242 -0.000575351 0.000135396 0.00193211 0.00117037 0.00102876 0.00185276 0.00171023 0.00210735
internal_weight=30278 7140 23138 20378 9314 6777 11064 2487 5713 2760 3837 7227 4361 2183 1864 6827 2866 2560 2055 6174 1553 795 758 1801 2706 2139 1511 1191 5848 4805 2326 1600 1236 653 1175 847 1245 658 2493 2033 1043 3007 1347 726 681 1827 1401 666 1064 1660 1073 1312 945 761
internal_count=30278 7140 23138 20378 9314 6777 11064 2487 5713 2760 3837 7227 4361 2183 1864 6827 2866 2560 2055 6174 1553 795 758 1801 2706 2139 1511 1191 5848 4805 2326 1600 1236 653 1175 847 1245 658 2493 2033 1043 3007 1347 726 681 1827 1401 666 1064 1660 1073 1312 945 761
is_linear=0
shrinkage=0.05


Tree=6
num_leaves=39
num_cat=0
split_feature=4 0 2 1 0 2 1 1 2 4 1 6 1 8 1 8 0 4 8 6 0 8 8 8 8 1 2 0 0 4 4 0 2 4 4 0 6 1
split_gain=2.49875 1.35413 1.26911 0.955118 0.530574 0.567504 0.674556 1.08752 0.585105 0.300491 0.283737 0.233526 0.193231 0.217236 0.167827 0.154217 0.14717 0.129804 0.124782 0.142989 0.116296 0.116101 0.111794 0.10233 0.101743 0.0954206 0.109228 0.0807361 0.0715462 0.0605984 0.0577813 0.0534714 0.0511228 0.0471751 0.035679 0.0271506 0.0228334 0.0200563
threshold=0.90202042337497434 -0.94921892307765654 -1.7100210493739474 3.5927742091159396 1.0455040748010731 0.37269105697489435 1.8038594218347594 2.6521319379627171 -0.55994428437489396 0.049243162803027825 1.9937010033647182 0.56500000000000006 2.1174287043362683 79.65000000000002 2.0743430810658383 78.050000000000011 0.75371511277840575 1.75972301686633 84.850000000000009 0.54500000000000015 -1.2319955591919605 84.450000000000017 80.750000000000014 84.450000000000017 83.750000000000014 1.4595574143434704 0.078160246832919264 -0.80119391392401784 0.42502155520899892 0.31715218994821948 1.0317098713599293 1.2614424786861083 -0.48964831893248384 0.34290015859709844 0.29415523142612293 1.0968864918986305 0.32500000000000007 0.15417914069960134
decision_type=2 2 2 2 2 2 2 2 2 2 2 8 2 2 2 2 2 2 2 10 2 2 2 2 2 2 2 2 2 2 2 2 2 2 2 2 10 2
left_child=1 11 -2 4 5 6 25 8 -8 12 16 20 23 -14 18 -9 17 24 19 -6 -1 22 -11 -7 27 26 -3 -4 -29 -13 -18 -21 -27 -5 -22 -32 -37 -38
right_child=2 3 10 33 14 9 7 15 -10 21 -12 29 13 -15 -16 -17 30 -19 -20 31 34 -23 -24 -25 -26 32 -28 28 -30 -31 35 -33 -34 -35 -36 36 37 -39
leaf_value=0.0013440973264274233 0.0038867205173079115 -0.00032883384139493712 0.0011283067534565026 0.0010102094519586632 0.0012770979516017582 -0.0012978695094136513 -0.00073410545146673962 -2.2797113090900135e-05 0.00069341961730336763 -0.00056212132063146935 0.0019814021698306454 0.0011367811645782481 -0.00010214517085087596 -0.0011372793305000346 0.0012550982167050554 -0.001054155875903061 0.00035033323053028018 0.0012073816628550243 -0.00068512866670730743 -0.00044622877161825888 0.0005919014716157736 -0.0010948442758262305 0.00019365383236991985 -0.0023403958287890902 -0.00051625296809062408 -0.0012940119810294953 -0.00091474359772120834 0 0.00085892673756371777 0.0020840311487759083 0.00076378531940955513 0.00047610493884741461 -0.00073315046498120958 0.0018985822644841319 -0.00014164142914854563 0.0016517753737362029 0.00073678119500935181 0.0013140881909909259
leaf_weight=337 358 3388 309 304 338 1484 852 466 4443 1032 459 303 797 1448 491 1805 310 411 320 322 300 457 916 301 369 560 1063 937 323 517 448 305 1955 391 351 326 306 476
leaf_count=337 358 3388 309 304 338 1484 852 466 4443 1032 459 303 797 1448 491 1805 310 411 320 322 300 457 916 301 369 560 1063 937 323 517 448 305 1955 391 351 326 306 476
internal_value=5.19983e-07 -0.000202112 0.00101797 -0.000303999 -0.000359998 -0.000430412 -0.000256779 6.95009e-05 0.000462682 -0.000821643 0.000796391 0.00111538 -0.00108622 -0.00077223 0.000468247 -0.000844829 0.000665722 0.000398574 0.00016296 0.000449785 0.000589089 -0.000375947 -0.000204254 -0.00147768 0.000223934 -0.00061184 -0.00047006 0.000401415 0.000218435 0.00174191 0.000998948 0 -0.000860486 0.00151919 0.000189117 0.00112465 0.00126523 0.0010958
internal_weight=30278 25246 5032 23438 22743 20967 14532 7566 5295 6435 4674 1808 4030 2245 1776 2271 4215 2349 1285 965 988 2405 1948 1785 1938 6966 4451 1569 1260 820 1866 627 2515 695 651 1556 1108 782
internal_count=30278 25246 5032 23438 22743 20967 14532 7566 5295 6435 4674 1808 4030 2245 1776 2271 4215 2349 1285 965 988 2405 1948 1785 1938 6966 4451 1569 1260 820 1866 627 2515 695 651 1556 1108 782
is_linear=0
shrinkage=0.05


Tree=7
num_leaves=58
num_cat=0
split_feature=4 2 3 4 1 1 3 3 1 1 2 2 2 2 7 2 7 10 3 7 7 1 1 7 3 3 3 6 1 1 7 6 6 3 1 3 1 1 2 6 1 6 7 2 3 3 3 1 2 7 1 3 2 1 6 7 3
split_gain=2.26955 1.30728 0.87449 0.907705 1.3314 0.651515 0.616602 0.487587 0.477065 0.34291 0.30932 0.28161 0.264838 0.262154 0.199336 0.189104 0.205819 0.253271 0.189059 0.177893 0.247326 0.16401 0.300383 0.146892 0.276199 0.147426 0.125761 0.118314 0.11561 0.102613 0.0940091 0.09102 0.111116 0.0892571 0.0697579 0.0690203 0.106156 0.0529426 0.0916612 0.0509902 0.0482276 0.0447666 0.0422928 0.0376975 0.0494446 0.0380506 0.0341043 0.0324752 0.0301922 0.0284144 0.0175575 0.0154438 0.013876 0.0134971 0.0108537 0.0108232 0.0293843
threshold=0.6751457731420446 -1.7100210493739474 0.42406283858746513 0.049243162803027825 2.6382114268067456 1.2032544662752194 0.68453550335800906 2.2618526860207431 2.6521319379627171 2.4543419485337767 1.1583870687970832 -0.95998566939568608 0.32636342586690953 -0.24552224203936751 -0.91499999999999992 0.24078314635042306 -0.66499999999999992 1.0000000180025095e-35 1.297687667935733 -0.33499999999999996 -0.58499999999999985 2.095408674994093 1.8038594218347594 -0.95499999999999985 0.28918301211245229 0.24418725723951581 1.0043187703673992 0.28500000000000009 1.7442903368260299 1.854533468464709 -1.115 0.50500000000000012 1.0350000000000004 0.53377021872093422 0.88610947335916579 2.5918073664620054 0.24813085401810728 1.6788153310948621 -0.25452089037897807 0.90500000000000014 3.1692230100799157 0.52500000000000013 -0.84499999999999986 0.10969212367824792 1.9451377290886827 2.071496577720747 0.97822992546696519 2.0624703072863402 0.62572968445899713 -0.71499999999999986 3.7146549239898374 1.1428578085299916 1.1040929877334034 3.5927742091159396 0.32500000000000007 -1.0649999999999997 2.8287685227185642
decision_type=2 2 2 2 2 2 2 2 2 2 2 2 2 2 2 2 2 2 2 2 2 2 2 2 2 2 2 10 2 2 2 10 10 2 2 2 2 2 2 10 2 10 2 2 2 2 2 2 2 2 2 2 2 2 10 2 2
left_child=2 -2 8 6 10 7 9 30 19 15 11 42 14 -11 37 16 17 -4 51 20 23 22 -16 25 -25 -1 31 -15 41 -12 -3 48 -33 -17 -13 36 -9 46 -39 -36 -23 -28 -5 44 -32 -46 -8 -7 -14 -38 -20 -6 55 -49 -45 -37 -57
right_child=1 5 3 4 18 47 12 35 -10 13 29 34 26 27 21 33 -18 -19 50 -21 -22 40 -24 24 -26 -27 28 -29 -30 -31 43 32 -34 -35 39 52 49 38 -40 -41 -42 -43 -44 54 45 -47 -48 53 -50 -51 -52 -53 -54 -55 -56 56 -58
leaf_value=0.0013450056763888011 0.0037019161306956708 0.00046736321493087891 -0.00052220161995903812 0.0009044040893347625 0.00036859007334498803 0.0012327975536953039 -0.0018579128345271633 5.7343712819479031e-05 -0.00067810703803232843 -0.0018593135107147656 0.00015472011315485453 -0.0011552320920598341 -0.002107978026357738 -0.0010678241616108321 -0.00047190065347749757 -0.0010796680879604731 0.0013373496392920644 0.0010200036549053357 0.0020042107233151098 0.0020323408121644209 -0.00053346458294398853 -0.0014896658924197521 0.0010845047488684922 0.00053155586142092956 0.0024158144893982568 -6.7393278643481739e-05 -0.00070492642371367724 9.9841945052184724e-05 9.5771128827886979e-06 0.0014040611140848998 -0.00081493983080454472 -0.00075817395380835555 -0.0018749671403923607 -1.7697306226970492e-05 -0.00035506033734536408 0.0011777519051720071 0.0012275331379931744 -0.0012069599799832038 -0.00022121881072341995 -0.00072248358162442538 -0.00059141845545397371 -0.0016005716284789859 0.00017231169914246611 -0.00018862456158790408 0.00024358590863078592 -0.00048097042523921374 -0.0010641647543844183 0.0022244320855715183 -0.0015236697160824263 0.00055454781950090622 0.0014803336085908315 0.00089596311400037636 0.0012858636411897039 0.0016855906374291245 0.00016445062961909421 0.00039726280766548376 0.0010914942338373711
leaf_weight=303 363 595 628 362 312 300 307 591 577 404 357 366 546 338 1379 302 523 459 520 319 311 327 398 399 396 455 306 584 300 321 488 691 350 599 4582 387 445 669 386 1242 326 315 480 393 320 400 339 327 588 301 430 342 583 477 484 306 380
leaf_count=303 363 595 628 362 312 300 307 591 577 404 357 366 546 338 1379 302 523 459 520 319 311 327 398 399 396 455 306 584 300 321 488 691 350 599 4582 387 445 669 386 1242 326 315 480 393 320 400 339 327 588 301 430 342 583 477 484 306 380
internal_value=5.34593e-07 0.000779909 -0.000239775 -0.000353058 1.01257e-05 0.000622136 -0.000659221 0.000404554 0.000594644 -0.000145351 -0.000262039 -0.000360881 -0.000931298 -0.000796237 -0.000666466 0.000196557 0.000522351 0.000124758 0.00132081 0.000933498 0.000741775 -0.000372484 -0.000120082 0.00100055 0.00147827 0.000491634 -0.00128272 -0.000323494 -0.000780163 0.000754783 -8.36235e-05 -0.00149277 -0.00113989 -0.000379998 -0.000477994 0.00084323 0.00056719 -0.00108304 -0.000851586 -0.000434384 -0.00105047 -0.00116912 0.00049369 -0.000243405 -0.00042447 -0.000152119 -0.0014514 0.0017343 -0.00181102 0.000963793 0.00177415 0.000652953 0.0010626 0.00191345 5.01683e-07 0.000935556 0.00079013
internal_weight=30278 7140 23138 20378 9314 6777 11064 5673 2760 3837 7710 7032 7227 1326 4131 2511 1610 1087 1604 2183 1864 2430 1777 1553 795 758 3096 922 921 678 2680 2175 1041 901 6190 2993 1337 1701 1055 5824 653 621 842 2085 1208 720 646 1104 1134 746 950 654 1656 804 877 1073 686
internal_count=30278 7140 23138 20378 9314 6777 11064 5673 2760 3837 7710 7032 7227 1326 4131 2511 1610 1087 1604 2183 1864 2430 1777 1553 795 758 3096 922 921 678 2680 2175 1041 901 6190 2993 1337 1701 1055 5824 653 621 842 2085 1208 720 646 1104 1134 746 950 654 1656 804 877 1073 686
is_linear=0
shrinkage=0.05


Tree=8
num_leaves=45
num_cat=0
split_feature=4 0 3 1 1 3 0 1 3 8 6 0 0 1 8 3 6 6 1 8 3 1 7 8 3 6 8 3 3 7 7 0 0 3 7 7 4 8 6 6 7 0 6 8
split_gain=2.0505 0.930418 1.0143 0.798414 0.763663 0.664901 0.547329 0.39478 0.287955 0.229247 0.210218 0.195678 0.184739 0.178634 0.276753 0.211724 0.174296 0.551896 0.173506 0.188233 0.160731 0.140712 0.150832 0.137941 0.129234 0.125057 0.127014 0.165349 0.117918 0.106805 0.0894741 0.0800213 0.0832098 0.0876722 0.0612521 0.0559991 0.0508126 0.0478359 0.0332993 0.0414479 0.0458366 0.0259439 0.0194777 0.0169351
threshold=0.6751457731420446 -0.87072438535671715 0.62373948922522449 1.2268965134067795 3.5927742091159396 2.2803028256516193 0.93205223554818373 2.6521319379627171 0.42406283858746513 76.350000000000009 0.20500000000000004 -0.24696068715636685 1.8009558684373579 2.0845407989767804 86.350000000000009 1.0348214827555284 0.28500000000000009 0.025000000000000005 2.1060482084284229 80.750000000000014 0.34037409906562544 2.7702484971467047 -0.81499999999999984 79.250000000000014 0.52639660940800492 0.89500000000000013 84.750000000000014 1.2436389554203162 1.1635105137009705 -1.1649999999999998 -0.91499999999999992 -1.2710485014378927 1.0968864918986305 2.7796116352857902 -0.82499999999999984 -0.98499999999999988 1.1252829501894872 83.250000000000014 0.75500000000000012 0.43500000000000005 -0.53499999999999992 -0.59630615151993027 -0.19499999999999998 82.15000000000002
decision_type=2 2 2 2 2 2 2 2 2 2 8 2 2 2 2 2 10 10 2 2 2 2 2 2 2 10 2 2 2 2 2 2 2 2 2 2 2 2 10 10 2 2 10 2
left_child=1 10 7 5 6 23 9 8 11 -4 42 -3 31 14 -11 -15 17 -13 19 -10 -18 -9 -23 -2 34 26 27 -8 -12 -25 -30 -7 33 35 -20 -33 41 -21 39 40 -31 -5 -1 -34
right_child=3 2 4 36 -6 12 25 21 18 13 28 16 -14 15 -16 -17 20 -19 24 37 -22 22 -24 29 -26 -27 -28 -29 30 38 -32 32 43 -35 -36 -37 -38 -39 -40 -41 -42 -43 -44 -45
leaf_value=-0.0002108323725988157 0.00062320073870179881 -0.00021569691009019239 0.00025452244985705723 0.0020281125590983339 0.0012633960792828524 0.0016238589484882224 -0.00021981807771495637 -0.0011583811650850582 -0.00024406509031242143 -0.00059211970649995348 0.0005110001367934024 0.0004215479201122469 0.0019913256775560243 -0.001257854822675167 -0.0018095470690653308 0.00012500999812082707 0.00034842841853507256 0.0033074571730951729 -0.0013399253596779984 0.0015530210965376458 0.001679686500556963 0.00062071749220307866 -0.00074068921671339289 0.00058769653462734301 0.00025699815470495765 -0.00048039209691087955 -0.0003757266673559305 0.0011256861732284015 0.0010041621503385498 -4.6806467811014351e-05 0.0020727042791723431 0.00070767653140277483 0.0014577111638603344 0.0010588336185268614 -0.00032434210924631255 -3.1677914104086155e-05 0.0024647504425943404 0.00062358233884927028 0 -0.00096367022083139345 -0.00071526390341757171 0.0013861597541376042 0.00034902955490977476 0.00093955207969064814
leaf_weight=304 589 333 576 379 569 307 323 506 446 9198 435 372 417 2550 496 303 858 305 313 305 315 385 427 329 458 506 355 732 422 623 422 415 336 521 314 635 357 303 438 368 457 445 307 524
leaf_count=304 589 333 576 379 569 307 323 506 446 9198 435 372 417 2550 496 303 858 305 313 305 315 385 427 329 458 506 355 732 422 623 422 415 336 521 314 635 357 303 438 368 457 445 307 524
internal_value=5.45446e-07 -0.000227864 -0.000322606 0.000741362 -0.000530364 0.000504661 -0.000598643 0.000251444 0.000483024 -0.000713973 0.000834219 0.000887068 0.00100253 -0.000758849 -0.000655106 -0.00110924 0.00108828 0.00173203 6.81094e-05 0.000526726 0.000711313 -0.000503955 -8.90751e-05 -5.39098e-05 -0.000372875 0.000188623 0.000432423 0.000709192 0.00119868 -0.000236419 0.00154617 0.000849441 0.00074896 0.000526054 -0.000840612 0.000256181 0.00193003 0.00109983 -0.000383066 -0.000498545 -0.000334688 0.00168959 6.24138e-05 0.00114926
internal_weight=30278 23138 21248 7140 15608 5959 15039 5640 4322 13123 1890 2183 3155 12547 9694 2853 1850 677 2139 1054 1173 1318 812 2804 1085 1916 1410 1055 1279 2215 844 2738 2431 1571 627 1050 1181 608 1886 1448 1080 824 611 860
internal_count=30278 23138 21248 7140 15608 5959 15039 5640 4322 13123 1890 2183 3155 12547 9694 2853 1850 677 2139 1054 1173 1318 812 2804 1085 1916 1410 1055 1279 2215 844 2738 2431 1571 627 1050 1181 608 1886 1448 1080 824 611 860
is_linear=0
shrinkage=0.05


Tree=9
num_leaves=30
num_cat=0
split_feature=2 2 1 3 3 2 1 3 2 1 8 8 0 0 6 6 7 3 0 1 8 0 7 8 7 8 1 7 8
split_gain=1.88136 1.3517 0.755745 0.753917 0.746954 0.529012 0.386718 0.311031 0.234922 0.229925 0.227053 0.199875 0.198995 0.176936 0.157208 0.497934 0.154729 0.115186 0.112986 0.140084 0.105596 0.0965144 0.0809265 0.07414 0.0684883 0.0272662 0.0251223 0.0250204 0.0158
threshold=-1.4511390566284794 1.0219399927126436 3.5927742091159396 0.42406283858746513 1.9165338909655731 -0.95998566939568608 2.6521319379627171 0.64943728597014327 -1.7100210493739474 2.7198064875030288 84.050000000000011 80.750000000000014 -0.78669343488377252 -0.24696068715636685 0.28500000000000009 0.025000000000000005 -0.7649999999999999 2.5918073664620054 -1.2319955591919605 0.63053739693053268 79.250000000000014 1.5733181794415618 -1.0349999999999999 83.450000000000017 -0.64499999999999991 81.15000000000002 3.8655947262010231 -0.79499999999999993 80.750000000000014
decision_type=2 2 2 2 2 2 2 2 2 2 2 2 2 2 10 10 2 2 2 2 2 2 2 2 2 2 2 2 2
left_child=8 2 3 6 5 11 13 10 -1 18 -7 -5 -9 -2 15 -15 -16 20 -3 27 -6 22 -21 -24 -22 -19 -4 -20 -11
right_child=1 9 26 4 17 7 -8 12 -10 28 -12 -13 -14 14 16 -17 -18 25 19 21 24 -23 23 -25 -26 -27 -28 -29 -30
leaf_value=0.0034262917106477019 -0.00020494433912493197 0.0013843682624023769 0.00091817193654990638 0.0015530155544486654 0.00082810630845634174 0.00012020258825751759 -0.00060750711081665552 3.2251904825291908e-05 0.0015812515824796148 0.001787886210453851 -0.00095720789572786673 8.0539072978477695e-05 -0.00067249213178581329 0.00040052698989158147 0.001087004173898195 0.0031426247613777687 -0.0001153867272133635 0.0011800079893126022 0.00078243938721145084 0.00074223782647489533 0.00020027463963297851 0.0009504325037133568 0.00018139249237047515 -0.00064921743221567688 -0.00044078708343458985 0.00058850976306171394 0.0015297711335107351 0.0014392516472229169 0.0012560812804512055
leaf_weight=363 333 414 356 387 481 2642 577 1067 362 465 598 587 13542 372 776 305 397 360 378 336 1342 390 678 438 603 564 488 317 360
leaf_count=363 333 414 356 387 481 2642 577 1067 362 465 598 587 13542 372 776 305 397 360 378 336 1342 390 678 438 603 564 488 317 360
internal_value=6.24199e-07 -6.09821e-05 -0.00019057 -0.00024057 -0.000337715 -0.000460256 0.000537895 -0.000522341 0.00251538 0.000822148 -7.73441e-05 0.00067172 -0.000620679 0.000843071 0.00103442 0.00164608 0.000676046 0.00034926 0.000612687 0.000484294 0.000165587 0.000252258 6.07661e-05 -0.000140413 0 0.000825396 0.00127911 0.00109084 0.00156368
internal_weight=30278 29553 25777 24933 22173 18823 2760 17849 725 3776 3240 974 14609 2183 1850 677 1173 3350 2951 2537 2426 1842 1452 1116 1945 924 844 695 825
internal_count=30278 29553 25777 24933 22173 18823 2760 17849 725 3776 3240 974 14609 2183 1850 677 1173 3350 2951 2537 2426 1842 1452 1116 1945 924 844 695 825
is_linear=0
shrinkage=0.05


Tree=10
num_leaves=53
num_cat=0
split_feature=4 2 0 2 0 0 4 8 7 10 7 0 2 7 8 7 0 6 0 7 6 4 8 0 8 0 2 7 0 8 4 6 0 2 8 8 8 0 6 7 6 6 8 8 2 0 6 6 4 8 2 8
split_gain=1.70277 1.15965 0.526708 0.472729 0.378724 0.336059 0.228266 0.21398 0.200104 0.1972 0.23094 0.314577 0.285763 0.26544 0.373092 0.178646 0.185099 0.206723 0.221938 0.279141 0.168078 0.151117 0.149898 0.142693 0.146912 0.141002 0.133245 0.12965 0.12043 0.12 0.136273 0.115202 0.109671 0.107264 0.130262 0.172381 0.15884 0.0933265 0.0817686 0.0768234 0.0751849 0.158622 0.0694305 0.148217 0.0654129 0.0645996 0.0500501 0.0255623 0.0191929 0.018153 0.0169582 0.0113353
threshold=0.33200254406830981 -1.7100210493739474 -1.2319955591919605 0.37269105697489435 -0.80119391392401784 1.1924660864181236 1.5499415839142499 85.850000000000009 -1.0849999999999997 1.0000000180025095e-35 -1.3549999999999998 -0.78669343488377252 -0.55994428437489396 -0.30499999999999994 85.050000000000011 -1.0049999999999997 -0.37908138433200828 0.87500000000000011 -0.16824644031998306 -0.58499999999999985 -0.024999999999999998 0.052685142501752713 77.750000000000014 0.23137349272086746 77.850000000000009 0.062148242219769959 0.51307784197246131 -0.75499999999999989 0.045972033130016 83.350000000000009 1.215405486249775 0.085000000000000006 0.5554204473316664 0.5759587572895567 79.550000000000011 81.450000000000017 77.950000000000017 0.52767239595093907 0.85500000000000009 -1.2249999999999999 1.0350000000000004 0.54500000000000015 80.750000000000014 78.65000000000002 -0.52309015083806842 1.428546114224025 0.31500000000000006 0.83500000000000008 0.18360537354805831 79.250000000000014 -0.48964831893248384 81.15000000000002
decision_type=2 2 2 2 2 2 2 2 2 2 2 2 2 2 2 2 2 10 2 2 10 2 2 2 2 2 2 2 2 2 2 10 2 2 2 2 2 2 10 2 10 10 2 2 2 2 10 10 2 2 2 2
left_child=3 -2 31 9 27 6 8 21 38 15 -11 -12 -13 14 -14 23 -17 18 19 -18 -20 33 -10 24 -1 -19 -24 -5 39 46 45 -3 -25 34 36 -36 -6 -27 44 -26 41 -35 43 -23 -4 -31 -7 -33 -44 -48 -8 -51
right_child=1 2 5 4 7 29 50 -9 22 10 11 12 13 -15 -16 16 17 25 20 -21 -22 42 26 32 28 37 -28 -29 -30 30 -32 47 -34 40 35 -37 -38 -39 -40 -41 -42 -43 48 -45 -46 -47 49 -49 -50 51 -52 -53
leaf_value=0.00052841467566440393 0.0032554476933063336 0.00069296592613174945 0.0012676723758630484 -0.00014209020363120992 -0.00081870074591256111 0.0015871384064526936 0.0012017426712519603 -0.002036350112629726 0.00077889486192479459 0.0013121604964878013 0.0015567516523638037 -0.0011709621358882447 0.00011892281698587905 0.0012805866015605043 -0.0015799417229332468 -0.00095376432252294505 0.001949039468425646 -0.0011293818626330182 -0.00073495074423274374 -1.7425003387112327e-05 0.00020159511429841117 0.00017424446180970316 -0.00038647597283539335 -0.0016360341131183239 -0.0015780243500184629 0.00031639934276090102 0.00021126673704337468 0.0011120391163181027 0.00019939830623345577 -0.00060497236678599899 0.0010981146407617757 0.0014538688059805181 -0.00045418056003435254 -0.0013865701538848705 -0.0017465638467883066 -0.00046085920992653133 0.00078022767302860039 -0.00078907699202401555 -0.00025864711069434343 -0.00054320087643515099 -0.0019011804038760181 -0.00029797916044561635 0.00035346251923502203 -0.0012867848127076211 0.00044317191792538676 0.00041530354515332852 0.00052776900563720195 0.0021235299580970998 -0.00017435787929315186 0.001260487211257392 0.00068442111540581126 0.00077520041356291132
leaf_weight=362 363 415 318 573 313 394 329 338 401 383 313 527 2741 404 365 585 363 573 618 348 2116 308 3449 501 308 501 1265 316 308 310 388 431 347 1001 415 743 306 305 309 486 308 523 335 381 1161 305 301 333 340 358 476 318
leaf_count=362 363 415 318 573 313 394 329 338 401 383 313 527 2741 404 365 585 363 573 618 348 2116 308 3449 501 308 501 1265 316 308 310 388 431 347 1001 415 743 306 305 309 486 308 523 335 381 1161 305 301 333 340 358 476 318
internal_value=7.52411e-07 0.000475893 0.000385568 -0.000295067 -0.000651945 0.000267943 0.000106947 -0.000812061 1.32401e-05 -0.000116962 0.000136436 3.1491e-05 -8.58848e-05 7.58944e-05 -7.95534e-05 -0.000272941 -0.000114526 -1.15397e-05 0.00019449 0.000980855 -8.46715e-06 -0.000727452 -0.000145184 -0.000641186 -0.00033701 -0.000529631 -0.000225001 0.000298828 -0.000626051 0.0007883 0.000364644 0.00138611 -0.00115942 -0.000897491 -0.000614169 -0.000927049 -2.02293e-05 -9.61897e-05 0.000469074 -0.000952388 -0.00116909 -0.00101671 -0.000273555 -0.000627116 0.000624563 -9.10122e-05 0.0010941 0.00175468 8.03363e-05 0.000888742 0.00090328 0.00104107
internal_weight=30278 11624 11261 18654 6200 10082 7708 5311 6903 12454 4733 4350 4037 3510 3106 7721 5409 4824 3445 711 2734 4973 5115 2312 1464 1379 4714 889 1102 2374 1003 1179 848 3609 1777 1158 619 806 1788 794 1832 1524 1364 689 1479 615 1371 764 675 977 805 676
internal_count=30278 11624 11261 18654 6200 10082 7708 5311 6903 12454 4733 4350 4037 3510 3106 7721 5409 4824 3445 711 2734 4973 5115 2312 1464 1379 4714 889 1102 2374 1003 1179 848 3609 1777 1158 619 806 1788 794 1832 1524 1364 689 1479 615 1371 764 675 977 805 676
is_linear=0
shrinkage=0.05


Tree=11
num_leaves=30
num_cat=0
split_feature=2 2 1 3 3 2 1 3 1 4 1 2 8 0 3 1 4 3 8 3 0 1 1 0 2 3 4 6 8
split_gain=1.55331 1.10952 0.668688 0.666247 0.628004 0.456531 0.349471 0.279147 0.296178 0.260032 0.195133 0.183606 0.178438 0.160369 0.151122 0.138242 0.0989138 0.0975296 0.0842175 0.0901903 0.063485 0.0783971 0.0726324 0.0591313 0.0570382 0.046819 0.0303925 0.0177473 0.0139618
threshold=-1.4511390566284794 1.0219399927126436 3.5927742091159396 0.42406283858746513 1.9165338909655731 -0.95998566939568608 2.6521319379627171 0.68453550335800906 2.5462591930240626 0.031579649279595452 2.7198064875030288 -1.7100210493739474 80.750000000000014 -0.24696068715636685 0.37332041228155588 2.4400550581724474 0.33200254406830981 2.2618526860207431 79.250000000000014 2.0051657820252093 -1.2319955591919605 0.63053739693053268 1.8455816185081613 1.5733181794415618 -0.93905420370157533 2.7027298215246081 0.34290015859709844 0.47500000000000003 80.750000000000014
decision_type=2 2 2 2 2 2 2 2 2 2 2 2 2 2 2 2 2 2 2 2 2 2 2 2 2 2 2 10 2
left_child=11 2 3 6 5 12 13 8 -7 -9 16 -1 -5 -2 15 -15 -3 18 -6 -20 -18 27 23 -23 -19 -26 -4 -22 -12
right_child=1 10 26 4 17 7 -8 9 -10 -11 28 -13 -14 14 -16 -17 20 24 19 -21 21 22 -24 -25 25 -27 -28 -29 -30
leaf_value=0.0030931225529140325 -0.00019488985364779851 -0.00012736265963474841 0.00078228030530714295 0.0014607293465559985 0.00075781960918501186 0.00018521486689835774 -0.00057648861583008951 -0.00080446945660065457 -0.00077147046272150663 -0.00037160034566872859 0.0016394015020736641 0.0014561608684020401 6.9037561201568476e-05 0.00039398166539161849 0.0020210309846799917 0.0013732141653486484 0.0012490387410963382 0.0010201533812624181 0.00048886737796346807 -0.00045376984803044765 0.0012950341932235784 -0.00010191818412963428 0.0010010252750439822 0.00070054967813910213 0.00015387897682690472 0.00077964072312305206 0.0014542229553057651 0.00072947434088447996 0.0011378188982099319
leaf_weight=363 333 443 316 387 307 2682 577 6882 1155 7130 465 362 587 946 300 604 414 507 358 843 315 757 318 324 851 484 528 380 360
leaf_count=363 333 443 316 387 307 2682 577 6882 1155 7130 465 362 587 946 300 604 414 507 358 843 315 757 318 324 851 484 528 380 360
internal_value=7.57018e-07 -5.52061e-05 -0.000172627 -0.00021967 -0.000311003 -0.000423373 0.000512105 -0.000481061 -0.000101586 -0.000584603 0.000744884 0.00228579 0.000628059 0.000802258 0.000984455 0.00077943 0.000551732 0.00031883 1.71836e-05 -0.000168451 0.00067368 0.000556999 0.000335537 0.000134404 0.000562924 0.000384903 0.00120978 0.000994484 0.00142822
internal_weight=30278 29553 25777 24933 22173 18823 2760 17849 3837 14012 3776 725 974 2183 1850 1550 2951 3350 1508 1201 2508 2094 1399 1081 1842 1335 844 695 825
internal_count=30278 29553 25777 24933 22173 18823 2760 17849 3837 14012 3776 725 974 2183 1850 1550 2951 3350 1508 1201 2508 2094 1399 1081 1842 1335 844 695 825
is_linear=0
shrinkage=0.05


Tree=12
num_leaves=44
num_cat=0
split_feature=2 2 2 4 8 2 8 7 6 6 8 4 8 2 6 2 2 2 10 6 6 4 0 8 4 2 6 4 8 0 7 4 4 8 8 7 7 6 6 4 0 2 6
split_gain=1.40252 1.00197 0.428036 0.356197 0.236387 0.230914 0.205657 0.181124 0.262836 0.243317 0.316863 0.230077 0.23662 0.180362 0.173249 0.172773 0.252899 0.165319 0.156919 0.153135 0.151277 0.143003 0.129454 0.116448 0.0982519 0.0844777 0.123657 0.0799072 0.0642872 0.0555096 0.0542979 0.0531262 0.0440789 0.0701689 0.0438655 0.0412611 0.0335967 0.0312522 0.0301869 0.0256637 0.0125775 0.00982032 0.00881459
threshold=-1.4511390566284794 1.0219399927126436 0.14689423430777712 0.29415523142612293 85.950000000000017 -0.95998566939568608 80.750000000000014 -0.73499999999999988 -0.21499999999999997 0.20500000000000004 80.450000000000017 0.93974555029153539 78.050000000000011 -0.42890481265694175 1.0450000000000002 0.38131101470704493 0.18480664561409224 -1.7100210493739474 1.0000000180025095e-35 0.26500000000000007 0.92500000000000016 0.49389656289550138 -0.74573330053350861 85.050000000000011 0.038946740682215437 0.45583948492734 0.62500000000000011 1.0135347557763372 84.250000000000014 0.95544880341573768 -0.71499999999999986 0.3849640620696731 1.2013296364316648 83.350000000000009 81.450000000000017 -0.53499999999999992 -0.98499999999999988 0.75500000000000012 0.47500000000000003 0.65139779438856948 0.57391579918118563 1.4408572870205447 0.25500000000000006
decision_type=2 2 2 2 2 2 2 2 10 10 2 2 2 2 10 2 2 2 2 10 10 2 2 2 2 2 10 2 2 2 2 2 2 2 2 2 2 10 10 2 2 2 10
left_child=17 2 5 4 14 6 29 11 35 10 -10 12 20 -14 15 16 -4 -1 31 -11 -7 -20 -17 25 30 26 42 28 -8 -2 -16 -3 33 -23 -13 -9 40 41 -34 -38 -27 -33 -5
right_child=1 18 3 23 -6 7 27 8 9 19 -12 34 13 -15 24 22 -18 -19 21 -21 -22 32 -24 -25 -26 36 -28 -29 -30 -31 -32 37 38 -35 -36 -37 39 -39 -40 -41 -42 -43 -44
leaf_value=0.0029388912956202838 0.0017525755309674993 0.0006365318365912073 -0.0011938836377510319 4.2370250878012838e-05 -0.0017033689709198985 -2.1438103208124983e-05 -0.00049420753580981381 0.00068837168781515586 0.0006525553733699853 0.0012323312587019734 -0.00080968173660499404 0.0008925778284548584 -0.00085670159321070037 -0.00025227463098237928 -0.0010145952920751131 8.2684009863934617e-05 0.00020780935779694836 0.0013835533945591322 -0.0003129226402922644 0.00017534213493127179 0.0012077127091903268 0.00079721626402654358 -0.00069623248091962267 -0.00078566342612462585 -0.00025208858583161903 0.00097214593441042664 -0.00099092626716961721 0.00077320059191391159 0.00042098498882870507 0.0007874794385096805 -0.0018643490160201788 0.0012929780471979734 0.0012570604586745514 -2.6139178728648182e-05 0.00017350937485157344 0.0015575682793717153 -4.8305276525477171e-05 0.0017070930135848917 0.00059091227356103913 0.00049933093996162739 0.00047460510780796526 0.00082676333600944596 0.00042979487711391947
leaf_weight=363 306 461 389 346 436 952 494 302 506 403 1350 444 1867 3752 663 612 1833 362 484 2395 335 563 3626 330 318 314 300 341 308 351 302 356 395 457 446 309 392 368 376 433 318 316 304
leaf_count=363 306 461 389 346 436 952 494 302 506 403 1350 444 1867 3752 663 612 1833 362 484 2395 335 563 3626 330 318 314 300 341 308 351 302 356 395 457 446 309 392 368 376 433 318 316 304
internal_value=8.59265e-07 -5.231e-05 -0.000163903 -0.000401631 -0.000566922 1.03957e-05 0.000541432 -6.24421e-05 0.000163572 3.43603e-05 -0.000408204 -0.000215723 -0.000313703 -0.000454111 -0.000502072 -0.000395301 -3.5759e-05 0.00217216 0.000708004 0.000329754 0.000295311 0.000442206 -0.000582578 9.05103e-05 -0.00103505 0.000212987 -0.00014982 0.000131019 -0.000136424 0.00124656 -0.00128736 0.00110697 0.000649123 0.000423759 0.000538446 0.00113795 0.000452915 0.00130989 0.000939857 0.000233324 0.000730845 0.00108273 0.000231628
internal_weight=30278 29553 25777 10916 8179 14861 1800 13061 5265 4654 1856 7796 6906 5619 7743 6460 2222 725 3776 2798 1287 2275 4238 2737 1283 2407 950 1143 802 657 965 1501 1791 1020 890 611 1457 1040 771 825 632 672 650
internal_count=30278 29553 25777 10916 8179 14861 1800 13061 5265 4654 1856 7796 6906 5619 7743 6460 2222 725 3776 2798 1287 2275 4238 2737 1283 2407 950 1143 802 657 965 1501 1791 1020 890 611 1457 1040 771 825 632 672 650
is_linear=0
shrinkage=0.05


Tree=13
num_leaves=41
num_cat=0
split_feature=4 0 3 1 1 3 0 1 7 8 7 3 7 6 1 3 8 10 7 0 6 8 7 4 8 3 1 1 3 0 8 4 6 3 3 8 7 8 8 0
split_gain=1.24824 0.614755 0.737961 0.55961 0.547025 0.414385 0.361717 0.30586 0.209742 0.201333 0.182397 0.175464 0.226991 0.174518 0.152901 0.230435 0.188272 0.149121 0.200151 0.116377 0.111393 0.106276 0.103782 0.0988781 0.0931695 0.129626 0.0592453 0.0488058 0.0850559 0.0477712 0.0461777 0.0384293 0.0353585 0.0350287 0.0420228 0.0265533 0.0253281 0.0223396 0.0415145 0.0166142
threshold=0.6751457731420446 -0.87072438535671715 0.62373948922522449 1.2268965134067795 3.5927742091159396 2.2618526860207431 0.93205223554818373 2.5764599649213697 -0.29499999999999993 76.15000000000002 -0.44499999999999995 0.24418725723951581 -1.1249999999999998 0.56500000000000006 2.3983335013472526 1.0043187703673992 86.350000000000009 1.0000000180025095e-35 -0.87499999999999989 1.8717469959637267 0.89500000000000013 79.250000000000014 -1.1649999999999998 0.25498865330331577 84.750000000000014 1.2436389554203162 2.4109592203076264 0.24813085401810728 2.5918073664620054 0.045972033130016 81.65000000000002 1.1252829501894872 -0.12499999999999999 2.1604466823106274 1.9591068249655235 83.250000000000014 -0.7649999999999999 81.15000000000002 84.450000000000017 0.084452924051431358
decision_type=2 2 2 2 2 2 2 2 2 2 2 2 2 8 2 2 2 2 2 2 10 2 2 2 2 2 2 2 2 2 2 2 10 2 2 2 2 2 2 2
left_child=1 13 7 5 6 21 9 8 10 -4 11 -3 -13 26 16 -16 -11 18 -9 27 24 -2 -23 -15 25 -8 32 28 -7 -19 -29 39 -1 34 36 -36 -24 -30 -39 -5
right_child=3 2 4 31 -6 19 20 17 -10 14 -12 12 -14 23 15 -17 -18 29 -20 -21 -22 22 33 -25 -26 -27 -28 30 37 -31 -32 -33 -34 -35 35 -37 -38 38 -40 -41
leaf_value=-0.00042887480010000631 0.00052880349766318963 0.0012503647516857548 0.00039927766318698793 0.0016095046955748992 0.0010862841412025885 0 -0.0002033805158952205 0.00010294441966051415 0.0014690722101056582 -0.0004921355754097023 -0.00078867299839211521 -0.00059431017320982758 0.00052854813689757422 0.00058059059458471151 -0.0012475155041285712 9.3889599431952949e-05 -0.0014651559186394532 -0.00012484875689987499 -0.0013236367162078077 0.0016329455731391965 -0.00048118543366491026 0.00059513054759752681 -0.00086275483440574185 0.0016861012072731084 -0.00031012209851856887 0.00098675993773540693 0.00076442965037213902 0.0013977518070852823 0.001001769851007642 0.00070823350029835478 0.00063891685927548096 0.0020404177597416677 0.00029549299039179143 -0.00085450018010944755 0.00021646880802262634 -0.0003650417594032384 -0.00022699287544416819 0.00031407374504770008 0.0010459376285272485 0.0010838379711388018
leaf_weight=309 567 572 495 427 569 591 323 417 470 9940 321 574 2026 378 1777 382 529 383 577 348 506 312 354 487 355 732 351 379 503 300 515 357 365 335 461 338 330 622 304 397
leaf_count=309 567 572 495 427 569 591 323 417 470 9940 321 574 2026 378 1777 382 529 383 577 348 506 312 354 487 355 732 351 379 503 300 515 357 365 335 461 338 330 622 304 397
internal_value=9.28807e-07 -0.000177246 -0.000254291 0.000578969 -0.000431528 0.000380656 -0.000489355 0.000235292 0.000475297 -0.000583125 0.000339767 0.000455751 0.0002786 0.000685954 -0.000622058 -0.00100793 -0.000541915 -0.000328841 -0.000720634 0.000759835 0.000150253 -7.62153e-05 -0.000239789 0.00121 0.000380579 0.000617803 0.000238088 0.000653325 0.000511438 0.000234264 0.000967404 0.0015742 -2.93344e-05 -0.000386072 -0.000276384 -2.34257e-05 -0.000564106 0.00071998 0.000560603 0.00136392
internal_weight=30278 23138 21248 7140 15608 5959 15039 5640 3963 13123 3493 3172 2600 1890 12628 2159 10469 1677 994 3262 1916 2697 2130 865 1410 1055 1025 2914 2020 683 894 1181 674 1818 1483 799 684 1429 926 824
internal_count=30278 23138 21248 7140 15608 5959 15039 5640 3963 13123 3493 3172 2600 1890 12628 2159 10469 1677 994 3262 1916 2697 2130 865 1410 1055 1025 2914 2020 683 894 1181 674 1818 1483 799 684 1429 926 824
is_linear=0
shrinkage=0.05


Tree=14
num_leaves=31
num_cat=0
split_feature=2 2 1 3 3 1 2 2 3 1 4 1 7 7 7 8 4 8 3 7 1 1 8 8 8 4 7 4 4 8
split_gain=1.20611 0.840421 0.540071 0.584765 0.402492 0.295735 0.284455 0.222256 0.224962 0.250069 0.221583 0.152049 0.130172 0.22089 0.131789 0.116571 0.0812972 0.0795396 0.0754685 0.0691203 0.0537816 0.0872108 0.0354225 0.0347427 0.030555 0.0261484 0.0239964 0.0194684 0.0144082 0.0117908
threshold=-1.262142236832793 1.0219399927126436 3.5927742091159396 0.42406283858746513 1.9591068249655235 2.6521319379627171 -1.7100210493739474 -0.95998566939568608 0.68453550335800906 2.4543419485337767 0.031579649279595452 2.7019981810904539 -0.33499999999999996 -0.58499999999999985 -0.95499999999999985 80.750000000000014 0.33200254406830981 82.950000000000017 2.5918073664620054 -0.64499999999999991 2.0133906080592099 0.63053739693053268 79.450000000000017 84.850000000000009 81.750000000000014 0.34290015859709844 -0.78499999999999992 0.57557408425681456 1.9184592359218033 80.750000000000014
decision_type=2 2 2 2 2 2 2 2 2 2 2 2 2 2 2 2 2 2 2 2 2 2 2 2 2 2 2 2 2 2
left_child=6 2 3 5 7 12 -1 15 9 -9 -10 16 13 14 -2 -5 -3 -8 19 22 21 26 -6 27 -21 -4 -18 -23 -20 -13
right_child=1 11 25 4 18 -7 17 8 10 -11 -12 29 -14 -15 -16 -17 20 -19 28 24 -22 23 -24 -25 -26 -27 -28 -29 -30 -31
leaf_value=0.0027278262719874664 0.00034109866486850652 -0.00015805866657981162 0.00069755854819592272 0.0011850461313955576 0.00076346404812941858 -0.00052591285389385017 0.0014504562246496079 0.00021601795717251113 -0.0007132291467477728 -0.00063199057325779304 -0.00031634100416404881 0.0014248542837167601 0.0016824282620426915 -0.00062808503107449867 0.0012742943571592419 -5.0003070119002485e-05 0.00059337593122091639 0.00043868917495634924 0.0004693257261964047 0 0.0010977805011077037 1.2565304226509164e-05 0.00014689846920341979 -0.00023514311461268465 -0.00069336859172748665 0.0013279223114380585 0.0011878317773799929 0.00050884118766007639 0.00093767123795453862 0.00096632082226447711
leaf_weight=363 758 439 316 314 306 577 490 2511 6882 1326 7333 469 319 311 795 467 419 352 507 329 417 311 1111 322 312 505 369 665 318 365
leaf_count=363 758 439 316 314 306 577 490 2511 6882 1326 7333 469 319 311 795 467 419 352 507 329 417 311 1111 322 312 505 369 665 318 365
internal_value=9.83645e-07 -6.31209e-05 -0.000167145 -0.000209645 -0.000296917 0.00047507 0.00155055 -0.000381243 -0.000417117 -7.58245e-05 -0.000508877 0.000632315 0.000742054 0.000577624 0.000822543 0.000441033 0.00046038 0.00103444 0.00025214 8.72454e-05 0.000570865 0.000462661 0.000284016 0.000205433 -0.000339714 0.00109252 0.000879234 0.000355997 0.000656822 0.00123156
internal_weight=30278 29073 25297 24476 21716 2760 1205 18833 18052 3837 14215 3776 2183 1864 1553 781 2942 842 2883 2058 2503 2086 1417 1298 641 821 788 976 825 834
internal_count=30278 29073 25297 24476 21716 2760 1205 18833 18052 3837 14215 3776 2183 1864 1553 781 2942 842 2883 2058 2503 2086 1417 1298 641 821 788 976 825 834
is_linear=0
shrinkage=0.05


Tree=15
num_leaves=30
num_cat=0
split_feature=2 2 1 3 3 1 2 8 3 1 1 8 7 7 7 1 2 4 2 1 1 1 4 8 6 7 2 7 8
split_gain=1.08987 0.725291 0.478248 0.496961 0.428931 0.267089 0.246365 0.264989 0.20387 0.137188 0.132777 0.129287 0.146051 0.117393 0.199553 0.126677 0.0840438 0.0735383 0.0567428 0.0484017 0.0787244 0.0461705 0.0418731 0.0314299 0.0252862 0.0245119 0.0223613 0.0214971 0.0104078
threshold=-1.4511390566284794 1.0219399927126436 3.5927742091159396 0.42406283858746513 2.2399436682034959 2.6521319379627171 -0.013608150104534748 85.850000000000009 0.6311876864590994 2.7019981810904539 0.55826900013811886 76.15000000000002 -0.73499999999999988 -0.33499999999999996 -0.58499999999999985 2.3354038632198653 0.53212775513983679 0.33200254406830981 -0.58352518643918161 2.0133906080592099 0.63053739693053268 0.21657121493886369 1.6696139052773333 84.850000000000009 0.82500000000000007 -0.84499999999999986 -0.059180290214393944 -0.78499999999999992 80.750000000000014
decision_type=2 2 2 2 2 2 2 2 2 2 2 2 2 2 2 2 2 2 2 2 2 2 2 2 10 2 2 2 2
left_child=10 2 3 5 6 13 11 8 -8 17 -1 -5 -13 14 15 -2 -9 -3 21 20 27 -6 25 24 -22 -20 -4 -19 -11
right_child=1 9 26 4 18 -7 7 16 -10 28 -12 12 -14 -15 -16 -17 -18 19 22 -21 23 -23 -24 -25 -26 -27 -28 -29 -30
leaf_value=0.0011287584131359696 0.0012959044075749812 -0.00015017368422598503 0.00068963597968555205 0.00081662461055779416 0.00047106213249519413 -0.00049966267210636438 8.3961590174045015e-05 -0.00091506198746384734 -0.00052420153488295733 0.0013537631433070427 0.0025336437054949185 -0.00034553449869987419 5.983440689766624e-05 0.0015985697227924901 -0.00059678143708669475 0.00037430259783925956 -0.0020949669302820794 0.00056377777957987711 0.00023357492071478687 0.0010430227823964664 0.00057014491680445708 0.0012517800022887383 0.00067322038343760186 -0.00022342235181875664 4.5467341415914898e-05 -0.0003602025050953095 0.0012607380095054277 0.0011286007127685701 0.00091813679190115734
leaf_weight=324 680 439 354 338 583 577 1626 353 8552 469 401 5295 3796 319 311 873 301 419 404 417 535 309 314 322 441 302 490 369 365
leaf_count=324 680 439 354 338 583 577 1626 353 8552 469 401 5295 3796 319 311 873 301 419 404 417 535 309 314 322 441 302 490 369 365
internal_value=1.04911e-06 -4.58011e-05 -0.000140768 -0.000180579 -0.000259482 0.000451356 -0.000327185 -0.000490031 -0.000426554 0.000601036 0.00191511 -0.000139547 -0.000175732 0.000705127 0.00054877 0.000781629 -0.00146811 0.000437582 0.000455135 0.000542684 0.000439817 0.000748211 0.000193458 0.000195172 0.000338479 -1.34986e-05 0.00102822 0.000835702 0.00117043
internal_weight=30278 29553 25777 24933 22173 2760 20261 10832 10178 3776 725 9429 9091 2183 1864 1553 654 2942 1912 2503 2086 892 1020 1298 976 706 844 788 834
internal_count=30278 29553 25777 24933 22173 2760 20261 10832 10178 3776 725 9429 9091 2183 1864 1553 654 2942 1912 2503 2086 892 1020 1298 976 706 844 788 834
is_linear=0
shrinkage=0.05


Tree=16
num_leaves=51
num_cat=0
split_feature=4 1 3 3 0 6 8 10 8 1 7 0 0 8 7 7 7 7 1 1 3 8 8 8 0 8 0 8 3 3 7 6 7 1 6 3 4 3 8 8 4 3 1 4 8 7 7 3 1 7
split_gain=0.953666 0.822235 0.607679 0.505238 0.386203 0.262707 0.2357 0.217259 0.264272 0.215393 0.251007 0.200322 0.442899 0.1727 0.157954 0.150427 0.14823 0.143371 0.126094 0.244361 0.136812 0.167438 0.132976 0.14147 0.118433 0.124918 0.109127 0.107287 0.0996349 0.0992759 0.0898273 0.0863266 0.0809884 0.0800719 0.0745338 0.0655511 0.0552295 0.0548268 0.0507151 0.0434363 0.0394002 0.0381301 0.0348557 0.0290439 0.0259032 0.024815 0.0393147 0.0240171 0.0230631 0.00976564
threshold=0.30233799011443369 2.0331103704124791 0.62373948922522449 2.2618526860207431 -0.78669343488377252 1.2350000000000001 76.65000000000002 1.0000000180025095e-35 83.850000000000009 2.5764599649213697 -1.1349999999999996 -0.26481810129353495 -0.037309906220605094 78.950000000000017 -0.8849999999999999 -0.59499999999999986 -0.91499999999999992 -1.0849999999999997 3.2943855964390458 2.3983335013472526 0.68453550335800906 86.450000000000017 83.250000000000014 81.350000000000009 0.65130388376942083 82.15000000000002 1.8717469959637267 77.950000000000017 1.0552194207101968 0.42406283858746513 -0.16499999999999998 0.22500000000000003 -0.98499999999999988 1.1927276226926249 0.44500000000000006 1.3060147082101718 0.11891131598938488 0.95857950295635119 85.750000000000014 81.550000000000011 0.58081913371631677 2.4709960280331571 0.24813085401810728 1.0604243825325503 84.65000000000002 -1.0249999999999997 -0.78499999999999992 2.7027298215246081 3.4441414953017131 -0.90499999999999992
decision_type=2 2 2 2 2 10 2 2 2 2 2 2 2 2 2 2 2 2 2 2 2 2 2 2 2 2 2 2 2 2 2 10 2 2 10 2 2 2 2 2 2 2 2 2 2 2 2 2 2 2
left_child=2 3 5 17 14 7 37 9 13 10 -1 -12 -13 -9 36 32 -15 24 19 20 -8 -22 23 -21 25 34 39 -19 -20 -18 33 -16 -11 38 -2 -3 -4 -6 -29 42 -35 -41 47 45 49 -37 -47 -5 -48 -43
right_child=1 35 4 26 6 -7 18 8 -10 15 11 12 -14 16 31 -17 29 27 28 22 21 -23 -24 -25 -26 -27 -28 30 -30 -31 -32 -33 -34 40 -36 43 -38 -39 -40 41 -42 44 -44 -45 -46 46 48 -49 -50 -51
leaf_value=-0.00083719118680698887 0.00022171861840704701 0.00055619677097311999 -0.0006479744360950192 0.00028259205180765167 -1.7406307159607034e-05 -0.0010904076732846603 0.00021405691746915809 0.00015236926986108301 -0.00026263345102092245 -0.00070047023416198095 -0.00041122317723720788 0.002128119299331775 0.00021822306212046548 0.00068140834795655592 0.00020220021708436568 -0.0014813432201078983 0.0024980664720172349 0.00057230153090015055 -0.00060490705748259856 -0.001260126898810474 -0.00051368476845693289 -0.0016132288192774122 -0.0019556060741046598 -4.3963195602969937e-05 0.00095314646528179008 0.0008623462342875664 0.0014584263653413167 -0.00037771718694226702 0.00059338158865372399 0.0011987909941154789 0.00048629277415225417 0.0013073029938995289 0.00043888249608960974 -0.00017149673771735694 -0.00079105841353714233 0.0009096688390653056 0.00026894210276738736 0.0008851267591659936 -0.0009848386990035621 1.1126047810454741e-05 0.00055300559264100351 0.0005443658391875286 0.0011984766258397129 0.0018272325033289313 0.00087496439112060226 0.0018840288181019673 0.0014985395664597811 0.00083339516833142813 0.0008377609051168453 0.00015825584824048639
leaf_weight=394 318 311 341 390 349 364 594 439 541 317 411 450 951 513 316 321 312 390 305 830 7275 368 426 348 509 308 388 3220 397 326 343 439 301 468 404 435 306 306 400 510 306 370 375 342 399 330 307 495 339 381
leaf_count=394 318 311 341 390 349 364 594 439 541 317 411 450 951 513 316 321 312 390 305 830 7275 368 426 348 509 308 388 3220 397 326 343 439 301 468 404 435 306 306 400 510 306 370 375 342 399 330 307 495 339 381
internal_value=1.10793e-06 0.00034667 -0.000226688 0.000158062 -0.000419893 0.000204052 -0.000518023 0.000294496 0.000684258 2.86765e-05 0.000300143 0.000550527 0.000836327 0.00100954 0.000360135 -0.000603404 0.00133172 -9.19803e-05 -0.000575396 -0.000621626 -0.000510499 -0.000567485 -0.00118851 -0.000905436 0.000329818 1.6309e-05 0.000663311 -0.000219608 6.55253e-05 0.00184491 -0.000285969 0.000852263 -0.000137653 -0.000347487 -0.000338382 0.00125515 -0.000206855 0.00039732 -0.000446437 0.000555484 0.000108827 0.000381147 0.000780717 0.00137592 0.000540746 0.00126177 0.00141249 0.000596905 0.00116134 0.000355603
internal_weight=30278 12038 18240 9974 12600 5640 11198 5276 2131 3145 2206 1812 1401 1590 1402 939 1151 6666 10543 9841 8237 7643 1604 1178 1539 1030 3308 5127 702 638 4737 755 618 4394 722 2064 647 655 3620 2920 774 1660 1260 1753 1150 1411 976 885 646 751
internal_count=30278 12038 18240 9974 12600 5640 11198 5276 2131 3145 2206 1812 1401 1590 1402 939 1151 6666 10543 9841 8237 7643 1604 1178 1539 1030 3308 5127 702 638 4737 755 618 4394 722 2064 647 655 3620 2920 774 1660 1260 1753 1150 1411 976 885 646 751
is_linear=0
shrinkage=0.05


Tree=17
num_leaves=31
num_cat=0
split_feature=2 2 1 3 3 2 1 0 2 3 3 6 7 0 6 6 7 1 8 6 8 4 0 1 7 0 8 4 7 8
split_gain=0.944002 0.614724 0.399288 0.439731 0.307509 0.238586 0.231497 0.187863 0.192332 0.232636 0.158031 0.135118 0.191081 0.130619 0.139605 0.435537 0.143292 0.110698 0.069574 0.0659178 0.0639965 0.0787455 0.0613248 0.0725977 0.0664748 0.0554086 0.0495885 0.0218428 0.0177867 0.0095254
threshold=-1.262142236832793 1.0219399927126436 3.5927742091159396 0.42406283858746513 1.9591068249655235 -1.7100210493739474 2.6521319379627171 -0.78669343488377252 0.55694586723987871 1.5895058801676387 0.68453550335800906 -0.014999999999999998 -1.0349999999999999 -0.24696068715636685 0.28500000000000009 0.025000000000000005 -0.7649999999999999 2.7019981810904539 82.950000000000017 0.95500000000000007 79.250000000000014 1.5295414879544376 -1.2319955591919605 0.63053739693053268 -1.0349999999999999 1.5733181794415618 83.450000000000017 0.34290015859709844 -0.79499999999999993 80.750000000000014
decision_type=2 2 2 2 2 2 2 2 2 2 2 8 2 2 10 10 2 2 2 10 2 2 2 2 2 2 2 2 2 2
left_child=5 2 3 6 7 -1 13 11 10 -10 -9 -5 -13 -2 15 -15 -16 22 -7 20 -6 -22 -3 28 -25 26 -26 -4 -24 -19
right_child=1 17 27 4 19 18 -8 8 9 -11 -12 12 -14 14 16 -17 -18 29 -20 -21 21 -23 23 24 25 -27 -28 -29 -30 -31
leaf_value=0.0024504911952433275 -0.00025062400509755288 0.0009618510572610375 0.00057667015070075086 -0.00055142259167472796 0.00066951256872610206 0.0012874761571999467 -0.00047247540028085542 -4.5490347056525821e-06 -0.00087874079236724488 0.00031679579586384415 -0.00039156870334255836 -0.00050392285304188384 0.00097048377544437761 0.00022421395863439443 0.0008729728203368892 0.0027876498353564074 -0.00028625427250371279 0.0012253677204239371 0.00034170328667685825 0.00087096974231032115 -0.00017820773604813612 0.00050413921277369159 0.00047399754322029219 0.00070069307458455951 6.4786859304627657e-05 0.00054487709875603388 -0.00061210138668841988 0.0011534131672925674 0.0010238994707785578 0.00081067813123570634
leaf_weight=363 333 413 316 404 454 490 577 3566 2940 465 10426 310 722 372 776 305 397 469 352 347 1494 588 378 397 676 323 438 505 317 365
leaf_count=363 333 413 316 404 454 490 577 3566 2940 465 10426 310 722 372 776 305 397 469 352 347 1494 588 378 397 676 323 438 505 317 365
internal_value=1.19049e-06 -5.55033e-05 -0.000144492 -0.000181059 -0.000256758 0.0013721 0.000412613 -0.000330479 -0.000375955 -0.000713961 -0.000293298 0.00021685 0.000522691 0.000648954 0.000813627 0.00138887 0.000476466 0.000539223 0.000898899 0.000223039 0.000132103 1.22503e-05 0.000392122 0.000296763 0.000128373 -2.66423e-05 -0.000197177 0.000938481 0.000733111 0.00105106
internal_weight=30278 29073 25297 24476 21716 1205 2760 18833 17397 3405 13992 1436 1032 2183 1850 677 1173 3776 842 2883 2536 2082 2942 2529 1834 1437 1114 821 695 834
internal_count=30278 29073 25297 24476 21716 1205 2760 18833 17397 3405 13992 1436 1032 2183 1850 677 1173 3776 842 2883 2536 2082 2942 2529 1834 1437 1114 821 695 834
is_linear=0
shrinkage=0.05


Tree=18
num_leaves=51
num_cat=0
split_feature=4 1 3 3 0 6 1 0 8 0 7 6 0 7 7 1 1 8 8 0 0 8 8 3 1 0 7 6 0 3 4 0 6 1 8 1 3 3 8 3 3 1 3 4 8 7 7 1 3 7
split_gain=0.786694 0.690624 0.499026 0.410082 0.323396 0.234532 0.176379 0.231105 0.173601 0.165233 0.262562 0.278308 0.13244 0.127762 0.125701 0.146825 0.140931 0.112985 0.163535 0.118368 0.10095 0.113724 0.0956727 0.0949807 0.0925191 0.0908663 0.0812545 0.0804477 0.0755486 0.0876457 0.0741902 0.117923 0.067038 0.0664864 0.063069 0.0614663 0.0537252 0.0453551 0.037848 0.0339913 0.0315141 0.0301714 0.0284202 0.0247963 0.0233407 0.022908 0.0351508 0.0223157 0.0194492 0.00963783
threshold=0.30233799011443369 2.0331103704124791 0.62373948922522449 2.2618526860207431 -0.87072438535671715 1.2350000000000001 2.5764599649213697 0.39240852404250615 76.050000000000011 -0.26481810129353495 -0.29499999999999993 0.025000000000000005 0.27885628818900127 -1.0849999999999997 -1.0049999999999997 3.2331339777355246 2.1468538857043749 84.250000000000014 79.15000000000002 -0.51570905884890894 0.65130388376942083 82.15000000000002 77.950000000000017 0.48634752465352454 1.8357514756128526 1.8717469959637267 -0.16499999999999998 0.95500000000000007 -0.05966314122430539 0.42406283858746513 0.14545024434139439 0.58379572283795245 0.44500000000000006 1.1927276226926249 80.15000000000002 2.6382114268067456 1.3060147082101718 1.9451377290886827 81.550000000000011 1.6828437448582452 2.4709960280331571 0.24813085401810728 1.1277958277204607 1.0604243825325503 84.65000000000002 -1.0249999999999997 -0.78499999999999992 3.4441414953017131 2.7027298215246081 -0.90499999999999992
decision_type=2 2 2 2 2 10 2 2 2 2 2 10 2 2 2 2 2 2 2 2 2 2 2 2 2 2 2 10 2 2 2 2 10 2 2 2 2 2 2 2 2 2 2 2 2 2 2 2 2 2
left_child=2 3 5 13 35 6 7 9 -6 23 11 -11 28 20 15 16 27 18 24 -20 21 32 -15 -1 -16 38 33 -10 29 -8 31 -19 -2 37 -18 42 -3 -24 41 -35 -40 48 -4 45 49 -38 -47 -48 -5 -42
right_child=1 36 4 25 8 -7 12 -9 14 10 -12 -13 -14 22 17 -17 34 30 19 -21 -22 -23 26 -25 -26 -27 -28 -29 -30 -31 -32 -33 -34 39 -36 -37 43 -39 40 -41 44 -43 -44 -45 -46 46 47 -49 -50 -51
leaf_value=-0.00059993103255327653 0.00021775582904858459 0.0005121136502505882 -0.00011619426444124816 0.00025269921041478439 0.0005143931586882195 -0.0010383562770064551 0.00054052979019221547 -0.00065722897940348989 -0.00054028038785869099 -0.00049042951801778016 0.0021394235646476543 0.00089294041000326685 0.00076538773472223018 0.00054412208867221071 -0.0010469725762412465 0.00027041617895732785 -0.00099751298332333908 -0.00059211295250221523 -0.00067014206586925957 0 0.00089074896360683605 0.00083254059339447027 -0.00053468365895164053 0.00048885569987897678 -0.00029819519955665599 0.0013235193897478026 0.00046806131300738426 -0.0013335782030584565 -0.00083458843518473844 -0.00055896593196919726 -6.3238294841721655e-05 -0.0015957698744444818 -0.00074247036338424507 -0.00021254631533806388 -0.0020560658527035819 0.0010776169600597762 0.00081336176126719823 -0.00014540362282412981 0 0.00044693427179783995 0.00049086895538974485 0.0010982126356167739 0.00053988980541948121 0.0016762916013586479 0.00079767845925953233 0.0017416170589391337 0.0013871130639901304 0.00074117992999676711 0.00075082792371220777 0.00011070590218825972
leaf_weight=378 318 311 314 390 440 364 331 407 1899 456 321 1709 302 390 903 307 311 1028 802 3664 509 308 2493 423 804 388 343 400 553 396 349 427 404 411 313 314 435 1127 510 363 370 375 325 342 399 330 307 339 495 381
leaf_count=378 318 311 314 390 440 364 331 407 1899 456 321 1709 302 390 903 307 311 1028 802 3664 509 308 2493 423 804 388 343 400 553 396 349 427 404 411 313 314 435 1127 510 363 370 375 325 342 399 330 307 339 495 381
internal_value=1.23781e-06 0.000315109 -0.000205642 0.000142207 -0.000380736 0.000184638 0.000270143 0.000459661 -0.000453426 0.000599634 0.000800843 0.00059917 -0.000169238 -8.29962e-05 -0.000491913 -0.000756682 -0.000866322 -0.000383996 -0.000280874 -0.00012035 0.00031513 2.52363e-05 -0.000203517 -1.88267e-05 -0.000697606 0.000597416 -0.000266228 -0.000680999 -0.000394079 -5.14472e-05 -0.000733744 -0.000890985 -0.000312913 -0.000324778 -0.00153893 0.000501942 0.00114774 -0.000414945 0.000498802 9.0471e-05 0.000335856 0.000709075 0.000210005 0.0012573 0.000480863 0.00115109 0.0012955 0.00105755 0.00053749 0.000305056
internal_weight=30278 12038 18240 9974 12600 5640 5276 3694 11647 3287 2486 2165 1582 6666 11207 3230 2923 7977 6173 4466 1539 1030 5127 801 1707 3308 4737 2299 1280 727 1804 1455 722 4394 624 953 2064 3620 2920 774 1660 1260 639 1753 1150 1411 976 646 885 751
internal_count=30278 12038 18240 9974 12600 5640 5276 3694 11647 3287 2486 2165 1582 6666 11207 3230 2923 7977 6173 4466 1539 1030 5127 801 1707 3308 4737 2299 1280 727 1804 1455 722 4394 624 953 2064 3620 2920 774 1660 1260 639 1753 1150 1411 976 646 885 751
is_linear=0
shrinkage=0.05


Tree=19
num_leaves=54
num_cat=0
split_feature=2 3 1 3 3 6 10 2 1 1 1 7 2 7 4 1 1 6 1 3 6 3 1 6 7 7 7 7 7 2 7 6 2 2 7 7 6 7 7 3 3 3 3 3 7 1 7 2 7 6 2 2 2
split_gain=0.808839 0.478771 0.735189 0.546093 0.280605 0.211737 0.19376 0.189999 0.218209 0.697453 0.185115 0.221326 0.180466 0.167504 0.158884 0.150749 0.174749 0.132581 0.143692 0.229757 0.201954 0.133328 0.122999 0.120361 0.169881 0.161912 0.11878 0.109452 0.093536 0.0924486 0.0833687 0.0792957 0.0976418 0.0573828 0.107606 0.0731347 0.0521755 0.0435761 0.0688745 0.0403189 0.0365769 0.0329312 0.0226407 0.0222846 0.0515195 0.0254803 0.0234123 0.0211247 0.0199563 0.0106912 0.0170659 0.00516369 0.0039142
threshold=-1.4511390566284794 1.2436389554203162 1.9742256685927819 0.62373948922522449 2.2399436682034959 1.2350000000000001 1.0000000180025095e-35 -0.013608150104534748 1.9638109978751925 1.8455816185081613 2.1785280321897464 -0.91499999999999992 -0.48007379719793836 -0.73499999999999988 0.034995362658057479 2.26975559578023 2.5764599649213697 0.50500000000000012 1.7352141815575124 1.0407967442209822 0.94500000000000006 1.0918198004377859 0.55826900013811886 0.87500000000000011 -0.61499999999999988 -1.1549999999999996 -1.0849999999999997 -0.18499999999999997 -0.60499999999999987 -0.51131959419404482 -0.90499999999999992 0.27500000000000008 0.39862949564960365 0.52277609084863941 -0.75499999999999989 -0.61499999999999988 0.065000000000000016 -1.2449999999999999 -1.3949999999999998 1.156601507122776 1.5895058801676387 0.72685680208142345 1.3546808115856568 2.8287685227185642 -1.0149999999999999 0.31289851547068009 -0.56499999999999984 1.0000000180025095e-35 -0.84499999999999986 0.94500000000000006 1.4102492627958554 0.016092503399417854 -0.059180290214393944
decision_type=2 2 2 2 2 10 2 2 2 2 2 2 2 2 2 2 2 10 2 2 10 2 2 10 2 2 2 2 2 2 2 10 2 2 2 2 10 2 2 2 2 2 2 2 2 2 2 2 2 10 2 2 2
left_child=22 3 4 5 26 6 10 8 9 12 11 -2 -5 -14 28 -12 -17 21 30 20 -20 31 -1 24 25 -8 29 33 41 -3 -19 36 -33 34 -28 -35 -9 38 -31 -23 -39 -10 -4 44 47 46 -46 -6 -45 50 52 -26 -44
right_child=1 2 42 7 43 -7 23 17 14 -11 15 -13 13 -15 -16 16 -18 18 19 -21 -22 39 -24 -25 51 -27 27 -29 -30 37 -32 32 -34 35 -36 -37 -38 40 -40 -41 -42 -43 49 48 45 -47 -48 -49 -50 -51 -52 -53 -54
leaf_value=0.00089552922318879833 -0.00038685907319403246 0.00084844977870713277 0.0013765206703347829 -0.00099977366500133636 0.0010236274288625616 -0.00098658071087255887 0.00099612231732610235 -0.001024593264977082 -0.0016481778401733716 0.0019611879626266651 -0.0012598478314483621 0.0012142230136901969 -0.00036952296452352876 0.00069600888277706024 0.00015826920796365514 0.00039166439493687672 -0.00055989859380169366 -0.0012870764669146563 9.4663308806087375e-05 0.00089931563986641737 -0.001022526579417397 0.00016115985213546082 0.0022437513218209466 0.0014074810463655626 0.0013099617141048416 -0.00031370879032855623 -0.00068453240125935263 0.00042962964162227186 -0.00024239227792084724 0.00021073386373380863 -0.00031800052344061781 -0.00065128697486559629 -0.0017931962268167843 0.00011824332322272617 -0.00014507342971018029 -0.00052139382902233287 -0.00042669785690283647 -9.7055237493342075e-05 -0.00078917476623340324 -0.00055214503297562471 0.00059891390806370134 -0.00094912496225205535 0.00078694609004992017 0.00041114531428151782 0.00019418700188458455 0.00042212030410586159 -0.00035717759599082784 0.00040309218847901692 0.00089693646147042381 0.0012335121309396014 0.00057415913551085403 0.0009009862038097268 0.0010977072876181954
leaf_weight=324 341 445 445 584 305 364 334 992 300 426 310 568 984 588 473 987 939 537 900 428 723 324 401 403 302 792 1862 562 383 349 407 306 568 1404 1893 650 638 325 328 475 416 560 334 517 493 548 313 321 447 331 439 300 590
leaf_count=324 341 445 445 584 305 364 334 992 300 426 310 568 984 588 473 987 939 537 900 428 723 324 401 403 302 792 1862 562 383 349 407 306 568 1404 1893 650 638 325 328 475 416 560 334 517 493 548 313 321 447 331 439 300 590
internal_value=1.24545e-06 -3.9092e-05 0.000182908 -0.000221488 1.99045e-05 0.000175323 0.000256604 -0.000433169 -0.000175178 0.000113639 5.54169e-06 0.000608337 -0.000249837 2.60452e-05 -0.000612475 -0.00023744 -6.97147e-05 -0.000608383 -0.000364287 -0.000126321 -0.000400257 -0.000828026 0.00165019 0.00062461 0.00043843 7.09227e-05 -0.000129427 -0.000232496 -0.000909678 0.000220297 -0.000875335 -0.00100813 -0.00140031 -0.000297478 -0.000414018 -8.18956e-05 -0.000794041 1.91864e-05 -0.000266787 -0.000256805 0.000287206 -0.00120042 0.00103199 0.000439166 0.000337478 0.000159054 -1.391e-05 0.000714555 0.000642281 0.000937775 0.000861438 0.00111628 0.000991753
internal_weight=30278 29553 13317 16236 11178 5640 5276 10596 4298 2582 3145 909 2156 1572 1716 2236 1926 6298 2995 2051 1623 3303 725 2131 1728 1126 8234 6371 1243 1863 944 2504 874 5809 3755 2054 1630 1418 677 799 741 860 2139 2944 1980 1354 806 626 964 1694 1363 602 924
internal_count=30278 29553 13317 16236 11178 5640 5276 10596 4298 2582 3145 909 2156 1572 1716 2236 1926 6298 2995 2051 1623 3303 725 2131 1728 1126 8234 6371 1243 1863 944 2504 874 5809 3755 2054 1630 1418 677 799 741 860 2139 2944 1980 1354 806 626 964 1694 1363 602 924
is_linear=0
shrinkage=0.05


Tree=20
num_leaves=35
num_cat=0
split_feature=2 2 3 1 1 2 1 2 8 3 0 1 1 3 0 3 6 8 3 10 1 2 8 1 3 0 8 6 3 8 6 6 0 6
split_gain=0.734667 0.450654 0.306315 0.339505 0.238525 0.202845 0.191362 0.156908 0.194073 0.160699 0.1273 0.113518 0.189916 0.165191 0.107518 0.138145 0.172383 0.0935393 0.0827941 0.0801471 0.0714957 0.0684505 0.0603631 0.0538401 0.0528459 0.0508742 0.044628 0.0644998 0.0359007 0.0282325 0.0249615 0.0260662 0.0190791 0.0148402
threshold=-1.262142236832793 1.0219399927126436 0.42406283858746513 3.4441414953017131 0.68434345216764714 -1.7100210493739474 2.6521319379627171 -0.013608150104534748 85.850000000000009 0.6311876864590994 0.21575760523882284 2.5927955454250626 1.8038594218347594 0.94553073969176393 -0.24696068715636685 0.34037409906562544 0.31500000000000006 78.950000000000017 1.297687667935733 1.0000000180025095e-35 0.63053739693053268 -0.42890481265694175 82.950000000000017 2.3354038632198653 2.4452257241821389 1.5733181794415618 84.65000000000002 0.89500000000000013 1.2594381832456236 81.550000000000011 0.75500000000000012 0.34500000000000003 -0.15185373855052048 0.47500000000000003
decision_type=2 2 2 2 2 2 2 2 2 2 2 2 2 2 2 2 10 2 2 2 2 2 2 2 2 2 2 10 2 2 10 10 2 10
left_child=5 2 6 4 17 -1 14 11 9 -9 -10 12 -6 -13 -2 16 -16 -4 -5 28 33 29 -7 -18 -23 26 27 -22 -3 -19 31 -30 -20 -21
right_child=1 19 3 18 7 22 -8 8 10 -11 -12 13 -14 -15 15 -17 23 21 32 20 25 24 -24 -25 -26 -27 -28 -29 30 -31 -32 -33 -34 -35
leaf_value=0.0022050016840012674 -0.00022864167991723072 0.00023763658919978851 0.00078042295711445769 4.0307126323493446e-05 -0.00024172808817921117 0.0011353448428129841 -0.00043277499357185774 7.5304918660173807e-05 -0.0005438785876141362 -0.0004683713473279279 -0.0020127972544682713 -0.00092825921721268519 0.00030725780712654118 0.00041260009355652499 0.0011650249049123525 0.0014650525356643621 0.00053994483707167282 0.00072738285917876063 0.00073448260861182105 0.00088352644083424827 0.00043294318782350223 -0.00035796483450114115 0.00025485704451299435 -0.00029441248948355907 0.00027881872937903857 0.00058125808189734348 -0.00061984807977203088 -0.00046999266721113711 0.00092419323586393333 0.00016254641263210656 0.0011987326802560595 0.00029947541630198567 0.0013089191150297353 0.00040756589555753501
leaf_weight=363 333 305 531 361 4764 490 577 1626 305 7825 310 898 2348 302 541 485 307 359 425 399 520 1060 352 517 461 362 301 315 471 660 420 305 302 378
leaf_count=363 333 305 531 361 4764 490 577 1626 305 7825 310 898 2348 302 541 485 307 359 425 399 520 1060 352 517 461 362 301 315 471 660 420 305 302 378
internal_value=1.23531e-06 -4.87596e-05 -0.000124974 -0.000186013 -0.000229904 0.00121065 0.000371513 -0.000298163 -0.000431147 -0.000374307 -0.00129449 -0.000136482 -5.97618e-05 -0.000586584 0.000586488 0.000735957 0.000472358 0.00017692 0.000674089 0.00046041 0.000269651 4.85299e-05 0.000773925 1.06634e-05 -0.000161621 6.39415e-05 -9.68763e-05 8.61791e-05 0.000745834 0.000366962 0.000870948 0.00068579 0.000981445 0.000659226
internal_weight=30278 29073 25297 22537 21449 1205 2760 18378 10066 9451 615 8312 7112 1200 2183 1850 1365 3071 1088 3776 2275 2540 842 824 1521 1498 1136 835 1501 1019 1196 776 727 777
internal_count=30278 29073 25297 22537 21449 1205 2760 18378 10066 9451 615 8312 7112 1200 2183 1850 1365 3071 1088 3776 2275 2540 842 824 1521 1498 1136 835 1501 1019 1196 776 727 777
is_linear=0
shrinkage=0.05


Tree=21
num_leaves=40
num_cat=0
split_feature=2 2 3 4 0 2 0 6 6 3 8 2 2 3 3 10 6 8 3 6 6 8 3 8 8 2 2 10 4 8 8 3 3 8 6 4 6 6 8
split_gain=0.663546 0.407204 0.276362 0.317479 0.232054 0.182814 0.156049 0.146756 0.138165 0.125758 0.17198 0.170762 0.124585 0.147222 0.128036 0.120974 0.159545 0.194286 0.140567 0.12679 0.153869 0.105616 0.101885 0.084634 0.0836438 0.0797622 0.0766566 0.0723918 0.0824979 0.0543411 0.0340515 0.0323131 0.0316196 0.0279816 0.0256429 0.0242743 0.0223333 0.0233984 0.00790764
threshold=-1.262142236832793 1.0219399927126436 0.42406283858746513 0.049243162803027825 0.67933568093104391 -1.7100210493739474 -0.68861367153149455 0.16500000000000004 -0.60499999999999987 0.68453550335800906 84.15000000000002 -0.39186204416397347 0.20060690780610566 1.0278014853701438 0.84742190521537963 1.0000000180025095e-35 0.27500000000000008 81.950000000000017 0.36334965043965012 0.075000000000000025 0.56500000000000006 81.750000000000014 1.7388225993193649 79.350000000000009 78.950000000000017 0.89490006943031652 0.078160246832919264 1.0000000180025095e-35 0.49389656289550138 82.950000000000017 84.750000000000014 1.2594381832456236 0.9384106739691368 85.15000000000002 0.83500000000000008 0.33601269862170224 0.75500000000000012 0.34500000000000003 82.15000000000002
decision_type=2 2 2 2 2 2 2 8 10 2 2 2 2 2 2 2 10 2 2 10 10 2 2 2 2 2 2 2 2 2 2 2 2 2 10 2 10 10 2
left_child=5 2 15 4 9 -1 7 21 -8 10 11 -4 14 -14 -11 18 -17 -18 19 -2 -21 -5 26 -6 -24 35 -10 31 -29 -7 34 -3 -25 -12 38 -9 37 -33 -30
right_child=1 27 3 6 23 29 8 25 22 12 33 -13 13 -15 -16 16 17 -19 -20 20 -22 -23 24 32 -26 -27 -28 28 30 -31 -32 36 -34 -35 -36 -37 -38 -39 -40
leaf_value=0.0020950545339806239 -0.001074479914598421 0.00022579357448015725 -0.0007002985141992083 0.00048226524846111058 -0.00035300078343061619 0.0010786932282237786 0.00084680257741898211 0.0015133552931356575 -7.07129149614373e-05 0.00014036587983003466 -0.0011338752740046427 0.0002613891986642927 -0.00086688325883004999 0 -0.00048706309364714303 0.0016647299891487458 0.001016623731522976 -0.00058416590597266808 0.00084698542438768555 0.0008655626775242825 -0.00045325781746901711 -0.00064686661407909135 0.00061047962711153418 -0.0016944253132001271 -1.5119450109698979e-05 0.00019604088663089777 -0.0004430374560944946 -0.00031659043673425911 0.00094544794477805438 0.00024215030020136496 6.9443676887100453e-05 0.00087808147282499949 -0.00099672201987728365 -0.00045546389845565343 0.0002762806074842613 0.00082964599926697814 0.0011389384092486546 0.00028455057576979778 0.00055431877615612487
leaf_weight=363 307 305 559 439 319 490 391 323 3017 1395 323 2595 2210 617 1915 338 456 319 437 380 523 389 644 378 3033 317 2612 484 356 352 536 471 395 358 529 308 420 305 370
leaf_count=363 307 305 559 439 319 490 391 323 3017 1395 323 2595 2210 617 1915 338 456 319 437 380 523 389 644 378 3033 317 2612 484 356 352 536 471 395 358 529 308 420 305 370
internal_value=1.28907e-06 -4.62161e-05 -0.000118671 -0.000176656 -0.000367752 0.00115068 7.2087e-06 0.00043835 -7.1276e-05 -0.000291219 -6.50386e-05 8.91915e-05 -0.000431711 -0.000676302 -0.00022116 0.000352886 0.000755841 0.000351371 7.72525e-05 -0.000197083 9.65401e-05 -4.23176e-05 -0.000110474 -0.00106116 9.32265e-05 0.000863044 -0.000244417 0.000437772 0.000256305 0.000735608 0.000414005 0.00070913 -0.00134611 -0.000785758 0.000557011 0.00118938 0.00082792 0.000651901 0.000754026
internal_weight=30278 29073 25297 22537 11064 1205 11473 1776 9697 9972 3835 3154 6137 2827 3310 2760 1113 775 1647 1210 903 828 9306 1092 3677 948 5629 3776 2275 842 1791 1501 773 681 1255 631 1196 776 726
internal_count=30278 29073 25297 22537 11064 1205 11473 1776 9697 9972 3835 3154 6137 2827 3310 2760 1113 775 1647 1210 903 828 9306 1092 3677 948 5629 3776 2275 842 1791 1501 773 681 1255 631 1196 776 726
is_linear=0
shrinkage=0.05


Tree=22
num_leaves=64
num_cat=0
split_feature=4 1 3 3 4 6 1 10 8 8 1 7 1 1 1 7 7 8 7 6 6 3 1 8 1 6 7 8 8 7 3 6 1 1 3 6 8 8 7 6 1 4 4 8 3 1 6 7 3 3 6 3 8 7 6 3 8 3 7 7 1 8 1
split_gain=0.538357 0.504238 0.336521 0.280075 0.208666 0.189083 0.171465 0.168558 0.222969 0.167477 0.159163 0.201187 0.14161 0.150064 0.15992 0.143531 0.130955 0.120263 0.104311 0.154168 0.192718 0.124679 0.18103 0.10575 0.0928898 0.125386 0.092429 0.0872581 0.0833426 0.132861 0.13392 0.103708 0.096554 0.080355 0.0776097 0.0761952 0.0723859 0.139463 0.065211 0.06501 0.06192 0.0602894 0.0959335 0.0790835 0.083519 0.0767001 0.0567344 0.0515395 0.0506598 0.0496601 0.0438252 0.0730931 0.0676973 0.0377736 0.037623 0.0365431 0.0355485 0.0297056 0.0265489 0.0263235 0.0174913 0.0223295 0.0077962
threshold=0.30233799011443369 2.0331103704124791 0.62373948922522449 2.2803028256516193 0.049243162803027825 1.2350000000000001 2.6382114268067456 1.0000000180025095e-35 83.850000000000009 78.950000000000017 2.1785280321897464 -0.91499999999999992 2.26975559578023 2.5764599649213697 2.4400550581724474 -0.87499999999999989 -0.91499999999999992 76.050000000000011 -1.0049999999999997 0.44500000000000006 0.30500000000000005 0.84054153695062472 1.8826164468353139 78.450000000000017 1.3269219044333336 0.58500000000000008 -1.0849999999999997 81.65000000000002 80.750000000000014 -0.66499999999999992 1.726783569797268 -0.12499999999999999 1.1103847429185156 0.51844388904534366 0.42406283858746513 0.95500000000000007 79.450000000000017 81.550000000000011 -0.26499999999999996 0.51500000000000012 1.7638746177209581 0.13767467046290263 0.085058274242329437 83.050000000000011 1.1704131957595505 1.3985952866471394 0.8650000000000001 -1.2449999999999999 2.5918073664620054 1.9591068249655235 0.56500000000000006 1.4435658283888393 79.050000000000011 -0.60499999999999987 0.53500000000000014 1.2367489325655241 84.550000000000011 0.85992960248514627 -1.3949999999999998 -0.83499999999999985 -0.10373291404628589 82.15000000000002 3.5927742091159396
decision_type=2 2 2 2 2 10 2 2 2 2 2 2 2 2 2 2 2 2 2 10 10 2 2 2 2 10 2 2 2 2 2 10 2 2 2 10 2 2 2 10 2 2 2 2 2 2 10 2 2 2 10 2 2 2 10 2 2 2 2 2 2 2 2
left_child=2 3 5 26 17 7 24 10 9 -9 11 -1 -12 14 -14 -15 -11 -4 36 20 23 22 -21 -20 25 27 46 -6 29 30 -28 -30 49 48 -18 -23 39 -38 -31 -19 -39 42 -26 44 -43 -44 47 58 59 -33 51 -3 -52 -34 -49 -8 60 -22 -2 -5 61 -50 -53
right_child=1 50 4 33 6 -7 55 8 -10 16 12 -13 13 15 -16 -17 34 18 19 21 57 35 -24 -25 41 -27 28 -29 31 38 -32 32 53 -35 -36 -37 37 40 -40 -41 -42 43 45 -45 -46 -47 -48 54 56 -51 52 62 -54 -55 -56 -57 -58 -59 -60 -61 -62 -63 -64
leaf_value=-0.00039629116069426085 0.00040802528363849568 7.191329482889322e-05 0.0004659561652797742 0.00032868664331254399 0.00044755905345424053 -0.00094743221376748267 0.00032875764771520872 2.6886596676459621e-05 -0.00029886622855618489 0.00057508135759829838 -0.001223009300594693 0.0011301732390594547 -0.00016564016101340372 0.00016634398388843904 0.001121209034612494 -0.0010696712238866151 0.002248415546533585 0.00015746324924707138 -0.0012599424947645575 0.0011820917724812922 -0.0017476324891140397 -6.5711711933680406e-05 -0.00014711088399869368 -0.00027731998178289532 0.00024830701932907509 -0.0012347801050401641 -0.00081608152426070806 -0.00068414563633185791 -0.0010202657675801514 0.0010178924290091909 0.00027448066837170793 -0.0005842679328249273 0.00053596597025538559 0.0010837262718505192 0.0010931911266092726 -0.00081708579481568489 -0.0016179984171633495 -0.0010992831330943022 8.9654704576533611e-05 -0.00073867495993697305 -0.00023320026966038585 -0.00068740155983550285 -1.0345132998053051e-05 0.00084467500319492536 0.00036661572463758023 -0.0010204089295120069 -0.00033432867616248392 0.00033163599581751617 0.00047126873845749345 -6.0319289658635805e-05 0.00067593205083626799 0.0012325466624554266 0.0015675307936590579 -0.0001313939282303771 0.001154622124579705 0.0010470327451162539 0.00095267388814900531 -0.0010010922042706554 -0.00022209722952772071 -0.00020210314320190026 0.00067552725500424589 -2.9899772658508676e-05 0.00083186781942949672
leaf_weight=341 347 308 328 506 326 364 455 439 541 513 310 568 582 411 405 528 312 307 321 380 331 753 766 2047 570 427 547 350 460 419 569 1278 474 504 326 635 571 367 368 549 515 302 337 377 492 455 305 300 551 735 376 313 590 365 301 325 425 314 311 422 445 342 477
leaf_count=341 347 308 328 506 326 364 455 439 541 513 310 568 582 411 405 528 312 307 321 380 331 753 766 2047 570 427 547 350 460 419 569 1278 474 504 326 635 571 367 368 549 515 302 337 377 492 455 305 300 551 735 376 313 590 365 301 325 425 314 311 422 445 342 477
internal_value=1.2921e-06 0.000260967 -0.000169819 0.00011315 -0.000313627 0.000150568 -3.53853e-05 0.000227433 0.000570668 0.000869673 -3.65499e-06 0.000552238 -0.000232023 -6.93719e-05 0.000357938 -0.000523747 0.00118648 -0.00046313 -0.000502611 -0.00038318 -0.000625153 -9.33611e-05 0.000289924 -0.000413108 -0.000180793 -0.00056365 -6.81079e-05 -0.000131142 -0.000169801 9.18271e-05 -0.000255827 -0.000321619 -0.000206863 0.000499201 0.00166859 -0.0004134 -0.000787072 -0.00100438 0.00059086 -0.000411637 -0.000600076 -1.1947e-05 -0.000239926 0.00024893 -2.83536e-05 -0.000597482 0.000267676 0.000417632 0.000387505 -0.000395568 0.000972451 0.000743288 0.00122672 0.000239873 0.000753353 0.000635398 0.000545357 -0.00139405 0.000102729 8.19747e-05 0.000411628 0.00027392 0.000998296
internal_weight=30278 12038 18240 9974 12600 5640 4416 5276 2131 1590 3145 909 2236 1926 987 939 1151 8184 7856 5547 3013 2534 1146 2368 3636 1103 6779 676 5215 1903 1116 3312 2852 3195 638 1388 2309 1453 787 856 882 2533 1362 1171 794 792 1564 1259 2691 2013 2064 1098 966 839 601 780 1763 645 658 928 1338 893 790
internal_count=30278 12038 18240 9974 12600 5640 4416 5276 2131 1590 3145 909 2236 1926 987 939 1151 8184 7856 5547 3013 2534 1146 2368 3636 1103 6779 676 5215 1903 1116 3312 2852 3195 638 1388 2309 1453 787 856 882 2533 1362 1171 794 792 1564 1259 2691 2013 2064 1098 966 839 601 780 1763 645 658 928 1338 893 790
is_linear=0
shrinkage=0.05


Tree=23
num_leaves=51
num_cat=0
split_feature=2 3 1 3 3 6 10 8 8 2 1 1 2 8 1 8 8 1 1 2 1 1 4 6 1 8 3 8 2 8 8 8 1 6 1 6 3 8 3 2 1 1 2 8 4 6 3 3 4 2
split_gain=0.576717 0.360297 0.570866 0.374562 0.186527 0.170739 0.152349 0.201563 0.15115 0.147057 0.200764 0.605661 0.156066 0.184636 0.143565 0.13227 0.143238 0.127836 0.13531 0.126161 0.125327 0.143652 0.121197 0.111607 0.083507 0.0977963 0.0831159 0.0664435 0.0640714 0.0539323 0.0527529 0.0633274 0.05828 0.0834946 0.0605463 0.048521 0.0812686 0.0304563 0.0305192 0.0301834 0.0290551 0.0273133 0.0307407 0.0246807 0.0193659 0.0196443 0.021262 0.0135656 0.0128444 0.00779711
threshold=-1.6070702505565444 1.2436389554203162 1.8455816185081613 0.62373948922522449 2.2399436682034959 1.2350000000000001 1.0000000180025095e-35 83.850000000000009 78.950000000000017 -0.013608150104534748 1.9638109978751925 1.8455816185081613 -0.50051377804441455 79.15000000000002 2.1785280321897464 84.050000000000011 82.550000000000011 2.26975559578023 2.5764599649213697 -0.082312600514886688 2.0133906080592099 2.2013165153941983 0.034995362658057479 0.6150000000000001 3.1692230100799157 81.450000000000017 1.0043187703673992 77.950000000000017 0.47156114374974173 76.950000000000017 85.750000000000014 86.950000000000017 1.3269219044333336 0.51500000000000012 1.2623432509457888 0.56500000000000006 0.91351518833840439 81.850000000000009 2.5297301404518411 1.3187880763569091 0.36990936483821352 3.7146549239898374 0.70299206363018552 83.15000000000002 1.2410424522545567 0.25500000000000006 2.7394689233423724 2.8781078394662258 0.69746609938648085 -0.006675113852504899
decision_type=2 2 2 2 2 10 2 2 2 2 2 2 2 2 2 2 2 2 2 2 2 2 2 10 2 2 2 2 2 2 2 2 2 10 2 10 2 2 2 2 2 2 2 2 2 10 2 2 2 2
left_child=-1 3 4 5 27 6 14 8 -8 10 11 12 -5 -14 19 16 20 -16 -19 -2 28 -22 24 -10 25 -12 -18 29 -11 -3 32 -32 34 -34 -29 36 -17 44 40 41 -39 42 -4 -40 -6 -46 -47 -45 -41 -43
right_child=1 2 39 9 37 -7 7 -9 23 15 22 -13 13 -15 17 35 26 18 -20 -21 21 -23 -24 -25 -26 -27 -28 30 -30 -31 31 -33 33 -35 -36 -37 -38 38 43 48 -42 49 -44 47 45 46 -48 -49 -50 -51
leaf_value=0.0017117056768141637 -0.00022538801230820679 -0.00013988069999873597 0.0015869623056855066 -0.00093527085232324018 0.00087964081142422415 -0.00090019039222524093 2.5545321266690737e-05 -0.00028395050169207123 0.00071645806700962832 -0.00056856595358920981 -0.0015621724391169235 0.0018649047318848372 -0.00086141257410848491 0.00036137019210322988 -0.0011620554267132164 -0.0017617086973270347 -0.00021141041493535494 0.00033983635463617415 -0.00049734191507122116 0.00098079676485583181 0.0007019012407627035 -0.00042787056734668212 0.00011852856382962417 0.0017452450935811364 -0.00011218157306377015 -0.00050379242913653238 0.00076282579644931759 -0.0001328231068299457 -0.0011315395915391731 0.00066752076697634193 -0.00095712030091158612 -7.1039215739195535e-06 0.00066260214367850831 -0.00017493038677201644 -0.00078259989780814828 -0.00048889205658699138 -0.00072035237054888287 -0.0004149249627641966 0 0.00031735263788565339 0.00025577222082117198 0.00053422256253547707 0.00091385739433629963 0.00028118952117669039 0.00069815771999509754 -7.1371771963243813e-06 0.00053914529007913551 0.00075528661115334232 0.00077547997445708862 0.00092487070239768727
leaf_weight=484 340 353 361 535 319 364 439 541 697 1426 474 426 413 1208 310 379 564 987 939 569 337 1617 473 454 329 440 352 5039 847 470 424 317 543 642 390 355 421 313 320 301 325 309 445 338 398 368 315 364 465 439
leaf_count=484 340 353 361 535 319 364 439 541 697 1426 474 426 413 1208 310 379 564 987 939 569 337 1617 473 454 329 440 352 5039 847 470 424 317 543 642 390 355 421 313 320 301 325 309 445 338 398 368 315 364 465 439
internal_value=1.24072e-06 -2.64343e-05 0.000163637 -0.000185463 1.57417e-05 0.000143059 0.000216139 0.000542455 0.000826785 -0.000360796 -0.000133696 0.000143353 -0.000195194 4.64068e-05 -3.47917e-06 -0.000514938 -0.00040457 -0.000220448 -6.57722e-05 0.000524392 -0.000527659 -0.000230206 -0.000553315 0.00112776 -0.000812881 -0.00105924 0.00015794 -0.0001084 -0.000780954 0.000315394 -0.000156537 -0.000557999 -0.000110726 0.00020487 -0.000180557 -0.00100128 -0.00122152 0.000349076 0.000199118 0.000877564 -6.55786e-05 0.0010094 0.00122312 0.000369149 0.000523045 0.000412478 0.000237919 0.000534855 0.000602626 0.000771098
internal_weight=30278 29794 13558 16236 11238 5640 5276 2131 1590 10596 4298 2582 2156 1621 3145 6298 5143 2236 1926 909 4227 1954 1716 1151 1243 914 916 8178 2273 823 7355 741 6614 1185 5429 1155 800 3060 1660 2320 638 1554 806 1022 1400 1081 683 702 766 748
internal_count=30278 29794 13558 16236 11238 5640 5276 2131 1590 10596 4298 2582 2156 1621 3145 6298 5143 2236 1926 909 4227 1954 1716 1151 1243 914 916 8178 2273 823 7355 741 6614 1185 5429 1155 800 3060 1660 2320 638 1554 806 1022 1400 1081 683 702 766 748
is_linear=0
shrinkage=0.05


Tree=24
num_leaves=49
num_cat=0
split_feature=3 1 3 3 1 0 0 7 7 3 7 7 7 0 3 1 0 6 7 7 3 4 1 7 0 7 1 0 6 0 6 1 3 1 7 1 1 7 6 0 6 3 4 1 3 6 4 7
split_gain=0.443156 0.598958 0.334786 0.258698 0.22534 0.169697 0.157962 0.152425 0.180205 0.165777 0.140723 0.129725 0.128497 0.124257 0.226572 0.11937 0.112152 0.105225 0.118425 0.264513 0.160257 0.0964384 0.0925247 0.0817474 0.155072 0.0866954 0.0698858 0.0686932 0.155577 0.0548038 0.101243 0.0466211 0.0409251 0.0262434 0.0395596 0.0245369 0.0243641 0.0289994 0.0239763 0.0210667 0.0339796 0.0206294 0.0192424 0.0176054 0.0163079 0.013239 0.00499222 0.00768797
