tree
version=v4
num_class=1
num_tree_per_iteration=1
label_index=0
max_feature_idx=10
objective=regression
feature_names=plate_x plate_z plate_x_adj zone_center_dist out_of_zone_dist in_zone pfx_x pfx_z release_speed stand_cat same_side
feature_infos=[-11.365394259608593:5.1380676846608218] [-3.9251834767441101:7.7598056672930671] [-3.8037256491015898:11.365394259608593] [0.0040964692901989666:11.686918244956496] [0:10.675272976822535] [0:1] [-2.0800000000000001:2.27] [-2.4500000000000002:2.8399999999999999] [33.399999999999999:96.299999999999997] -1:1:0 [0:1]
tree_sizes=12035 12097 12026 12129 12086 12056 12115 12152 12032 12098 12163 12131 12184 12168 12113 12055 12197 12147 12157 12159 12043 12198 12203 12236 12232 12206 12245 11997 11888 11079 11633 12282 11780 11874 9999 12301 12175 12199 12266 12285 12182 9794 9910 8845 7541 9341 9408 8341 10567 7739 8574 7730 10564 12223 9928 6521 8627 8170 7746 7320 7002 9093 5379 7217 11307 6799 5955

Tree=0
num_leaves=127
num_cat=8
split_feature=4 3 4 4 1 1 0 3 9 1 1 1 4 7 1 0 0 6 3 0 9 1 1 9 0 8 6 9 0 0 0 9 3 7 0 1 9 0 3 8 0 0 0 9 3 8 7 7 4 0 6 7 7 3 0 6 6 3 0 6 8 3 7 4 1 8 0 0 6 6 0 0 8 6 8 7 1 7 3 7 3 6 1 6 3 4 3 7 1 6 8 1 4 3 6 6 7 3 8 0 8 0 7 4 6 0 0 7 8 1 1 7 6 3 4 0 4 7 4 9 0 6 7 0 3 7
split_gain=63.5145 13.743 12.7805 11.5079 10.317 6.43939 2.98867 2.94194 2.22073 2.21621 1.95899 1.63124 1.44326 1.32831 1.32465 1.31244 1.21528 1.2464 1.19712 1.1925 2.3348 1.12868 1.03351 0.962677 1.48729 1.13415 0.911292 0.876671 3.41126 0.865512 0.843639 1.70347 0.801456 0.723176 0.687418 0.746366 0.791643 0.733688 0.686133 0.648684 0.646661 0.567616 0.468788 0.445773 0.384917 0.36763 0.341029 0.363405 0.336832 0.336441 0.342849 0.330834 0.329383 0.325206 0.321284 0.301 0.886814 0.322956 0.300657 0.29643 0.283021 0.272355 0.271854 0.271027 0.261076 0.261016 0.251237 0.246906 1.00964 0.625754 0.346376 0.270901 0.259042 0.239572 0.23423 0.229629 0.224592 0.270378 0.218008 0.217162 0.213205 0.20892 0.201499 0.201493 0.198738 0.196643 0.189334 0.186032 0.199014 0.175138 0.174275 0.165046 0.164033 0.161841 0.160288 0.178457 0.15945 0.150675 0.146097 0.138654 0.137598 0.134335 0.126142 0.120744 0.119705 0.135157 0.115467 0.114541 0.111478 0.124708 0.111179 0.108649 0.181447 0.102855 0.101502 0.100665 0.0979206 0.0911212 0.132051 0.115738 0.0887724 0.129893 0.0885441 0.0878457 0.0864561 0.0894914
threshold=0.37846508908947307 0.52400433325556872 0.092785622805363607 0.91742065224796543 2.175849449951361 2.8679712494691469 -1.7907397694631777 0.69388779915204435 0 2.4715825367611983 2.7483181195514308 3.3942039109129687 1.448118431454285 0.23500000000000001 2.7199039846568369 -2.1750876770808536 -1.0059694535827537 0.085000000000000006 1.1721296656852429 0.33248773855928615 1 2.9373253087518125 1.2428490296500418 2 -0.12426014543150184 85.65000000000002 -0.68499999999999994 3 1.8780384902616192 0.10030335371263376 1.3371244409284009 4 1.2140496315575657 0.23500000000000001 -0.33410456185302156 2.5176599248528677 5 0.3237610398806719 1.7935712044545753 83.250000000000014 0.8830139797812856 -0.24658456435588391 -0.20447088207305136 6 0.43480743981104625 87.550000000000011 -0.53499999999999992 0.33500000000000008 0.48485676518253468 -0.57216641157599968 0.59500000000000008 0.28500000000000009 0.37500000000000006 1.1582995657768993 -0.20447088207305136 0.35500000000000004 0.075000000000000025 0.38840942030216985 1.5514706360095898 0.99500000000000011 83.450000000000017 1.7098265761088085 0.6150000000000001 0.24083994395696681 2.9758757486233764 85.65000000000002 -0.065631391701121242 1.0000000180025095e-35 0.055000000000000007 -0.054999999999999993 0.54793984440061294 1.0689742282875672 87.050000000000011 0.13500000000000004 82.350000000000009 0.7350000000000001 2.9562376192500688 0.045000000000000005 1.3681362375970822 -0.17499999999999996 0.62499550077971144 0.17500000000000002 2.8221372737746342 -0.014999999999999998 0.3792942673526381 0.61482040915653846 0.55384046808890885 -0.27499999999999997 1.7905602567851526 0.92500000000000016 86.15000000000002 3.3942039109129687 0.8747746787102455 0.55384046808890885 -0.26499999999999996 0.24500000000000002 0.18500000000000003 0.30977178825980539 88.15000000000002 0.18879421775512698 86.15000000000002 -0.39244831246084216 -0.21499999999999997 0.58630797456269834 -0.024999999999999998 -1.2459417446217671 0.0090435189192026519 0.39500000000000007 83.350000000000009 2.7199039846568369 3.2001564826187825 0.59500000000000008 0.21500000000000002 1.5717231541088375 0.24826522177218327 1.3926956919344957 1.1572340975158815 0.46500000000000002 0.82720314756081226 7 -0.95926518487920143 0.10500000000000002 0.85500000000000009 -1.9332496499904528 1.3436629768447537 0.015000000000000001
decision_type=2 2 2 2 2 2 2 2 1 2 2 2 2 2 2 2 2 10 2 2 1 2 2 1 2 2 10 1 2 2 2 1 2 2 2 2 1 2 2 2 2 2 2 1 2 2 2 2 2 2 10 2 2 2 2 10 10 2 2 10 2 2 2 2 2 2 2 2 10 10 2 2 2 10 2 2 2 2 2 2 2 10 2 10 2 2 2 2 2 10 2 2 2 2 10 10 2 2 2 2 2 2 2 2 10 2 2 2 2 2 2 2 10 2 2 2 2 2 2 1 2 10 2 2 2 2
left_child=1 10 7 4 13 16 8 9 15 29 26 19 21 22 43 -5 17 124 45 23 53 30 39 25 -25 -9 54 -14 115 41 33 116 120 79 35 36 65 46 62 61 73 60 -43 89 55 74 -36 -48 87 103 107 76 -34 -21 -1 56 66 -58 -33 81 -3 102 85 -19 -10 -28 -12 68 72 70 -69 -71 -18 -41 -13 117 77 -46 -70 -8 93 -39 -22 -37 106 98 108 -24 -89 -6 -50 -54 -42 -31 -88 -96 -85 -56 -15 -82 -20 -38 -2 -16 -45 -106 -57 -51 -11 -110 -105 112 -53 -52 -93 -29 -32 118 -40 -119 -7 -122 -64 -17 125 -4
right_child=3 2 5 6 14 32 12 11 64 86 44 18 27 38 49 123 67 63 100 20 82 -23 48 24 -26 -27 34 28 -30 80 31 58 52 -35 37 83 101 59 75 40 92 42 -44 104 51 -47 47 -49 90 50 113 111 91 -55 97 84 57 -59 -60 -61 -62 -63 122 -65 -66 -67 -68 69 78 71 -72 -73 -74 -75 -76 -77 -78 -79 -80 -81 99 -83 -84 96 -86 -87 94 88 -90 -91 -92 114 -94 -95 95 -97 -98 -99 -100 -101 -102 -103 -104 110 105 -107 -108 -109 109 -111 -112 -113 -114 -115 -116 -117 -118 119 -120 -121 121 -123 -124 -125 -126 -127
leaf_value=-0.0027253898411749512 -0.0038323238794119282 -0.002669953052200602 -0.0023793114983508903 0.0048341271061036837 -0.0018788341916782612 -0.001819156266833694 -0.0026881999062654703 -0.0036617476221198915 -0.0010324245792156148 -0.0030611856344459599 -0.0029128939451245938 -0.0022678711795309412 -0.00108157045922124 -0.0028249409991551412 -0.00035196143360924099 0.0016252372854966119 -0.0035627853045643149 -0.002351671331990152 -0.00097467657305399342 -0.0050882631249824098 -0.0038322425116822604 5.429530000497073e-05 -0.001970670112296089 -0.0049257371750492688 -0.0037217107883174305 -0.0044661573866908123 -0.0010137250014829614 -0.0010905045670769635 0.0040622882145627155 -0.0040541856711454327 -0.0017852502729791163 -0.00091038878835128078 -0.00084248561717463911 -0.0013353933173403179 -0.0040077828738715867 -0.0031944303922834157 -0.0032899012702731351 -0.0034586023533507738 -0.0024210979046545549 -0.0039493268947924411 -0.0029930105658285649 -0.00074141838541251937 -0.002696879643798829 -0.0017231999760686533 -0.004831604176582651 -0.0050116158214447513 -0.0022014508440377895 -0.0026589205898720986 -0.0020258814516537806 -0.00023935587754550037 -0.0024583330686754612 -0.0053633413117061927 -0.0027766072269449233 -0.0045046661833118154 -0.0038774833533307359 -0.003772886150603645 -0.00096598405036194858 -0.003014116883327003 0.00090591442146113364 -0.0045078548613537829 -0.0036253710363192901 -0.0022649397572154653 -0.0023170497475298586 -0.00093816764279837156 0.00058585115167766487 -0.0025903797751794847 -0.0045827128067687838 -0.0036115026520552903 -0.0028334624881677099 -0.003814597115373664 -0.00229793121893377 -0.0033868339510791665 -0.0044633773787891434 -0.0034160544397777012 -0.0037834016620932154 -0.00090632855379562359 -0.0026536237752062598 -0.0031889388518468952 -0.0017900841996025092 -0.0020731775560044346 -0.0050973533856935524 -0.0027001388408088279 -0.0046225622321670696 -0.0040449285635195745 -0.0031348654308288779 -0.0023471985708256832 -0.0051267935448946877 -0.0036660521614970791 -0.0025295063182642491 -0.0031010180337213669 -0.0026504914861782834 -0.0020593394652939226 -0.0019416842686531578 -0.0033344122686455261 -0.0040399878558638139 -0.0046347334686155355 -0.0054789390436274579 -0.0052353447989037707 -0.0034295525494619228 -0.0039772836683134426 -0.0024040523140895741 -0.0045779715859194303 -0.0028016234572826306 -0.00031186991415389125 1.1795155575391753e-05 -0.0012473837027468487 -0.0050172144787446679 -0.00099073220848609669 -0.0048868412108709234 -0.0037550086117205958 0.00078742469387547672 -0.0056471585792429524 -0.003651258502996729 -0.0011975558004096859 -0.00099203879993777855 -0.00011907465099542406 -0.0013903953160658931 -0.0020366064109420246 -0.0017275480420814089 -0.0011078947579553399 -0.0020014790331803951 -0.0030911179970165579 -0.0013963028637094112 0.00040719339550470118 -0.0037270306831118896 -0.0033152346568405926
leaf_weight=356 479 1042 338 330 2147 358 2239 9136 1380 303 362 303 6637 3498 1219 360 2872 555 427 18004 5894 1017 336 9912 3481 8478 542 1446 432 1092 3590 330 2514 2927 309 301 504 1384 2545 3628 3933 350 2532 345 529 547 14074 6358 2906 1595 325 303 353 2840 468 406 540 307 903 336 2973 2109 1179 934 320 530 574 812 2616 15090 1299 4965 1123 5132 1513 466 396 488 625 4180 317 2615 953 431 558 1531 1014 1075 596 341 1874 454 411 2845 1984 3799 382 389 1392 2746 301 350 771 416 483 448 376 874 370 786 758 315 337 359 503 370 3159 1273 976 487 414 830 356 387 845 1032
leaf_count=356 479 1042 338 330 2147 358 2239 9136 1380 303 362 303 6637 3498 1219 360 2872 555 427 18004 5894 1017 336 9912 3481 8478 542 1446 432 1092 3590 330 2514 2927 309 301 504 1384 2545 3628 3933 350 2532 345 529 547 14074 6358 2906 1595 325 303 353 2840 468 406 540 307 903 336 2973 2109 1179 934 320 530 574 812 2616 15090 1299 4965 1123 5132 1513 466 396 488 625 4180 317 2615 953 431 558 1531 1014 1075 596 341 1874 454 411 2845 1984 3799 382 389 1392 2746 301 350 771 416 483 448 376 874 370 786 758 315 337 359 503 370 3159 1273 976 487 414 830 356 387 845 1032
internal_value=-0.00310102 -0.00367517 -0.00392437 -0.00191694 -0.00241177 -0.00317036 -0.00115426 -0.00427043 0.000410181 -0.00377558 -0.00279876 -0.00444775 -0.00131412 -0.00278674 -0.000924194 0.00219017 -0.00343217 -0.00257938 -0.00332621 -0.00450672 -0.00474573 -0.00156843 -0.00301713 -0.00429307 -0.00461324 -0.00404927 -0.00263639 -0.000789819 6.80463e-05 -0.00338961 -0.00166414 -0.00128555 -0.00157409 -0.00198816 -0.00257838 -0.00328713 -0.00269326 -0.00249226 -0.00239623 -0.00323093 -0.00339007 -0.00299271 -0.00245693 -0.0016517 -0.00366503 -0.0038738 -0.00236861 -0.00234353 -0.00249785 -0.000431697 -0.000779054 -0.00414614 -0.00118025 -0.00500906 -0.00397618 -0.00329841 -0.00287505 -0.00170147 0.00042602 -0.00308503 -0.00337612 -0.00261166 -0.00269799 -0.00146082 -0.00072288 -0.00178737 -0.00393206 -0.00353979 -0.00328509 -0.00362269 -0.00280557 -0.00370896 -0.00381747 -0.00363755 -0.00352746 -0.00197948 -0.00365448 -0.00404916 -0.00263037 -0.00228683 -0.00378135 -0.00296391 -0.00394318 -0.00431781 -0.00386521 -0.00284203 -0.00442453 -0.00304417 -0.00325759 -0.00204595 -0.00226957 -0.00183349 -0.00289215 -0.00353552 -0.00453646 -0.00443175 -0.00472696 -0.00450143 -0.00299811 -0.00409545 -0.00155704 -0.00382476 -0.00319286 2.27296e-05 -0.000888325 -0.000586122 -0.00437925 -0.000502349 -0.00389905 -0.00412283 0.000404857 -0.00486703 -0.00447189 -0.0017875 -0.00149153 -0.000888297 -0.00159946 -0.00207552 -0.0022271 -0.0017758 -0.00251791 -0.00272388 -0.00209928 0.00100642 -0.00332946 -0.00308762
internal_weight=233564 157294 122474 76270 46263 38532 30007 83942 2777 22153 34820 61789 27230 36953 9310 1077 33106 3704 3091 58698 27691 18345 23250 31007 13393 17614 29329 8885 2248 13897 17328 7982 5426 9346 28116 3040 1926 25076 13703 16463 13104 6897 2882 3764 5491 2363 20741 20432 6787 5546 3153 2368 3824 20844 1213 3123 1783 847 1233 4335 4015 3359 7956 1489 1700 1072 936 29402 7236 22166 2111 20055 3995 8760 1816 5747 1413 1017 3241 6419 7000 3999 6847 1114 1340 6421 8256 2007 1671 2488 4780 1310 4344 3937 6797 5783 813 857 4890 3063 728 854 1250 2393 1276 931 782 2469 1459 1156 1174 955 640 684 957 1816 6749 5281 3521 1760 1602 1244 1535 747 2215 1370
internal_count=233564 157294 122474 76270 46263 38532 30007 83942 2777 22153 34820 61789 27230 36953 9310 1077 33106 3704 3091 58698 27691 18345 23250 31007 13393 17614 29329 8885 2248 13897 17328 7982 5426 9346 28116 3040 1926 25076 13703 16463 13104 6897 2882 3764 5491 2363 20741 20432 6787 5546 3153 2368 3824 20844 1213 3123 1783 847 1233 4335 4015 3359 7956 1489 1700 1072 936 29402 7236 22166 2111 20055 3995 8760 1816 5747 1413 1017 3241 6419 7000 3999 6847 1114 1340 6421 8256 2007 1671 2488 4780 1310 4344 3937 6797 5783 813 857 4890 3063 728 854 1250 2393 1276 931 782 2469 1459 1156 1174 955 640 684 957 1816 6749 5281 3521 1760 1602 1244 1535 747 2215 1370
cat_boundaries=0 1 2 3 4 5 6 7 8
cat_threshold=2 2 2 2 2 2 2 2
is_linear=0
shrinkage=1


Tree=1
num_leaves=127
num_cat=6
split_feature=4 3 4 4 0 3 0 6 9 0 6 10 0 6 4 0 7 0 6 3 6 9 0 0 6 7 7 0 9 3 4 8 0 9 4 4 9 10 0 6 0 0 8 6 7 3 3 7 3 7 4 0 0 0 6 0 6 0 8 7 8 6 7 6 8 7 6 3 4 6 0 4 8 10 0 6 6 3 6 4 4 7 0 6 7 3 0 10 0 4 10 8 7 3 4 7 0 10 3 8 3 8 6 8 7 8 3 6 0 8 6 10 0 7 8 0 3 10 10 8 3 0 8 6 6 9
split_gain=57.3368 12.4013 11.5617 10.3867 2.94878 2.74711 2.69888 2.29301 2.00485 1.92311 2.92253 1.64238 1.56044 1.30265 1.30229 1.18367 1.10916 1.22799 1.01216 0.843506 0.822491 0.791457 3.08763 0.78426 0.776729 0.744966 0.652472 0.698575 1.40237 0.62564 0.542643 0.53227 0.516895 0.589519 0.493861 0.488335 0.469365 0.466598 0.53136 0.727571 0.416105 0.406993 0.38356 0.481826 0.565411 0.377178 0.360078 0.350936 0.429575 0.445534 0.332035 0.329514 0.608515 0.431015 0.395122 0.303836 0.299473 0.287392 0.283588 0.282203 0.274582 0.270653 0.261333 0.259337 0.256491 0.24966 0.246613 0.270797 0.245914 0.236764 0.233445 0.228573 0.225333 0.216442 0.533014 0.214058 0.44236 0.210146 0.201263 0.198242 0.195808 0.186285 0.185719 0.296281 0.185076 0.184797 0.183576 0.178821 0.214244 0.177025 0.174536 0.208606 0.173924 0.173185 0.165819 0.181782 0.164632 0.149161 0.14697 0.142975 0.141895 0.179849 0.141884 0.137742 0.135697 0.134028 0.200258 0.177179 0.133314 0.125839 0.144557 0.124266 0.188317 0.11817 0.117433 0.115689 0.111585 0.109073 0.107737 0.107263 0.0949271 0.114067 0.0882284 0.0870564 0.100059 0.0861289
threshold=0.37846508908947307 0.52400433325556872 0.085965624323829884 0.91742065224796543 -1.209091217802003 0.69388779915204435 -1.7907397694631777 -0.034999999999999996 0 -0.51837753474716353 0.055000000000000007 1.0000000180025095e-35 0.30717852396654249 0.025000000000000005 1.448118431454285 -2.1750876770808536 0.18500000000000003 1.2347195946857725 -0.56499999999999984 0.39806068463944627 -0.11499999999999998 1 2.0817466908552409 0.27306904136425386 -0.054999999999999993 0.49500000000000005 0.15500000000000003 1.4538783070051846 2 1.1858369202152421 0.018842690549574607 83.250000000000014 -0.065631391701121242 3 0.71969447399343689 0.23716543514614868 4 1.0000000180025095e-35 0.25579095152863968 -0.094999999999999987 0.083121192240402056 0.12691224335790807 86.350000000000009 0.38500000000000006 -0.084999999999999978 1.2069824083838732 1.0000980467185046 -0.30499999999999994 0.27329083755540967 0.29500000000000004 0.16044769080204277 0.34075966819566877 -0.17426182192381987 0.17985979284460576 0.59500000000000008 -1.4152974527757063 -0.15499999999999997 1.4762590479067099 87.750000000000014 -0.26499999999999996 83.350000000000009 0.78500000000000014 0.74500000000000011 0.46500000000000002 85.65000000000002 0.68500000000000016 -0.19499999999999998 0.47759556124875729 0.14967025970041795 -0.92499999999999993 -1.534845624167674 0.018842690549574607 88.050000000000011 1.0000000180025095e-35 1.5514706360095898 -0.36499999999999994 -0.24499999999999997 0.63201137778972638 0.03500000000000001 0.11595424670770073 0.66818708901314028 -0.17499999999999996 -0.55883961585798525 0.115 0.015000000000000001 0.4691559029948224 0.27306904136425386 1.0000000180025095e-35 -0.15433213498484993 0.47020863969952131 1.0000000180025095e-35 85.250000000000014 0.065000000000000016 1.7215612310178272 0.18932391295255926 0.28500000000000009 -0.39244831246084216 1.0000000180025095e-35 1.8854936135677893 86.15000000000002 0.92831549261583179 87.550000000000011 0.21500000000000002 81.750000000000014 -0.074999999999999997 81.350000000000009 0.61110423084545795 -0.34499999999999992 -0.19425406362514633 88.550000000000011 -0.27499999999999997 1.0000000180025095e-35 1.5248042320007598 0.36500000000000005 82.350000000000009 1.1904737033745025 2.1500504671483029 1.0000000180025095e-35 1.0000000180025095e-35 80.250000000000014 1.3601086147803072 -1.321922477242514 89.15000000000002 -0.99499999999999988 -0.24499999999999997 5
decision_type=2 2 2 2 2 2 2 10 1 2 10 2 2 10 2 2 2 2 10 2 10 1 2 2 10 2 2 2 1 2 2 2 2 1 2 2 1 2 2 10 2 2 2 10 2 2 2 2 2 2 2 2 2 2 10 2 10 2 2 2 2 10 2 10 2 2 10 2 2 10 2 2 2 2 2 10 10 2 10 2 2 2 2 10 2 2 2 2 2 2 2 2 2 2 2 2 2 2 2 2 2 2 10 2 2 2 2 10 2 2 10 2 2 2 2 2 2 2 2 2 2 2 2 10 10 1
left_child=1 18 5 4 7 37 8 69 15 10 109 30 13 71 26 -5 17 31 86 41 23 -16 57 90 -19 51 27 55 -29 -15 32 80 33 -7 65 79 45 82 39 96 94 42 75 72 -45 -14 -38 -43 49 -49 103 52 54 -54 -21 -8 -34 -23 -50 98 -26 -62 77 -61 -41 89 -27 125 -25 -2 -71 -13 -44 74 -28 -20 -77 -40 -53 -12 114 -57 83 -3 -52 -80 87 88 -1 122 91 -11 -90 115 104 -96 -39 -10 -33 -69 -32 -102 -9 -42 -22 106 -84 -107 -92 123 -111 112 -36 -81 -6 -67 -75 -91 -70 -104 -72 -122 -18 -4 -125 -68
right_child=3 2 9 6 16 11 14 102 97 20 35 12 36 29 21 -17 34 24 19 25 40 22 -24 68 60 66 73 28 -30 -31 100 59 56 -35 111 -37 46 38 62 64 50 47 43 44 -46 -47 -48 48 58 -51 84 78 53 -55 -56 81 -58 -59 -60 63 61 -63 -64 -65 -66 93 67 99 118 70 120 -73 -74 116 -76 76 -78 -79 85 113 -82 -83 105 -85 -86 -87 -88 -89 92 117 108 -93 -94 -95 95 -97 -98 -99 -100 -101 101 -103 119 -105 -106 107 -108 -109 -110 110 -112 -113 -114 -115 -116 -117 -118 -119 -120 -121 121 -123 -124 124 -126 -127
leaf_value=0.00067756672113094066 -0.00041598488300223832 -3.0943856290668016e-05 -0.00098356087875301748 0.0075395866998719634 0.00054861500785851746 -0.00087339378675030084 0.0019518797879758299 0.0020448182831514059 0.0028732300011131869 0.00071742711163864025 0.00018588345853808838 -0.0019428309653840401 -0.0019241980309808518 -0.00089831306847150752 0.0019184903888487368 0.0039029514466129966 0.00033655448534532288 0.0025953824373848165 -0.00032062356872355688 0.00017278461215439046 -0.0010569714279275843 0.001938880106281825 0.0077146257027728557 9.7807759966261085e-05 0.001280834170428318 0.00049070040127525223 0.0018016050085113901 0.0013120231554220683 0.0040712819530798246 0.00130986463217184 -0.0011391998365223655 -0.00045309191382423913 -0.0013281015765266497 -0.00165340751569977 0.0012841843519026913 0.0020293875500071155 -0.0013722835506240908 -0.0020779618712555739 -0.00084473065915546082 5.0501367316560241e-05 -0.0016269940891882641 0.0023007635686111464 2.2112596034380554e-05 0.0012031006150966701 -0.0010534711363282794 -0.0011232395373061818 0.00069587969264687339 0.0020073840209741262 0.0002423437493291045 0.00048742502872451283 -0.00059490964921984132 -0.0011594100555462996 0.0011685731375411024 0.00013261645614528271 -0.0011120179657240267 0.00038969075666583182 -0.00067975598712841632 0.0034239762357981883 0.0012519272012049302 -0.00023326452699904462 0.00062446181693373841 -0.00030548354549660866 -0.0025879770887911346 0.00036867471400944829 -0.00061997514277904308 0.001409987561061432 -0.0018202735960515981 0.00046707185423342862 0.0018031805718688862 0.0016804539021731066 0.0014978358545917096 -0.0010372850119518685 0.00080023540640865418 0.001215845068739859 0.0035985932335916696 0.0023584859600236999 0.00060932803051090036 -0.0014688677754895962 -0.00052905510526399539 0.0014324199097935481 0.0011045899771549828 0.00097880413958816807 0.0011188461063665316 -0.0017831248865610848 -0.00022961090067365634 0.00036772068026201597 -0.0018850513603487083 -0.0011710061124239988 0 0.00094226052593655212 -0.0016905407676425556 -0.00058860727078411312 -0.0015344321109455115 0.0020627048517621606 9.3912714211207595e-05 0.001106797195531918 -0.0010094697453767599 0.0018744191787869414 -0.001393767387979455 -0.00088394938928170396 -9.308884247394354e-05 -0.00091591403442802585 0.0019152661962813266 -0.00071112146804965524 0 -0.00089024629992882345 -0.00057362523274720879 -0.00022938835988463538 -0.00024790347664628153 -0.0016872590124198919 -0.00020983747827292034 0.0010354618202322282 0.0026581099208593984 0.00053721569989977264 -0.00023697030571988642 0.00038119387794673744 0.0017340761582319666 0.00053540131661121556 0.00089870929677460633 0.002955030548501731 0.00083259288606298682 0.00010341455187145147 -0.00038177514135999077 5.1062082671703169e-05 -0.00045358932308516177 -0.00086292771531522967
leaf_weight=452 377 441 324 330 1299 4150 580 941 648 587 610 4339 17448 10723 6637 747 2980 539 543 2814 416 1511 302 456 1292 318 2135 3021 546 328 623 1859 2332 5961 1168 1976 662 706 3437 2899 454 418 1914 344 1391 1645 304 1191 2946 828 5099 497 2703 1616 758 2274 7924 435 918 6105 4655 932 315 2527 2783 535 743 347 862 746 312 866 1835 1483 523 383 6955 2304 1074 1601 1057 3411 398 548 11095 1230 306 735 400 2473 326 635 338 437 1531 630 801 1052 547 439 2508 911 328 5555 1106 1232 306 5983 333 325 355 3409 332 507 739 595 4372 5333 586 1938 1431 885 492 2697 1531 384
leaf_count=452 377 441 324 330 1299 4150 580 941 648 587 610 4339 17448 10723 6637 747 2980 539 543 2814 416 1511 302 456 1292 318 2135 3021 546 328 623 1859 2332 5961 1168 1976 662 706 3437 2899 454 418 1914 344 1391 1645 304 1191 2946 828 5099 497 2703 1616 758 2274 7924 435 918 6105 4655 932 315 2527 2783 535 743 347 862 746 312 866 1835 1483 523 383 6955 2304 1074 1601 1057 3411 398 548 11095 1230 306 735 400 2473 326 635 338 437 1531 630 801 1052 547 439 2508 911 328 5555 1106 1232 306 5983 333 325 355 3409 332 507 739 595 4372 5333 586 1938 1431 885 492 2697 1531 384
internal_value=1.90649e-08 -0.000545471 -0.000782204 0.00112506 0.000654946 -0.001118 0.00184964 0.00160396 0.00333639 -7.92442e-05 0.000522996 -0.00129195 -0.00150541 -0.00114036 0.00169771 0.00502784 0.000486783 0.000245349 0.000287054 0.000357697 -0.000280894 0.0021958 0.0030111 0.000406834 0.00076629 4.34695e-05 0.00145609 0.00117687 0.00173681 -0.000832208 -0.000974123 -2.77587e-05 -0.00107932 -0.00133387 0.00077954 0.00142882 -0.00180094 -0.000640906 -0.000829382 -0.000537312 -0.000381657 0.000563917 0.000406998 8.4816e-05 -0.000602743 -0.00185551 -0.000716216 0.000895843 0.000794797 0.00138707 -0.000463343 0.000217261 0.000382872 0.000782237 -9.86938e-05 0.000857049 -0.000827779 0.00227501 0.000483754 -0.000190582 0.000621889 0.000468411 -0.00117512 -5.64466e-05 -0.000277064 0.000615635 -0.000786906 -0.00100204 0.00112251 0.000762467 0.00089571 -0.00179336 0.000404421 0.00177782 0.00215829 0.000630516 0.000701614 -0.00109629 -0.000247486 0.000989782 0.000551194 0.000744148 -0.000360044 -0.00100769 -0.000344971 -4.81866e-05 -0.000742305 -0.000557172 -0.000173177 0.000532586 -0.000315151 3.47448e-05 -0.000701206 0.00120944 0.000109423 0.000391889 -0.0015144 0.00225955 -0.00066952 -0.000281317 -0.000442675 -0.000313998 0.00258608 -0.00078141 -0.000288344 -0.000278411 0.000376336 -0.000343034 -0.000970616 -0.000288848 -0.000924741 0.00120719 0.00159318 0.00121984 0.000261325 0.000873514 0.0016039 0.000665042 0.00144147 0.00280764 0.000670491 0.000556279 0.000233243 -0.000192574 -0.000130559 -0.00149957
internal_weight=233564 157294 122474 76270 46263 82877 30007 6958 2777 39597 9926 60724 36315 16256 27230 1077 39305 21551 34820 32589 29671 8885 2248 3785 7418 12923 18345 9832 3567 11051 24409 14133 20367 10111 17754 4694 20059 22153 13245 7189 25886 19666 13365 5484 1735 19093 966 6301 5883 2019 22203 10692 7891 4319 3572 6265 10256 1946 3864 11038 6879 5587 6056 8632 5682 12845 2231 1913 1904 3751 3374 5205 3749 8513 2658 7881 7338 5741 2801 2718 3095 5685 8908 989 16194 2304 2231 1925 1190 11278 1881 1222 738 1567 3683 2161 1507 1700 2406 786 4042 3419 3207 6009 1522 7919 704 7215 659 5232 680 4909 1500 2108 2038 1130 5855 7806 1448 2266 2628 2316 3472 4552 4228 1127
internal_count=233564 157294 122474 76270 46263 82877 30007 6958 2777 39597 9926 60724 36315 16256 27230 1077 39305 21551 34820 32589 29671 8885 2248 3785 7418 12923 18345 9832 3567 11051 24409 14133 20367 10111 17754 4694 20059 22153 13245 7189 25886 19666 13365 5484 1735 19093 966 6301 5883 2019 22203 10692 7891 4319 3572 6265 10256 1946 3864 11038 6879 5587 6056 8632 5682 12845 2231 1913 1904 3751 3374 5205 3749 8513 2658 7881 7338 5741 2801 2718 3095 5685 8908 989 16194 2304 2231 1925 1190 11278 1881 1222 738 1567 3683 2161 1507 1700 2406 786 4042 3419 3207 6009 1522 7919 704 7215 659 5232 680 4909 1500 2108 2038 1130 5855 7806 1448 2266 2628 2316 3472 4552 4228 1127
cat_boundaries=0 1 2 3 4 5 6
cat_threshold=2 2 2 2 2 2
is_linear=0
shrinkage=0.05


Tree=2
num_leaves=127
num_cat=8
split_feature=4 3 4 4 1 1 3 0 1 9 1 10 0 4 9 0 1 0 3 7 1 3 1 0 3 1 7 1 9 0 0 0 7 0 9 0 3 0 0 0 9 0 3 1 9 0 3 3 3 3 8 8 7 7 9 1 7 10 8 7 1 8 8 1 10 0 4 0 7 0 7 3 1 10 3 7 7 7 1 7 1 7 3 7 3 3 7 3 8 3 1 9 0 7 1 3 3 8 10 7 8 7 1 8 0 0 8 7 0 8 7 3 4 0 7 1 4 4 4 3 7 4 0 4 3 7
split_gain=51.758 11.1944 10.4358 9.39549 9.14454 5.68012 2.47854 2.20366 1.99486 1.82976 1.74992 1.48173 1.408 1.26474 1.0857 1.02885 1.0096 1.00489 0.952228 0.917594 0.811169 1.24664 0.781382 0.752109 0.710741 0.710477 0.684295 0.713897 0.682565 1.74463 0.665835 0.595442 0.543174 0.536156 1.43739 0.518765 0.621285 0.617693 0.499592 0.499128 0.462001 0.461993 0.453645 0.430905 0.433894 0.422956 0.415394 0.373318 0.338321 0.327745 0.391421 0.304845 0.285127 0.285003 0.278833 0.275206 0.330637 0.271929 0.266061 0.257858 0.261961 0.251818 0.250555 0.249043 0.232685 0.453409 0.227768 0.243376 0.224716 0.412975 0.267121 0.223615 0.218805 0.20106 0.224138 0.212861 0.198601 0.195164 0.258215 0.193518 0.191484 0.242196 0.187023 0.185533 0.180784 0.180227 0.170817 0.165506 0.163951 0.200327 0.189483 0.160329 0.155957 0.149581 0.145172 0.143003 0.141883 0.252599 0.136742 0.128615 0.125767 0.125335 0.123864 0.121926 0.112068 0.105339 0.104025 0.13113 0.0982272 0.0972053 0.111351 0.0967191 0.0955534 0.0926114 0.0913783 0.0878232 0.0857645 0.0820655 0.0744069 0.0717741 0.0699454 0.0739779 0.0688382 0.0666268 0.0654974 0.0630344
threshold=0.37846508908947307 0.52400433325556872 0.085965624323829884 0.99440369185067579 2.5883127837240338 2.8679712494691469 0.69388779915204435 -1.7907397694631777 2.4715825367611983 0 2.7483181195514308 1.0000000180025095e-35 0.30717852396654249 0.72634283726068294 1 -1.0059694535827537 1.3103369975063874 -2.1750876770808536 2.7951509118372742 0.47500000000000003 2.3758159712557143 1.1653121628675691 2.2990200401589438 0.10030335371263376 1.2140496315575657 3.3942039109129687 0.23500000000000001 1.118880550240434 2 1.8780384902616192 -0.81395258654421876 -0.36862446592317993 0.17500000000000002 1.4762590479067099 3 -0.33410456185302156 0.50838304608650342 0.39220581608649113 -0.24658456435588391 -1.2821480151232569 4 1.2048094262172486 0.95337449236430494 2.5176599248528677 5 -0.20447088207305136 0.4691559029948224 1.7692464878288556 0.43480743981104625 2.1500504671483029 83.750000000000014 90.850000000000009 0.27500000000000008 0.28500000000000009 6 1.8779780831312445 0.30500000000000005 1.0000000180025095e-35 82.350000000000009 -0.53499999999999992 2.0148491851347292 90.550000000000011 83.450000000000017 2.1399298650849627 1.0000000180025095e-35 1.5248042320007598 0.24083994395696681 0.10932266043927856 0.36500000000000005 -0.05641778468338534 -0.13499999999999998 2.3633662734508385 2.9758757486233764 1.0000000180025095e-35 0.62499550077971144 0.29500000000000004 0.74500000000000011 0.46500000000000002 2.1487857644648822 0.42500000000000004 2.9562376192500688 0.045000000000000005 1.6646056736039212 0.17500000000000002 1.8320864639785115 1.3206107166145638 -0.024999999999999998 0.55384046808890885 85.750000000000014 0.4691559029948224 2.4063371141376915 7 -0.85230058100571693 0.67500000000000016 1.7288078112130478 1.400704002197884 0.59704877138199997 82.750000000000014 1.0000000180025095e-35 0.36500000000000005 84.850000000000009 0.19500000000000003 2.1577848528426657 86.750000000000014 0.064362216782562168 -0.39244831246084216 87.550000000000011 0.075000000000000025 -1.0832040532287004 83.350000000000009 0.065000000000000016 2.1500504671483029 0.24083994395696681 -1.4152974527757063 0.59500000000000008 3.4772330466762207 0.24464314307286547 0.26401791717301137 0.17528289608908834 0.48540674719165655 0.45500000000000007 0.82720314756081226 -1.9332496499904528 0.82720314756081226 1.6123595110358635 -0.16499999999999998
decision_type=2 2 2 2 2 2 2 2 2 1 2 2 2 2 1 2 2 2 2 2 2 2 2 2 2 2 2 2 1 2 2 2 2 2 1 2 2 2 2 2 1 2 2 2 1 2 2 2 2 2 2 2 2 2 1 2 2 2 2 2 2 2 2 2 2 2 2 2 2 2 2 2 2 2 2 2 2 2 2 2 2 2 2 2 2 2 2 2 2 2 2 1 2 2 2 2 2 2 2 2 2 2 2 2 2 2 2 2 2 2 2 2 2 2 2 2 2 2 2 2 2 2 2 2 2 2
left_child=1 10 6 4 13 15 8 9 23 17 35 20 14 16 30 55 19 -5 22 47 31 42 32 38 118 54 27 49 125 -30 -13 40 33 71 -35 36 43 51 62 94 -8 84 -22 44 46 -40 -1 58 68 50 -15 59 98 80 -14 116 -57 -43 -2 -37 -61 -33 -3 82 65 -34 67 103 70 -70 -12 -9 -11 75 -75 -25 124 78 -68 88 81 -50 -41 -45 93 -54 -65 109 89 -39 -90 115 -16 -6 -18 -69 100 -98 -26 -59 -89 -49 123 -17 -79 -46 107 -72 -28 -10 -111 -66 -58 -86 119 -24 -4 -87 -7 -55 121 -110 -19 -29 -21 -20
right_child=3 2 5 7 41 24 11 18 87 72 48 12 25 26 92 66 39 122 28 76 21 -23 91 73 52 -27 108 102 29 -31 -32 61 64 34 -36 37 -38 79 45 63 -42 57 -44 83 105 -47 -48 101 53 -51 -52 -53 85 114 -56 56 112 99 -60 60 -62 -63 -64 86 111 -67 77 95 69 -71 106 -73 -74 74 -76 -77 -78 104 -80 -81 -82 -83 -84 -85 113 117 -88 96 90 -91 -92 -93 -94 -95 -96 -97 97 -99 -100 -101 -102 -103 -104 -105 -106 -107 -108 -109 120 110 -112 -113 -114 -115 -116 -117 -118 -119 -120 -121 -122 -123 -124 -125 -126 -127
leaf_value=0.0014238802493963209 0.00036567439765389567 0.00043197006444206328 -0.00062791593975838227 0.0071637459861804325 0.0026093149472620871 0.00031687526126485859 -0.00070594627100963492 0.00049873686165189518 4.8562250820778955e-05 0.0018762918140881062 0.00055504482888119532 0.00049317748094393 -0.0018005664847884958 0.00079164395595915328 -0.00080158528179760126 -0.00010426536581686335 0.00072214465014749799 0.0042959901783695973 0.0015614085684654546 0.00017703989830079783 -0.0017886016309135229 0.001430989002887981 0.001811610239787619 0.00011130401415803716 0.0026834016050399411 9.3265402458159283e-05 0.0017137738892633932 0.00074566428983771562 0.0021947510948686542 0.006175437371885837 -0.00094545927660000034 -0.00048739904919136237 0.0018193547982845205 0.0012286317379263461 0.0042977532572014872 -0.00071870767337250301 0.0018235463741596424 -0.0012052883503316687 0.0022596074975469809 9.9798014504048674e-05 -0.001589256334120037 0.002597270411186829 -0.00081758042038736721 -0.00051417663450450089 -0.00028398504800267746 0.00040174915297141187 -0.00078267375636402773 0 -0.0016453415918375918 0.00089557501647395557 -0.00020764041538677086 -0.00069455815709806824 0.0006762010976942884 -0.0018320845879578043 -0.00086670906312041581 0.0012592775505135077 -0.00066692785812685136 0.0017526115035129122 -0.00043771743469862715 0.0017726078063069286 0.00060030781243773982 -0.0017415902168782559 -0.0004670490722424672 0.0018042991768510413 0.00088131716484411672 0.0037541105687766358 -0.00042676362592364032 -0.00073330659223056372 0.001749244430466107 -0.00037200953397312876 -0.0011981680387080224 0.0011279737311418838 0.0033945048068082448 -0.00048610826489236105 -0.001188585677005664 -0.00089983636223397556 0.0018282614757194164 0.00097146730522966191 0.0003365155864101835 -0.0010471663980982503 0.00038295982559419754 -8.9929748263987595e-05 0.00067391654195999478 -0.0018462533545124489 0.0040086562809353672 0.0011367270016084357 0.00067185069766715613 -0.0011864953952065429 -0.0004077914136004118 0.00020916394935067601 0.0010344396097511843 0.0036661787536483902 -0.0018796386807808628 0.0014831651143760842 0.0016139933884863013 -0.00025258815326224522 -0.0019889841093287419 -0.0010056106823340581 0.0018327264361707068 0.00072834764500404124 -0.0020054466887031728 0.00049647906947954503 0.001992007569255595 -0.00060233103900513452 1.5812084759272694e-05 -0.0014630108966362473 -0.0015559638078982757 -0.00017092136206674685 0.00064565349266606153 -0.0016742256168368462 -0.00059879511326111734 0.0016205244514248781 0.00044609418901578497 0.0029203144643039337 -0.0023843532109624251 0.0028153570353544283 0.00019397838371341253 0.0020995381383142032 0.0010327266300684821 -0.0007322136619743164 0.0013559598926462281 0.0011817436179401997 0.0031566321290729597 0.0013005399244536903 0.00085100056453750374 0.0020173957412668894
leaf_weight=698 1162 1042 466 330 3192 1166 2986 2605 303 1328 473 861 18673 1314 389 3951 739 360 1134 517 4886 369 482 1548 833 526 879 1078 1194 361 11228 11123 1624 2776 444 358 346 468 350 4566 2999 653 1628 521 440 2532 303 3880 529 1462 3838 456 722 326 860 1461 324 771 8667 491 22295 418 2973 430 537 382 9339 10110 367 602 517 3193 305 2611 2063 778 470 382 1249 576 396 488 2075 554 334 401 1626 830 369 526 577 323 3778 354 1323 1868 802 3923 1304 548 1242 1899 426 1805 1599 351 352 812 1190 363 793 4048 473 753 315 502 980 614 550 314 1988 1583 329 1246 1373 3677
leaf_count=698 1162 1042 466 330 3192 1166 2986 2605 303 1328 473 861 18673 1314 389 3951 739 360 1134 517 4886 369 482 1548 833 526 879 1078 1194 361 11228 11123 1624 2776 444 358 346 468 350 4566 2999 653 1628 521 440 2532 303 3880 529 1462 3838 456 722 326 860 1461 324 771 8667 491 22295 418 2973 430 537 382 9339 10110 367 602 517 3193 305 2611 2063 778 470 382 1249 576 396 488 2075 554 334 401 1626 830 369 526 577 323 3778 354 1323 1868 802 3923 1304 548 1242 1899 426 1805 1599 351 352 812 1190 363 793 4048 473 753 315 502 980 614 550 314 1988 1583 329 1246 1373 3677
internal_value=4.67881e-08 -0.000518226 -0.000743144 0.00106896 0.000670442 -7.52814e-05 -0.00106217 0.00184219 -0.000608975 0.00320997 0.000272744 -0.00122741 -0.00143017 0.000408366 -0.00108336 -0.000318206 0.000213786 0.00487622 0.00168604 -1.53181e-05 -0.000925492 -0.0013863 0.00148878 -0.000242785 0.00140146 -0.00171091 0.000780541 0.000517463 0.00220911 0.00312547 -0.000842551 -0.000744165 0.00138961 0.00113559 0.00165458 0.000426211 -0.000172109 0.000500016 0.000127181 0.000596831 -0.00114959 0.00240454 -0.00154685 -0.000415247 5.69672e-05 0.000629814 0.000750858 -0.000154548 -0.000545983 0.000234937 4.63575e-05 0.000579474 0.00177722 -0.000997115 -0.00175975 0.000467697 0.000812643 0.00175443 -0.000342203 0.00060482 0.000625865 -0.000533404 -0.000232435 0.000430051 0.00173618 0.00219197 -0.000414446 -0.000530105 -0.000202104 0.000427217 -0.000487598 0.000846259 0.00216482 -0.000607987 -0.000797424 -0.000224995 0.000903046 -0.000250832 -0.000336229 -0.000243243 -0.000540291 -0.000904722 0.00028001 -0.00120639 0.00267973 0.00129291 0.000911888 -0.00122466 -1.5598e-06 -0.000452312 0.000466762 0.00266741 -0.00178042 0.00249875 0.00129729 -0.000658782 -0.00132935 -0.00117397 0.00216776 0.00133173 -0.00168053 0.000163756 0.00119481 -0.000261398 0.000203013 -0.000814668 -0.000784105 -0.000574895 0.00121627 -0.000732944 -0.000941972 0.00153525 -3.79584e-07 0.0032627 -0.00166652 0.0023311 -6.76876e-05 0.00172557 0.000549695 -0.00130224 0.00112303 0.000953805 0.00376455 0.00104574 0.000669477 0.0019113
internal_weight=233564 157294 122474 76270 50336 39597 82877 25934 22153 2652 34820 60724 36315 43731 16256 34007 28727 1019 23282 17968 24409 6883 16916 13897 5590 20059 15004 9364 6366 1555 12089 17526 15609 9018 3220 29329 3213 26116 6897 10759 5985 6605 6514 2867 1792 2882 1001 15608 5491 6614 5152 23600 3874 2368 19533 3704 2258 1972 9829 23144 22786 11541 4015 8697 6591 2006 30303 17734 3123 969 2154 5798 1633 7000 4674 2326 2360 12569 10588 2516 1413 1017 6641 1075 4633 1737 2056 8256 1940 994 946 1307 4167 3546 2062 11978 6797 4725 2137 1319 2072 5779 2750 5756 1981 791 1681 1329 5640 1459 1156 4585 797 1087 955 984 1446 1015 1716 640 4761 2773 689 2324 1890 4811
internal_count=233564 157294 122474 76270 50336 39597 82877 25934 22153 2652 34820 60724 36315 43731 16256 34007 28727 1019 23282 17968 24409 6883 16916 13897 5590 20059 15004 9364 6366 1555 12089 17526 15609 9018 3220 29329 3213 26116 6897 10759 5985 6605 6514 2867 1792 2882 1001 15608 5491 6614 5152 23600 3874 2368 19533 3704 2258 1972 9829 23144 22786 11541 4015 8697 6591 2006 30303 17734 3123 969 2154 5798 1633 7000 4674 2326 2360 12569 10588 2516 1413 1017 6641 1075 4633 1737 2056 8256 1940 994 946 1307 4167 3546 2062 11978 6797 4725 2137 1319 2072 5779 2750 5756 1981 791 1681 1329 5640 1459 1156 4585 797 1087 955 984 1446 1015 1716 640 4761 2773 689 2324 1890 4811
cat_boundaries=0 1 2 3 4 5 6 7 8
cat_threshold=2 2 2 2 2 2 2 2
is_linear=0
shrinkage=0.05


Tree=3
num_leaves=127
num_cat=0
split_feature=4 2 3 4 2 1 1 4 2 1 3 1 2 1 2 10 0 6 3 4 6 1 3 2 1 3 1 4 2 10 1 3 2 1 4 1 6 3 1 0 1 2 4 2 6 6 2 2 1 3 2 1 1 2 0 6 0 1 4 4 0 0 6 3 2 10 0 0 4 0 1 3 3 0 6 6 1 6 6 2 6 0 6 0 1 6 3 6 1 3 6 6 0 0 3 6 1 3 2 2 10 0 6 4 4 6 3 1 1 2 2 6 6 6 3 1 0 6 6 2 2 4 3 4 0 6
split_gain=46.7283 11.5039 9.30927 11.2703 7.01748 6.22943 6.11075 5.33285 3.55301 1.5802 1.39346 1.83098 1.35865 1.30284 0.997704 1.37077 0.932491 1.21039 0.811565 0.791976 0.756654 0.74837 0.736977 0.622724 0.640572 0.735288 0.494759 0.455711 0.440813 0.439855 0.412327 0.397501 0.36052 0.350453 0.313059 0.409779 0.305833 0.305518 0.302664 0.418358 0.534899 0.300941 0.298956 0.270683 0.269565 0.794014 0.294098 0.267259 0.26631 0.261272 0.257785 0.476032 0.271252 0.255088 0.335646 0.252409 0.429029 0.248524 0.233953 0.228852 0.215055 0.213563 0.21259 0.20427 0.202994 0.187611 0.244341 0.185651 0.184953 0.184278 0.182002 0.181717 0.178913 0.177285 0.613087 0.34866 0.174603 0.207785 0.170979 0.161335 0.15718 0.156648 0.155576 0.149356 0.14808 0.13946 0.124726 0.123765 0.122841 0.122837 0.110258 0.165715 0.123129 0.109947 0.109184 0.0984091 0.0970753 0.129758 0.0960139 0.0940274 0.093724 0.0935637 0.0917595 0.0882772 0.0868042 0.082861 0.0802534 0.0790033 0.0786479 0.109847 0.0655387 0.0645042 0.0638689 0.0619323 0.055493 0.0542219 0.0459613 0.0447509 0.0359752 0.034869 0.0297762 0.028436 0.0284351 0.0257123 0.0239615 0.0230424
threshold=0.4280674869699963 -1.5234992450425164 0.52400433325556872 0.092785622805363607 0.26535510833388076 2.6135199074161828 2.8221372737746342 0.91742065224796543 -2.0355558689132205 2.7483181195514308 0.70064578131376032 2.4829182783906432 0.32493368410321394 3.3942039109129687 0.89721970681854202 1.0000000180025095e-35 -1.0059694535827537 0.085000000000000006 1.2662224913856599 1.448118431454285 -0.68499999999999994 3.1257810081822073 0.63201137778972638 -0.82512783129332112 2.4173918521297733 1.0138391615657849 2.8532871949547189 0.022240299759581032 -1.2601519679976401 1.0000000180025095e-35 0.86731542139912576 1.1653121628675691 1.276486366885033 3.1257810081822073 1.5236104946760702 0.44706197575595374 0.80500000000000016 0.43480743981104625 2.4829182783906432 -0.065631391701121242 2.5883127837240338 0.073875898231651818 0.26401791717301137 1.3268045569475593 0.35500000000000004 0.075000000000000025 0.045533895920844454 0.37579623624665681 1.0000000180025095e-35 0.539210654373668 -0.027597219931782397 2.3758159712557143 2.3364268975708966 -0.40424849291997927 0.10030335371263376 0.36500000000000005 -0.10484983550739445 2.130348007483116 0.74001432393568956 0.24083994395696681 -0.065631391701121242 -0.16437344788574076 -0.46499999999999991 2.2845762426127827 -0.38025381232996619 1.0000000180025095e-35 0.40968359275678634 0.59270525117229189 0.49389352644067025 -0.51837753474716353 3.0337330053581284 0.38840942030216985 0.7993228533981287 1.0000000180025095e-35 0.045000000000000005 -0.044999999999999991 2.1487857644648822 0.60500000000000009 -0.094999999999999987 0.045533895920844454 0.36500000000000005 1.0689742282875672 0.18500000000000003 1.6692230736985256 2.9562376192500688 0.10500000000000002 1.400704002197884 -0.48499999999999993 2.175849449951361 0.27329083755540967 -0.16499999999999998 0.32500000000000007 0.054939536568127202 -0.047045219300074291 1.7336256751671131 0.21500000000000002 2.2887943946044729 1.8581020173686678 1.0804615906892947 0.60991856829735502 1.0000000180025095e-35 0.9940629232749143 -0.31499999999999995 0.19652267037265228 0.28313673471264822 1.2750000000000001 2.7951509118372742 1.2998351814350497 1.7469903363398263 1.1052861626209802 -0.14272199728220816 -0.58499999999999985 0.45500000000000007 0.69500000000000006 1.7215612310178272 1.5767430170455907 1.5248042320007598 0.27500000000000008 0.68500000000000016 -0.90768870228906373 1.3445613016466511 1.1441949151545561 2.5564406259086039 1.5806986613021314 0.33248773855928615 -0.094999999999999987
decision_type=2 2 2 2 2 2 2 2 2 2 2 2 2 2 2 2 2 10 2 2 10 2 2 2 2 2 2 2 2 2 2 2 2 2 2 2 10 2 2 2 2 2 2 2 10 10 2 2 2 2 2 2 2 2 2 10 2 2 2 2 2 2 10 2 2 2 2 2 2 2 2 2 2 2 10 10 2 10 10 2 10 2 10 2 2 10 2 10 2 2 10 10 2 2 2 10 2 2 2 2 2 2 10 2 2 8 2 2 2 2 2 10 10 10 2 2 2 10 10 2 2 2 2 2 2 10
left_child=2 8 9 4 10 7 16 14 34 12 11 53 20 22 28 114 17 108 69 43 61 30 26 70 41 -26 67 72 87 94 48 124 -31 49 -2 -36 62 44 50 40 -40 -25 73 63 45 60 -47 -29 -10 -13 52 -52 -22 57 -55 58 -57 -4 -30 -19 -11 -1 -14 101 -41 85 -67 -6 88 95 100 93 -24 74 -18 -75 99 -78 -71 86 -28 104 -70 -50 90 -64 -20 -3 -17 -63 -39 -92 -93 -46 110 -8 97 -32 -65 -44 -12 -9 -99 -80 -81 111 113 -89 115 -110 -7 -45 -34 -21 120 -5 -114 -86 -61 -88 -16 -96 -123 -108 -15 -112
right_child=1 5 3 6 13 29 18 19 21 37 23 33 36 31 15 68 42 59 79 106 38 -23 27 24 25 -27 80 47 55 32 96 -33 112 -35 35 -37 -38 84 39 64 -42 -43 76 105 71 46 -48 -49 83 -51 51 -53 -54 54 -56 56 -58 -59 -60 118 -62 89 65 98 -66 66 -68 -69 82 78 -72 -73 -74 75 -76 -77 77 -79 103 81 -82 -83 -84 -85 117 -87 119 107 -90 -91 91 92 -94 -95 121 -97 -98 102 -100 -101 -102 -103 -104 -105 -106 -107 123 -109 109 -111 125 -113 116 -115 -116 -117 -118 -119 -120 -121 -122 122 -124 -125 -126 -127
leaf_value=0.00026636566448959417 0.0048454308484426108 -0.00010996043185181341 0.0015090405859275041 -0.00028342395327657545 -0.00088494766213898304 0.0017059384878647334 0.00066929571951547366 0.00057698189353138783 0.0021088316177835255 0.00015027249871687651 -0.00037865739764522601 0.00040018374818418629 -0.0013837189633316652 -0.00081765021443304723 0.0019745464393346119 -6.4437679456508099e-05 -0.00073474586829312834 0.00060788273947545192 0.0010725459100475987 0.00155782452039983 0.0011646080114250863 0.0051906690620074662 -0.0015159918047072413 -0.00056728302302761131 -0.0014573869290261969 -0.00023209413903386284 -0.0014903605185017368 0.00021929712934431745 -0.00034621022486280265 0.0023388121694997671 0.0011835644770788469 0.0014944232839716413 0.0016566073152915731 -0.0020074795125847303 0.0055562571558250458 0.0082479356618211045 -0.0014524450229316619 -0.0020364798875137356 -0.00081511063173338334 -0.00057093555996056409 0.00048408034562639075 -0.0010832435223720504 -0.00037187764843158821 0.00060211740935784243 -0.00041143494790518909 0.0021597027822902767 0.00026981400456541717 -0.001269398429354883 0.0032406833216375667 -0.00087711314700093855 0.0003507161509328715 0.0012810426238518511 0.00052563370757337203 0.00041975029368639398 -0.00036491834938002805 0.0013997470942701509 6.1990735962669477e-05 0.00041403211561778569 0.00021225712756681059 0.0016726413061704016 -0.0013935115918137498 -0.0005708782931248172 5.1320260398670166e-05 0.0012940520816647075 0.00076664686046983531 0.00053234326756679241 -0.00043823261605774593 0.00032906740663660107 0.00081518786743998636 0.0013786927618520957 0.001113613156431032 4.8492583731728559e-05 -0.0017780395392689346 0.00016321910594408189 0.00034387265491951034 -0.00066340304478140072 0.00062770339694007875 -0.00058701187871061742 -0.00012656224667079687 0.001999119465006651 -0.003017327812653786 0.0012368338810498543 0.00044396777031645621 0.004666490210882725 -0.0006990323835698491 -0.0010536638465532941 0.0023182893147200875 0.00036962772667014488 0.00092907447944904969 -0.0019025872871657413 -0.00034401139318047079 -0.0020923232316697373 -0.00083382251819483157 -0.0015996662377951798 0.0032162025330223173 0.0017687693308616869 0.0028320788461378955 0.0014330196602591432 0.00070215310549072592 -9.7262308486156031e-05 0.00030319795477173244 0.0012457319655902685 0.0024794670978707163 0.00069737910100782302 0.0027577542184800399 0.00047835583203523007 0.0022214584997865407 0.00099258684650675288 -0.00026376681673908513 0.00067009120457858491 0.0021458436518535773 0.0013762150545270425 0.00043961711247861502 0.00082393773469520589 0.0016302898194621416 -0.0010172932058531545 0.001305538535920595 0.00013205094733825936 0.0023652083239275455 0.0015875833039022472 0.0026981370292546276 0.0022600594767106527 0.0030952024724163322 0.0017689505761596818 -0.00017656401941712829 0.0027833206426776664
leaf_weight=345 311 447 743 757 4654 301 368 3916 381 362 1610 443 357 313 308 2069 2837 538 884 2038 5021 300 10916 15658 6007 1551 387 313 6826 2244 454 408 599 634 318 310 571 322 1397 300 1825 3487 6684 306 326 467 380 5404 626 3676 6620 1745 2538 3785 2123 692 4510 1780 2573 826 574 367 452 3182 4041 1547 1111 331 4140 374 315 474 18025 1414 2451 12175 1265 483 886 858 335 391 9299 312 318 737 400 796 364 355 598 397 421 540 1207 519 413 317 933 5956 725 624 886 506 853 306 452 1588 1100 440 309 7284 308 376 340 400 360 312 325 426 569 300 301 5402 319 789
leaf_count=345 311 447 743 757 4654 301 368 3916 381 362 1610 443 357 313 308 2069 2837 538 884 2038 5021 300 10916 15658 6007 1551 387 313 6826 2244 454 408 599 634 318 310 571 322 1397 300 1825 3487 6684 306 326 467 380 5404 626 3676 6620 1745 2538 3785 2123 692 4510 1780 2573 826 574 367 452 3182 4041 1547 1111 331 4140 374 315 474 18025 1414 2451 12175 1265 483 886 858 335 391 9299 312 318 737 400 796 364 355 598 397 421 540 1207 519 413 317 933 5956 725 624 886 506 853 306 452 1588 1100 440 309 7284 308 376 340 400 360 312 325 426 569 300 301 5402 319 789
internal_value=8.92936e-08 0.00107365 -0.000465789 -0.000662908 -0.00100296 0.000904681 -1.57582e-05 0.000741159 0.00348365 0.000259014 -0.00055171 -0.000124233 0.000404854 -0.00146639 0.000339039 0.000610551 -0.000259726 0.000424963 0.00140411 0.00130023 0.000555005 0.00278089 -0.00151143 -0.000743531 -0.000816081 -0.00120667 -0.000982352 -0.00159838 7.25629e-05 0.00234799 0.00256463 0.000276634 0.00195522 -0.000909174 0.00623333 0.0069039 -0.000366159 -0.000518978 0.000614287 0.000352504 -7.77518e-05 -0.000661571 -0.000350163 0.00109962 -0.000192095 0.000208419 0.00131903 -0.001187 0.00326371 -0.000738462 0.000738276 0.000545517 0.000950826 0.000317743 0.000136925 -3.78416e-05 0.000241143 0.000738953 -0.00019279 0.00147455 -0.00079159 -0.000744608 -0.000217116 0.00090439 0.000672947 -0.000107225 0.000124766 -0.000803285 0.000486066 0.000729107 -1.05596e-05 -0.000728505 -0.00167943 -0.000481178 -0.000233888 -0.000577015 -0.000177902 0.000289056 0.000429157 0.00187226 -0.00220897 0.00217176 0.000558749 0.00372473 -0.000947709 -0.000629711 0.00150014 0.000643556 8.24676e-05 -0.00123431 -0.00118658 -0.000988483 -0.00145252 -0.00115912 0.0027757 0.00131952 0.0021154 0.00193215 0.00116127 -0.000242892 -0.000164767 0.000670253 0.00220929 0.000169641 0.00238164 0.00131283 0.00170105 0.000786924 -0.000230788 6.68112e-08 0.00242088 0.00134575 0.00127059 0.00144597 0.00222824 -0.000542116 0.000915009 -0.000279967 0.00187442 0.00194986 0.00245225 0.00304599 0.00269108 0.00180512 -0.000502753 0.00261059
internal_weight=233564 70686 162878 128058 83942 66058 44116 59340 4628 34820 42537 13184 29329 41405 34521 17089 37651 4386 6465 24819 24554 3689 40365 29353 26703 7558 5707 34658 17432 6718 3389 1040 3511 4753 939 628 4775 5491 23487 7563 3222 19145 33265 16551 3123 1783 847 5717 1319 4119 15924 8365 7559 8431 5908 14601 5202 2523 9399 1689 936 1067 4204 8655 4341 3847 2658 4985 15872 2653 2650 1340 28941 18877 5288 13589 14388 1748 1766 3812 722 2102 13439 938 2368 1189 1710 2831 2433 722 1738 1416 818 866 3207 887 2070 1657 4115 12640 2335 4540 1203 1392 1711 7896 8268 2384 2697 1540 1399 7590 1267 2414 1217 1157 668 630 1151 826 877 1808 601 5854 632 1098
internal_count=233564 70686 162878 128058 83942 66058 44116 59340 4628 34820 42537 13184 29329 41405 34521 17089 37651 4386 6465 24819 24554 3689 40365 29353 26703 7558 5707 34658 17432 6718 3389 1040 3511 4753 939 628 4775 5491 23487 7563 3222 19145 33265 16551 3123 1783 847 5717 1319 4119 15924 8365 7559 8431 5908 14601 5202 2523 9399 1689 936 1067 4204 8655 4341 3847 2658 4985 15872 2653 2650 1340 28941 18877 5288 13589 14388 1748 1766 3812 722 2102 13439 938 2368 1189 1710 2831 2433 722 1738 1416 818 866 3207 887 2070 1657 4115 12640 2335 4540 1203 1392 1711 7896 8268 2384 2697 1540 1399 7590 1267 2414 1217 1157 668 630 1151 826 877 1808 601 5854 632 1098
is_linear=0
shrinkage=0.05


Tree=4
num_leaves=127
num_cat=1
split_feature=4 2 3 4 2 1 4 1 2 1 1 3 2 1 2 10 7 3 3 4 3 1 0 1 7 8 1 8 7 0 3 1 7 7 3 8 0 0 3 1 10 2 7 8 8 10 2 2 7 4 7 4 1 1 2 2 3 0 7 1 3 0 2 3 1 8 10 2 8 2 10 8 7 1 2 7 7 1 0 10 3 0 3 3 7 9 8 7 2 8 0 3 3 7 3 7 7 1 8 1 3 2 8 7 3 3 4 7 7 1 7 7 0 7 8 0 4 2 1 1 8 4 0 2 3 8
split_gain=42.2034 10.8372 9.11889 8.5036 6.42585 6.3139 5.3962 4.65588 3.20737 1.42666 1.29214 1.94582 1.22658 1.08943 1.07328 1.16603 1.15975 0.778441 0.76314 0.705845 0.696623 0.674957 0.661717 0.58346 0.574759 0.481934 0.446807 0.438299 0.553082 0.401727 0.409781 0.371779 0.351724 0.407018 0.359517 0.347818 0.529311 0.365606 0.347162 0.346368 0.32836 0.306581 0.302352 0.363568 0.300007 0.409257 0.667724 0.617948 0.310606 0.294371 0.293476 0.281574 0.36865 0.281123 0.365585 0.275947 0.269699 0.265048 0.263562 0.254871 0.245752 0.302173 0.330556 0.244712 0.242082 0.241576 0.225006 0.220461 0.213714 0.203082 0.235982 0.202107 0.223969 0.191134 0.187922 0.186481 0.180282 0.180108 0.164911 0.16229 0.161147 0.153909 0.147355 0.143436 0.137284 0.137666 0.120224 0.119447 0.118213 0.103 0.100686 0.133771 0.0969669 0.0968617 0.0961248 0.0937834 0.0920184 0.0895419 0.0889465 0.0871804 0.1168 0.0836472 0.0789519 0.0768133 0.0764127 0.075235 0.0725448 0.0673381 0.062639 0.0579874 0.0569363 0.0528624 0.0509161 0.0484426 0.0483404 0.048222 0.0450328 0.0482699 0.041307 0.0364869 0.0360973 0.0334583 0.0323975 0.0317629 0.0302771 0.0297718
threshold=0.37846508908947307 -1.5234992450425164 0.52400433325556872 0.085965624323829884 0.26535510833388076 2.7199039846568369 0.91742065224796543 2.7199039846568369 -2.0355558689132205 2.7483181195514308 2.4715825367611983 0.70064578131376032 0.32493368410321394 3.3942039109129687 1.2930570974809703 1.0000000180025095e-35 0.41500000000000004 1.1721296656852429 1.1721296656852429 1.448118431454285 0.63201137778972638 3.1257810081822073 -1.0832040532287004 1.7905602567851526 0.23500000000000001 82.350000000000009 2.8532871949547189 86.450000000000017 0.60500000000000009 -0.81395258654421876 0.539210654373668 0.86731542139912576 0.33500000000000008 -0.53499999999999992 0.20006054594991271 86.550000000000011 0.43478663580101423 0.53036982906742136 1.1653121628675691 2.0148491851347292 1.0000000180025095e-35 1.3093821545066857 -0.31499999999999995 81.550000000000011 87.250000000000014 1.0000000180025095e-35 0.54776301543394845 -0.14272199728220816 0.16500000000000004 0.022240299759581032 -0.39499999999999996 1.5236104946760702 0.44706197575595374 2.5525688095066408 -0.32212653824898474 0.98397708180832144 1.7817718087157821 -0.14441351535622732 0.43500000000000005 2.0678205060133661 0.36034047572373351 0.3579109499628928 0.39291741955897147 0.43480743981104625 0.44706197575595374 85.15000000000002 1.0000000180025095e-35 0.38431345716199178 85.750000000000014 -1.1171906337122464 1.0000000180025095e-35 83.350000000000009 0.075000000000000025 2.4273776889786673 0.37579623624665681 0.53500000000000014 -0.17499999999999996 2.4829182783906432 1.0000000180025095e-35 1.0000000180025095e-35 0.7993228533981287 -0.9374654581541666 1.7336256751671131 1.4784774428164105 0.20500000000000004 0 83.65000000000002 0.26500000000000007 -0.18418475212423563 85.450000000000017 0.89387226631826777 1.3837928047119019 1.4094067143931859 0.10500000000000002 2.3902460004057828 0.60500000000000009 0.21500000000000002 2.130348007483116 84.750000000000014 2.2887943946044729 1.8581020173686678 0.38431345716199178 86.850000000000009 0.58500000000000008 1.2586626217724055 3.0092662884008385 0.72634283726068294 0.34500000000000003 0.065000000000000016 1.0000000180025095e-35 0.30500000000000005 0.62500000000000011 0.42643479523803995 0.42500000000000004 85.750000000000014 -0.64601326618747312 0.10287839843590586 0.13737127340095776 1.4441857970077363 2.1849408650573579 84.950000000000017 0.54960155502772923 0.0090435189192026519 1.4826190081227579 1.2435629214456305 83.65000000000002
decision_type=2 2 2 2 2 2 2 2 2 2 2 2 2 2 2 2 2 2 2 2 2 2 2 2 2 2 2 2 2 2 2 2 2 2 2 2 2 2 2 2 2 2 2 2 2 2 2 2 2 2 2 2 2 2 2 2 2 2 2 2 2 2 2 2 2 2 2 2 2 2 2 2 2 2 2 2 2 2 2 2 2 2 2 2 2 1 2 2 2 2 2 2 2 2 2 2 2 2 2 2 2 2 2 2 2 2 2 2 2 2 2 2 2 2 2 2 2 2 2 2 2 2 2 2 2 2
left_child=2 8 9 4 10 6 14 22 51 12 11 27 32 20 16 119 23 29 81 24 26 31 69 25 41 -3 74 57 -29 -12 -31 64 33 -1 75 37 -37 -13 114 -35 82 76 -11 -44 45 46 -24 -47 59 80 -41 -2 -53 65 -55 96 95 -4 79 -46 -14 63 73 108 109 -36 84 -51 -64 -5 124 -68 -73 -63 -6 77 -8 -34 -77 104 -22 -9 88 -50 89 -86 113 -28 -7 -45 91 -60 -81 105 107 -18 120 -25 -96 100 -33 -65 121 123 -20 112 -88 -26 -62 -10 -102 -58 -21 -17 -15 -98 -83 -118 -43 -16 -42 -90 -117 -57 -71 -95
right_child=1 5 3 7 13 40 19 18 21 42 17 35 60 38 15 86 56 -19 58 93 49 -23 44 97 94 -27 87 28 -30 30 -32 99 34 39 53 36 -38 -39 -40 50 55 118 43 66 48 47 -48 -49 83 67 -52 52 -54 54 -56 103 111 -59 90 -61 61 62 68 101 -66 -67 71 -69 -70 70 -72 72 -74 -75 -76 78 -78 -79 -80 92 -82 116 -84 -85 85 -87 106 -89 102 -91 -92 -93 -94 125 98 -97 115 -99 -100 -101 110 -103 -104 -105 -106 -107 -108 -109 -110 -111 -112 -113 -114 -115 -116 122 117 -119 -120 -121 -122 -123 -124 -125 -126 -127
leaf_value=-0.0009604454326173781 0.0046039358960777649 0.00055974361284472757 0.0010367239051973967 -0.00018580509401474522 -5.886707961398327e-05 0.0013277806527259954 0.00020751836892912666 0.00096961967787697083 0.0020036661105178417 0.00096872773386227603 0.00027485271935296507 -0.00032066157392491223 0.00095131230254212693 -4.6113082815441981e-05 0.0019448304949696604 0.0009929795638917026 0.00031213481793159544 0.0012860648365550381 0.0015627191319723629 0.00086839514027897073 -0.0014401991532140754 0.0049319978275427605 -0.00020072363967227889 0.00041313507128127046 0.00099121004439175846 -0.00019031325722076195 -0.0026930719193635406 8.9568328028808984e-05 -0.0019057210991039351 0.00040771982681321475 -0.0011244480387032367 0.0011245163398726709 -0.00014086778269660949 0.0022341548437641236 -0.00030780923554088587 -0.0011015729792770487 -0.00017062859085247232 -0.0010645111736693536 0.0014195289747790738 0.0016117124285394378 0.0022369078890076251 0.0010305901574830438 -0.0019152251357379066 -0.00076141302861767578 -0.0011612170158506016 0.00060628036369241034 0.00095790120837712517 -0.00053525080411371293 -0.00048676469511796204 8.4381745973960369e-05 0.00060762476515332066 0.0052793152141685853 0.0078368647782288501 -0.00045171020958048569 0.0015139747179542448 0.0012685228796260701 0.0010966537505728397 0.00029875258846722482 0.00072188764219657331 2.6882187451424437e-05 -0.00097148297910244958 0.0016548978087989369 -0.0010056661353026522 -0.0010722602049080359 0.003905178087577513 0.0004815625909661773 0.00085873571481984504 -0.0012638875796413586 6.7990952855793743e-05 0.0018799564766230105 0.00020568035391615219 -0.0010623600301153324 -4.0553176476043708e-05 0 -0.00089825652873089614 -0.0006011744068470104 0.00078878624943819252 -0.0015618019947461744 0.00089724420220756932 0.0012257615087430832 -0.0016891425246868522 0.00053063564948185014 0.0029252073293794235 0.00018422699839568991 -0.0012499419847909186 -8.4560672157050037e-06 0.00033442772668901169 -0.0013482080514175604 0.0024776691169478946 -0.0019482232452694111 0.00014637343556054734 0.0019908683650929912 0.0020591159861074993 0.0014303967972118608 0.0010312816888383754 0.00086086458188860721 0.0023452572889822152 0.001071941015414945 0.0019295318607142271 0.0026908169216458104 0.0018209322228815651 -8.7836468625506866e-05 0.0031756547511275421 0.00064176649941567385 0.0024368795186423577 0.0016814516407977543 0.00064092248380442896 0.0014454626476463125 -0.0018915335491721771 0.0029674702588810779 0.0026042507909885917 0.0017016145018757538 0.0014011170789377005 0.00038029035371857297 -0.0009413969954902492 0.0011907107170378956 0.00031585108126107027 -0.00040180154366724422 0.0013824062382158209 0.0026235485755245341 0.0028627173555113225 0.0017874929511109091 0.0019321410655655201 0.0019344636903603702 0.0011436978686986431 0.0018615022768539364
leaf_weight=379 311 2420 2019 554 809 317 2091 617 381 329 578 10699 335 317 500 1770 1994 379 410 711 10916 300 6436 1013 1304 18421 398 2850 394 448 11646 454 435 357 1403 5896 2079 1964 376 770 670 3526 470 363 2925 1305 1540 12493 5024 316 15582 318 310 302 1028 547 1277 3132 640 524 334 351 879 317 563 3091 397 4826 962 399 593 771 1793 350 4176 348 3823 476 383 1464 18025 321 1770 934 369 584 5029 324 567 415 349 324 499 606 377 1327 405 1130 1478 413 785 713 321 353 924 1941 3268 2769 534 375 418 583 1653 432 310 330 354 664 1272 537 580 391 399 364 304 3376
leaf_count=379 311 2420 2019 554 809 317 2091 617 381 329 578 10699 335 317 500 1770 1994 379 410 711 10916 300 6436 1013 1304 18421 398 2850 394 448 11646 454 435 357 1403 5896 2079 1964 376 770 670 3526 470 363 2925 1305 1540 12493 5024 316 15582 318 310 302 1028 547 1277 3132 640 524 334 351 879 317 563 3091 397 4826 962 399 593 771 1793 350 4176 348 3823 476 383 1464 18025 321 1770 934 369 584 5029 324 567 415 349 324 499 606 377 1327 405 1130 1478 413 785 713 321 353 924 1941 3268 2769 534 375 418 583 1653 432 310 330 354 664 1272 537 580 391 399 364 304 3376
internal_value=1.43275e-07 0.000965363 -0.000467852 -0.000670853 -0.000958835 0.000813758 0.000658991 -6.79665e-05 0.00331046 0.000246028 -0.000525163 -0.000339118 0.000384606 -0.00140609 0.000296788 0.000703078 0.000130181 -0.000938595 0.00114782 0.00123563 -0.00144713 0.00264263 -0.000309822 -2.19503e-05 0.00104688 -0.000102956 -0.000933322 0.00030226 -0.000151741 -0.00100562 -0.00106725 0.0024371 0.000527277 0.000652531 0.000239879 -0.000600258 -0.000859564 -0.000436501 0.000216857 0.000689472 0.00223879 0.000827046 -0.000493181 -0.000587494 -0.000364438 -0.000262069 2.2448e-05 -0.000426888 -0.000600802 -0.00153298 0.000655308 0.00592319 0.0065602 0.000424522 0.00106387 0.00190375 0.000805906 0.000589125 0.00149917 -0.000979307 -0.000347942 -0.000447289 -8.85967e-05 -0.000924756 0.00310128 0.000233999 -0.000453049 -0.00118006 -0.000442188 0.000607705 0.000950643 -0.000186063 -0.000350056 0.000832207 -0.000763077 -0.000411848 0.000584184 -0.000889691 0.000177229 0.00173945 -0.00159547 0.000316821 0.00259975 -0.000380725 -0.00090649 -0.000495205 0.000544341 -0.00209917 0.00223407 -0.00140259 0.000891167 0.00115519 0.00144109 0.00161386 0.00144309 0.000533094 0.00222363 0.000763192 0.00175032 0.00201018 0.001836 -0.000396405 0.00245357 0.00129519 0.00217333 0.00144243 0.000455814 0.00130154 -0.00154478 0.00249164 0.0020992 0.00128977 0.00124344 0.000875276 -0.000497513 0.00187591 1.17864e-05 -0.000147273 0.00112517 0.0023033 0.00253334 0.00220335 0.00160545 0.00154192 0.00157075 0.00179753
internal_weight=233564 76270 157294 122474 82877 71642 64628 39597 4628 34820 42084 29033 29329 40793 39701 11536 28165 13051 6566 24927 39790 3689 33031 22984 16640 20841 5707 8395 3244 12672 12094 3389 24554 17088 7466 20638 7975 12663 1003 16709 7014 10712 5491 5162 31181 21774 7976 13798 9407 34083 16352 939 628 5824 1330 3648 5181 5151 4610 3449 4775 4440 2542 1898 1319 4494 4692 5142 1841 1850 1296 2961 2564 701 4985 1642 5914 911 731 3297 28941 1956 3366 5958 1731 953 10499 722 1596 778 1313 964 1963 8287 5928 3321 2384 2143 1855 2070 1657 1030 1279 1264 1334 4305 8297 4073 868 756 1203 1860 2364 2202 627 1134 1339 1018 4798 1037 1250 958 729 911 703 3982
internal_count=233564 76270 157294 122474 82877 71642 64628 39597 4628 34820 42084 29033 29329 40793 39701 11536 28165 13051 6566 24927 39790 3689 33031 22984 16640 20841 5707 8395 3244 12672 12094 3389 24554 17088 7466 20638 7975 12663 1003 16709 7014 10712 5491 5162 31181 21774 7976 13798 9407 34083 16352 939 628 5824 1330 3648 5181 5151 4610 3449 4775 4440 2542 1898 1319 4494 4692 5142 1841 1850 1296 2961 2564 701 4985 1642 5914 911 731 3297 28941 1956 3366 5958 1731 953 10499 722 1596 778 1313 964 1963 8287 5928 3321 2384 2143 1855 2070 1657 1030 1279 1264 1334 4305 8297 4073 868 756 1203 1860 2364 2202 627 1134 1339 1018 4798 1037 1250 958 729 911 703 3982
cat_boundaries=0 1
cat_threshold=2
is_linear=0
shrinkage=0.05


Tree=5
num_leaves=127
num_cat=3
split_feature=4 2 3 4 2 1 1 3 2 1 3 1 2 1 2 7 8 6 3 3 8 1 1 3 4 1 2 9 7 1 1 8 7 8 6 7 4 1 3 7 9 3 6 1 7 6 1 1 3 1 6 6 7 7 8 2 4 1 8 6 6 3 2 3 7 4 6 7 7 6 8 6 8 3 7 1 8 8 7 7 1 2 2 4 1 3 6 6 9 2 6 4 3 6 8 4 7 6 6 7 6 6 3 1 2 7 6 2 7 6 2 3 6 1 7 8 7 7 7 7 8 3 8 8 3 8
split_gain=38.1463 9.44133 7.58857 9.17169 5.71747 5.26189 4.98418 4.3959 2.42574 1.28825 1.14982 1.47646 1.10976 1.06124 0.967382 1.22667 0.706754 0.690805 0.6652 0.599959 0.588766 0.509038 0.548208 0.508554 0.481196 0.648972 0.476433 0.43915 0.438451 0.424417 0.403428 0.373173 0.506903 0.373109 0.532585 0.478372 0.367343 0.357112 0.356777 0.350082 0.340589 0.323979 0.313911 0.312136 0.293858 0.288526 0.280684 0.290831 0.277583 0.271289 0.270256 0.263645 0.263356 0.262144 0.257797 0.255315 0.253203 0.331583 0.247148 0.242937 0.705583 0.287142 0.221736 0.207283 0.202789 0.202463 0.199196 0.19816 0.181439 0.17741 0.176442 0.173006 0.17086 0.378445 0.166271 0.163533 0.162795 0.272606 0.648613 0.269081 0.161351 0.154406 0.194428 0.164858 0.150152 0.14513 0.140967 0.135363 0.160004 0.126927 0.122287 0.121477 0.117691 0.116713 0.111473 0.10484 0.10216 0.101501 0.101287 0.0960805 0.0952326 0.0933631 0.0927562 0.0926505 0.0925095 0.088862 0.0867693 0.0845188 0.0812947 0.0810007 0.0763075 0.119857 0.0724538 0.0657539 0.0616919 0.0592755 0.0576828 0.0575637 0.0452393 0.0433295 0.0404592 0.0403207 0.0402404 0.0388889 0.0284908 0.0281257
threshold=0.4280674869699963 -1.6059064585002394 0.52400433325556872 0.092785622805363607 0.26535510833388076 2.6135199074161828 2.8221372737746342 2.1500504671483029 -2.0355558689132205 2.7483181195514308 0.70064578131376032 2.4829182783906432 0.33313973989731299 3.3942039109129687 1.2930570974809703 0.24500000000000002 87.850000000000009 -0.68499999999999994 1.2662224913856599 0.63201137778972638 83.050000000000011 2.9373253087518125 1.9122124091997195 2.7951509118372742 0.24083994395696681 2.130348007483116 -0.82512783129332112 0 0.13500000000000004 2.7914470950434724 2.8532871949547189 86.450000000000017 0.60500000000000009 85.750000000000014 0.72500000000000009 0.6150000000000001 0.022240299759581032 2.4829182783906432 1.7935712044545753 0.13500000000000004 1 1.1653121628675691 0.10500000000000002 3.1257810081822073 0.43500000000000005 -0.064999999999999988 0.86731542139912576 1.0000000180025095e-35 0.43480743981104625 3.1745059193022098 -0.65499999999999992 1.0150000000000003 0.28500000000000009 0.46500000000000002 86.050000000000011 -0.34475516123197908 1.5236104946760702 0.44706197575595374 82.850000000000009 0.35500000000000004 0.075000000000000025 0.38840942030216985 0.37579623624665681 0.539210654373668 0.46500000000000002 0.72634283726068294 0.41500000000000004 0.10500000000000002 0.59500000000000008 0.68500000000000016 84.350000000000009 0.22500000000000003 85.450000000000017 0.3792942673526381 0.17500000000000002 3.3571906177938708 82.450000000000017 85.750000000000014 -0.044999999999999991 -0.024999999999999998 1.9380738543368439 0.083020561747815955 -0.056196852483388092 0.16428712001054616 2.2408373995183046 0.7993228533981287 0.36500000000000005 0.31500000000000006 2 1.0000000180025095e-35 0.7350000000000001 0.66818708901314028 1.1721296656852429 -0.31499999999999995 80.15000000000002 1.0681354098136666 0.18500000000000003 -0.44499999999999995 0.065000000000000016 0.38500000000000006 0.055000000000000007 0.20500000000000004 1.3837928047119019 1.1065323479635285 1.4600227928628815 0.32500000000000007 -0.24499999999999997 -1.3993848588169424 0.34500000000000003 -0.18499999999999997 -0.0089422921017071489 1.400704002197884 0.37500000000000006 3.1493485615748722 0.38500000000000006 87.050000000000011 0.025000000000000005 0.23500000000000001 0.115 0.22500000000000003 85.250000000000014 1.6870921549089166 86.750000000000014 85.65000000000002 2.1917153913506744 85.65000000000002
decision_type=2 2 2 2 2 2 2 2 2 2 2 2 2 2 2 2 2 10 2 2 2 2 2 2 2 2 2 1 2 2 2 2 2 2 10 2 2 2 2 2 1 2 10 2 2 10 2 2 2 2 10 10 2 2 2 2 2 2 2 10 10 2 2 2 2 2 10 2 2 10 2 10 2 2 2 2 2 2 2 2 2 2 2 2 2 2 10 10 1 2 10 2 2 10 2 2 2 10 10 2 10 10 2 2 2 2 10 2 2 10 2 2 10 2 2 2 2 2 2 2 2 2 2 2 2 2
left_child=2 8 9 4 10 7 24 14 56 12 11 31 17 19 15 20 26 84 92 30 91 22 -18 28 54 53 99 45 103 46 69 80 -33 35 55 37 85 -19 68 -28 96 123 -22 63 110 -16 47 -10 59 87 -29 76 66 58 81 -35 -2 -58 -26 60 70 -62 -38 -13 -40 -47 71 -36 -17 -6 -11 -50 73 -61 -74 -23 -14 79 -79 -78 -4 82 -5 -83 -1 -21 -32 115 105 -86 -37 -3 113 -55 -51 124 -27 -56 -52 -12 -49 -54 -46 107 114 -89 -99 -9 125 -72 111 -20 -42 120 121 -7 -48 -97 -25 -112 -8 -96 -116 -15 -30 -94
right_child=1 5 3 6 13 49 18 23 29 48 16 43 51 41 27 38 21 33 44 36 42 75 -24 118 25 40 39 50 95 -31 86 32 -34 34 67 90 62 -39 64 -41 112 -43 -44 -45 102 65 116 100 52 94 98 -53 101 93 97 -57 57 -59 -60 72 61 -63 -64 -65 -66 -67 -68 -69 -70 -71 109 -73 74 -75 -76 -77 77 78 -80 -81 -82 83 -84 -85 89 -87 -88 88 -90 -91 -92 -93 108 -95 104 117 -98 106 -100 -101 -102 -103 -104 -105 -106 -107 -108 -109 -110 -111 119 -113 -114 -115 122 -117 -118 -119 -120 -121 -122 -123 -124 -125 -126 -127
leaf_value=-0.0016074316178198563 0.0043744768851292273 0.00027867298420049697 0.00020454642373161715 -0.00011026615556730146 -0.00059657578450362841 0.001854887601477612 0.00090437456866043547 0.0016144547263318072 0.0017599869245585301 -0.0016722775905459613 -5.9477998993010184e-06 0.00035987956665963909 0.00055025623553991846 -3.6877317318896439e-05 0.0017232451279905457 0.00018398799031356714 -0.0011956227205503487 0.0010345257163760111 0.0011383262615450188 -0.0013681957955917329 -0.00056089533529404432 -0.0024174981682031781 3.2512019808909602e-05 0.0015071700503808249 0.00020797486199514872 0.00058442253290209693 -0.00041913431700316785 0 0.00073524865730650315 0.004474745354224716 -0.0013143097882617515 9.9031403017573491e-05 -0.0018106762802197387 -0.0002533491129195397 -0.00023959193253356086 7.1162692616148226e-05 0.00020657676079582606 0.00041981888536524626 0.00071174669844771988 -0.00083006819828453982 0.0009455793575525493 0.0013486821875420187 -4.5457373218478165e-05 -0.0018511297273423018 0.00046359557586117132 0.00029830826916712869 0.0014636082089161786 0.0029651053398475793 -0.00049538727496061614 0.001516209320639323 0.0012470987028712786 -0.0017869410123321418 -0.0020617448147051227 -0.00061117977319469132 -0.00131807355123331 0.00052352927790237809 0.0050161769508484891 0.0074462814467444035 -0.0003672307182713819 -0.0011043022086205596 0.0019632994252075727 3.1901143662111421e-05 -0.0011482979637401818 -0.0007770622927162201 0.0014347473495655522 0.00075725207070379127 -0.0011980828060768546 -0.0019005870796847488 0.00093569419631956059 -0.0014349368173456267 0.00034359339434064705 0.00096869429215244338 -0.0021157811454947674 0.0011988105034000803 -0.00043633956215573385 -0.0012537630075219407 -0.0018353649558002149 0.0019468449829057226 -0.00039784445895413648 -0.00040837497965650981 0.00077886601399766806 -0.00065287629302149741 0.0010688290669963599 -0.00013682422919948878 0.00020386344738290891 -0.0016046900427397093 -0.0027598750892385785 0.0013486630415139806 0.0020343490613353291 -0.0011199177887325604 -0.0011298819026760614 0.00091184442818730428 0.00099495785987740721 0.00042500643929639355 0.0021375683321145644 0.0012059021482496281 -9.5120363450814391e-05 6.7603978233480951e-05 0.0019886414510880118 0.00079514940836965817 0.004219883262099669 -0.0010353570706983337 0.0014085459046208561 0.0013307159350941921 0.0029858320420457713 0.00024702785612916 -0.00062209459394398407 0.00075442931577313684 0.00046393855198659191 -0.00079523355647366414 0.0024149423463969257 0.0021783376917400891 0.0018088421189918749 -0.00025155564086500439 0.001692529263992599 0.0027511597491083513 0.002208542300077923 0.0015937926237190412 0.0018062846866313412 0.0017797028005859805 0.0002206365578895416 0.0026529303297864277 0.0023551385338819865 -0.00083892105475584218 0.0011845464694263755 0.0016274541257247487
leaf_weight=341 311 1842 2061 2970 4229 718 413 309 308 320 1576 443 543 310 521 3529 3797 7564 606 10916 4356 869 1184 3246 2207 1015 11002 337 573 300 387 2863 394 1175 445 607 313 3486 2491 9936 651 408 9250 634 492 5237 435 345 566 385 1255 301 445 308 508 9851 318 310 11774 429 540 307 5404 3676 1644 4527 535 310 1049 756 310 312 304 303 304 504 503 352 1792 999 3113 3078 395 3173 440 18025 335 434 510 301 319 1327 479 2085 727 1450 1191 472 810 485 386 510 605 927 743 339 7385 7199 510 306 1044 572 439 365 618 309 989 4081 2712 493 508 1562 523 322 1444 378
leaf_count=341 311 1842 2061 2970 4229 718 413 309 308 320 1576 443 543 310 521 3529 3797 7564 606 10916 4356 869 1184 3246 2207 1015 11002 337 573 300 387 2863 394 1175 445 607 313 3486 2491 9936 651 408 9250 634 492 5237 435 345 566 385 1255 301 445 308 508 9851 318 310 11774 429 540 307 5404 3676 1644 4527 535 310 1049 756 310 312 304 303 304 504 503 352 1792 999 3113 3078 395 3173 440 18025 335 434 510 301 319 1327 479 2085 727 1450 1191 472 810 485 386 510 605 927 743 339 7385 7199 510 306 1044 572 439 365 618 309 989 4081 2712 493 508 1562 523 322 1444 378
internal_value=2.04617e-07 0.000970187 -0.000420722 -0.000598695 -0.000905454 0.000834209 -1.48876e-05 0.000684276 0.00342834 0.000233666 -0.000498125 -0.000109774 0.000365355 -0.00132378 0.000359932 0.000182077 -0.000672375 0.000496203 0.00126743 -0.00136443 -6.76457e-05 -0.00113986 -0.00090274 0.00124833 -0.000235232 -6.40245e-05 -0.000542959 0.000716803 0.00110026 0.00267704 -0.000886831 0.00028707 -0.000130937 0.000552603 0.000351972 0.000749503 -0.0014429 0.000841109 0.000663391 -0.00061441 0.000575614 0.000248963 -0.000210873 -0.00081467 0.00169134 0.000573684 0.00245432 0.00308929 -0.000468751 0.00214557 0.00132705 -0.00035734 -0.000877358 -0.000193113 -0.00042223 0.000440271 0.0056285 0.00623363 -0.000276064 -0.000157144 0.000223033 0.00127001 -0.00107322 -0.000653513 0.00100068 0.000511662 -0.00043837 -0.000929816 0.000357492 -0.000724982 -0.000719403 1.97005e-05 -0.000666524 -0.000143808 -0.00128637 -0.00199518 -0.000253021 -0.000374143 -9.83629e-06 -0.000890485 0.000551143 -0.000244757 2.69327e-05 -0.000391792 -0.000736891 -0.00151571 -0.00199484 0.00169482 0.00133973 -0.000327913 -0.000337967 0.000545591 0.00065603 0.000289352 0.00237249 0.00137824 0.000215401 -0.000625593 0.00154121 0.000180438 0.00363937 -0.00152051 0.000990101 0.000850791 0.00244991 0.000872943 -0.000580022 0.000790701 0.000980598 -0.000214391 0.00197236 0.00164898 0.00129918 0.00030664 0.00233152 0.00213183 0.00198568 0.00149324 0.00164444 0.00221573 0.000533314 0.00249244 0.00200242 -0.000454092 0.00105981 0.00128133
internal_weight=233564 70686 162878 128058 83942 66984 44116 60116 3702 34820 42537 13184 29329 41405 38175 25488 29353 24839 6465 40365 16775 6354 4981 21941 37651 19670 22999 12687 15983 2763 5707 8431 3257 23757 11781 11976 34658 11050 8713 20938 3296 1040 13606 4753 3812 10285 2463 1039 5491 6868 2402 4490 2368 16374 17981 11026 939 628 13981 3123 1783 847 5717 4119 4135 9764 1413 755 4578 4985 936 878 1340 732 608 1373 4189 3646 2144 1502 5174 9616 3365 6251 1082 28941 722 2310 1283 741 926 3169 2653 2393 4558 7548 2206 8365 2065 2061 731 955 1097 8435 4173 773 7857 7508 1367 616 2715 1178 1090 1286 3430 1027 1424 5531 5958 1537 921 2289 1141 632 2017 857
internal_count=233564 70686 162878 128058 83942 66984 44116 60116 3702 34820 42537 13184 29329 41405 38175 25488 29353 24839 6465 40365 16775 6354 4981 21941 37651 19670 22999 12687 15983 2763 5707 8431 3257 23757 11781 11976 34658 11050 8713 20938 3296 1040 13606 4753 3812 10285 2463 1039 5491 6868 2402 4490 2368 16374 17981 11026 939 628 13981 3123 1783 847 5717 4119 4135 9764 1413 755 4578 4985 936 878 1340 732 608 1373 4189 3646 2144 1502 5174 9616 3365 6251 1082 28941 722 2310 1283 741 926 3169 2653 2393 4558 7548 2206 8365 2065 2061 731 955 1097 8435 4173 773 7857 7508 1367 616 2715 1178 1090 1286 3430 1027 1424 5531 5958 1537 921 2289 1141 632 2017 857
cat_boundaries=0 1 2 3
cat_threshold=2 2 2
is_linear=0
shrinkage=0.05


Tree=6
num_leaves=127
num_cat=0
split_feature=4 2 2 4 1 10 4 2 1 1 4 2 2 1 8 4 2 10 1 4 1 1 1 0 1 8 6 2 2 8 4 8 2 10 2 2 1 1 6 1 1 2 2 4 0 1 6 0 4 1 6 0 0 10 1 6 2 4 6 0 4 4 6 1 0 6 6 1 1 0 1 1 8 8 8 1 2 6 4 10 8 1 8 6 8 8 8 2 8 2 8 4 1 0 8 1 6 2 4 6 6 1 2 8 0 2 8 0 1 1 1 6 1 0 1 0 2 8 6 2 0 2 1 4 0 6
split_gain=34.4377 8.54635 6.04007 7.69761 4.59824 4.38087 3.93985 2.59224 1.90092 2.77047 4.002 1.31617 1.12772 0.99644 0.94281 0.790615 0.765227 1.06932 0.757685 0.583702 0.564524 0.563318 1.11757 0.44532 0.456247 0.512462 0.424457 0.420958 0.395197 0.390682 0.390439 0.389249 0.379427 0.341074 0.321218 0.315538 0.33872 0.315255 0.31484 0.304738 0.30044 0.284605 0.277686 0.267241 0.26323 0.260182 0.249819 0.239237 0.227639 0.29818 0.227459 0.383647 0.219627 0.231895 0.207848 0.207559 0.204076 0.201559 0.199025 0.241063 0.258697 0.197986 0.197103 0.194402 0.193519 0.191321 0.187914 0.187437 0.231346 0.340958 0.182305 0.379294 0.206481 0.332569 0.177396 0.168435 0.163559 0.162809 0.159484 0.157433 0.156062 0.14907 0.14046 0.137998 0.13736 0.13228 0.132095 0.131863 0.12918 0.129135 0.126214 0.114955 0.113965 0.112943 0.129201 0.111278 0.107191 0.106802 0.106587 0.101711 0.100436 0.0916111 0.0902905 0.0867335 0.0861035 0.0805889 0.121016 0.0783153 0.0764459 0.076344 0.0756174 0.0805466 0.0732737 0.0726463 0.0724749 0.0710039 0.0609984 0.0607222 0.0586729 0.0574233 0.0569478 0.0554134 0.0550433 0.111532 0.0546047 0.0509232
threshold=0.4280674869699963 -1.5234992450425164 0.28238493497327949 0.085965624323829884 2.6135199074161828 1.0000000180025095e-35 0.91742065224796543 -2.0355558689132205 1.9380738543368439 2.7630793342347224 0.062105500737581872 0.54776301543394845 -0.63444898137810768 3.2579595944739101 87.250000000000014 0.17528289608908834 0.89721970681854202 1.0000000180025095e-35 3.0337330053581284 1.448118431454285 3.1257810081822073 2.8221372737746342 2.1577848528426657 -0.7428815169103532 3.1257810081822073 88.050000000000011 -0.44499999999999995 0.41017575685462732 -0.82512783129332112 81.250000000000014 0.22203612090911509 86.350000000000009 -1.2601519679976401 1.0000000180025095e-35 0.092411881797618708 0.36706296409530714 1.9380738543368439 3.3942039109129687 0.72500000000000009 0.81109428017627072 1.2885478913526913 -0.47995565522014144 1.276486366885033 0.23716543514614868 -0.33410456185302156 0.44706197575595374 0.67500000000000016 -0.7951425937690425 1.5236104946760702 0.44706197575595374 0.36500000000000005 -0.10484983550739445 -0.55883961585798525 1.0000000180025095e-35 1.4540291262809957 0.77500000000000013 1.3268045569475593 1.0000000180025095e-35 0.13500000000000004 0.018374047556678454 0.015875874809474836 0.74001432393568956 0.84500000000000008 2.6401527291865938 0.28144882002018662 -0.44499999999999995 0.085000000000000006 1.9035925938183713 1.8779780831312445 0.0090435189192026519 1.6747627223491828 1.5489091447270795 84.450000000000017 85.550000000000011 87.050000000000011 1.7640651329563515 0.49488126836614349 0.75500000000000012 0.47992188636168737 1.0000000180025095e-35 89.450000000000017 3.2579595944739101 82.250000000000014 0.055000000000000007 83.450000000000017 89.950000000000017 83.550000000000011 0.49488126836614349 87.550000000000011 -0.20379324873816557 89.350000000000009 1.1441949151545561 2.0063291471399602 -0.67822789600429745 87.450000000000017 2.4173918521297733 0.78500000000000014 0.67408110031538149 0.065216806052209378 -0.48499999999999993 0.15500000000000003 3.103632436743708 -1.0571745511035731 82.350000000000009 0.3237610398806719 -0.18418475212423563 86.850000000000009 0.1536632012028564 3.103632436743708 1.9297452770907013 2.2310697750367132 1.2450000000000003 2.4829182783906432 0.20472763423770887 3.3238276524803996 0.89387226631826777 0.55638033491075978 85.050000000000011 0.20500000000000004 -0.82512783129332112 -0.51837753474716353 1.361914410506728 2.3270473885320295 0.81269388041730284 0.29856054004024662 0.45500000000000007
decision_type=2 2 2 2 2 2 2 2 2 2 2 2 2 2 2 2 2 2 2 2 2 2 2 2 2 2 10 2 2 2 2 2 2 2 2 2 2 2 10 2 2 2 2 2 2 2 8 2 2 2 10 2 2 2 2 10 2 2 10 2 2 2 10 2 2 10 10 2 2 2 2 2 2 2 2 2 2 10 2 2 2 2 2 10 2 2 2 2 2 2 2 2 2 2 2 2 10 2 2 10 10 2 2 2 2 2 2 2 2 2 2 8 2 2 2 2 2 2 10 2 2 2 2 2 2 10
left_child=2 7 8 11 6 15 16 48 14 12 23 21 28 47 34 54 32 -18 30 56 39 22 35 108 41 -26 29 44 80 -14 62 46 90 105 67 36 -4 64 -33 45 116 -25 -35 79 -24 -9 -28 98 -2 -50 61 -52 83 -54 -5 58 91 97 75 60 -60 -34 76 -31 66 -29 -23 68 74 -70 71 100 82 -74 -1 88 -7 78 -19 113 92 -42 -72 -49 -79 -61 -37 118 -16 -69 99 102 -10 95 -95 -30 -89 -15 112 -3 -36 -56 -8 -41 -66 -6 114 -73 -11 -64 111 -58 -13 -12 -107 -20 -17 121 -32 -93 -81 -21 123 -105 -45 -44
right_child=1 4 3 5 33 18 19 20 9 10 43 13 26 57 55 40 17 77 115 117 -22 37 27 24 25 -27 31 65 93 63 87 38 50 42 70 86 -38 -39 -40 103 81 -43 125 124 -46 -47 -48 52 49 -51 51 -53 53 -55 101 -57 110 -59 59 85 -62 -63 109 -65 104 -67 -68 89 69 -71 72 107 73 -75 -76 -77 -78 84 -80 120 -82 -83 -84 -85 -86 -87 -88 96 -90 -91 -92 119 -94 94 -96 -97 -98 -99 -100 -101 -102 -103 -104 122 -106 106 -108 -109 -110 -111 -112 -113 -114 -115 -116 -117 -118 -119 -120 -121 -122 -123 -124 -125 -126 -127
leaf_value=-0.0001900773044132344 0.0041564540117759374 0 -0.0010109673865619335 -0.00064439251331939549 0.0017306643876315551 -0.0013133449444367583 0.0011608617207957926 0.0022445106416932913 -0.00067921902965130626 -2.2421118460836688e-05 -0.00049030928802676506 -0.0013026347881126832 0.0012388755509914354 -0.00097002133144257537 -0.0020866673243601021 0.00028192294414986044 0.0019567175439430561 2.0260115082844712e-05 0.0013623906586234826 0.00095102531968824602 0.0044934106030205742 -0.0011961477486081525 -0.00076050806426675372 -0.0012257620316002964 -0.00097273159220673863 -0.0021845365993867745 0.00077616105836232098 -0.0018184979914403815 -0.00066684978150056452 -0.00019577512050619617 -0.0013267028500779652 0.00034764692024000189 -0.000334002284257739 0.0020068419776437976 -0.00096441437104507501 -0.00085011092514873882 8.4974733766116054e-05 -0.00022809994579642081 -0.00074215485785215939 0.0026574990576807597 0.0016318655209869052 -0.00049291741458398644 0.0014131813891501224 0.0016158320908338374 0.00028081789525759125 0.0037727816970860098 0.00030324171150512732 -0.0021059599313127302 0.0047661543223835937 0.0070751647587672445 0.0013145995874844511 4.9553027899877021e-05 -0.00086439535278624077 -0.0014568844347477919 0.00037153089263643982 -0.0019373383186732842 0.0011223890662394275 0.0012264245485150078 -0.0005442065498509188 -0.00064297186841071779 0.0007717954956397219 0.00017959518101508089 -0.0010437765985349136 -0.0015489928710075379 -0.00054488096904169007 -0.00053585703850992663 -0.00263475653230527 -0.0012702581765937642 0.001689765784382481 -0.00047115900794415214 0 -0.0022939821166284742 0.001461836717152898 -0.00045462996794155911 0.00064659427474863358 -0.00047145274124970883 -0.00054767097852304861 0.00046099251845833341 0.00054733720082966416 0.0012436958959110742 -0.00099478095017087927 0.0024704270385892393 -0.00132185522762416 -0.0015420080334337693 -0.00031850649654503673 -0.0014166944891053745 -0.0013789477750125634 -0.00014970066515529096 -0.0010907868589688939 -8.3997175090572509e-05 -0.0003678988523434743 0.0013506461760357732 0.00027081476858035715 -0.00071562285729381099 0.00022441737336583814 -0.0016186582507024426 -0.00062700661483138225 0.00034682028067771552 -3.9834462567008404e-05 0.00084571095565749536 -0.00023075534853001596 0.0013429251504589155 0.00052293107308154247 0.00081426609390087407 -0.0014483544063568208 0.0019138564715486172 0.0031124958579890998 -0.001232005385403728 0.0010232002186671561 -0.0020782745072621526 0.0017650216528778775 0.00026410135521286703 -0.00057226881978140012 0.00055558250059043704 0.0025587735118733105 0.00051096776242797598 0.001229788942338893 0.0015650034885680857 -0.00050242097102527262 0.0008711326184892604 0.00059877236649137524 0.0014315210225560816 0.0023547037592834981 0.0018219188736366557 0.00085458105500140998 0.0007500311798538193
leaf_weight=16774 311 429 2161 419 454 791 659 756 349 380 359 1056 449 304 383 415 1217 1654 511 1015 300 363 745 1641 4611 1089 12036 319 817 2276 368 10450 6826 2244 769 1595 1034 499 704 305 2252 7205 599 1389 3231 480 3689 2003 318 310 692 4510 1902 15648 941 411 7128 329 1011 2857 590 2573 498 302 336 3751 700 620 416 319 341 423 364 590 655 1048 6752 1014 11932 718 312 746 509 2702 1272 706 5391 9391 2912 379 302 871 3033 1159 523 524 1356 303 321 2100 1249 339 4210 391 1717 847 667 352 309 316 467 301 557 307 1239 523 310 5356 602 2915 746 1897 306 1151 326 668
leaf_count=16774 311 429 2161 419 454 791 659 756 349 380 359 1056 449 304 383 415 1217 1654 511 1015 300 363 745 1641 4611 1089 12036 319 817 2276 368 10450 6826 2244 769 1595 1034 499 704 305 2252 7205 599 1389 3231 480 3689 2003 318 310 692 4510 1902 15648 941 411 7128 329 1011 2857 590 2573 498 302 336 3751 700 620 416 319 341 423 364 590 655 1048 6752 1014 11932 718 312 746 509 2702 1272 706 5391 9391 2912 379 302 871 3033 1159 523 524 1356 303 321 2100 1249 339 4210 391 1717 847 667 352 309 316 467 301 557 307 1239 523 310 5356 602 2915 746 1897 306 1151 326 668
internal_value=2.39603e-07 0.000921867 -0.000399702 -0.000735487 0.000776214 -5.44506e-05 0.000635707 0.00299915 -0.000123528 5.56861e-05 -0.000432725 -0.00112006 0.000310282 -0.00136718 -0.000420088 0.00121292 0.000290046 0.000527831 -0.000380279 0.00111626 0.0023985 -0.000835523 -0.000721803 -0.000796692 -0.000855644 -0.00120547 0.000441837 -0.000280501 -0.000274672 -0.000118108 -0.000448448 0.000505084 5.66361e-05 0.00201629 -0.000248847 -0.00107001 -0.000654807 -0.00140717 0.000278354 0.00221031 0.00162104 -0.000629554 0.00167 0.00100795 8.43008e-05 0.00284463 0.000665561 -0.00142915 0.0053485 0.00592334 -4.57749e-05 0.000219018 -0.00147588 -0.00139301 0.000315254 -0.000829751 0.000943905 0.000228705 -0.000781144 -0.000568988 -5.59338e-05 -0.000192868 -0.000709889 -0.000356776 -0.00159424 -0.000638039 -0.00214978 -0.000158436 -0.000121416 0.000745736 -0.000624529 -0.000878164 -0.000228805 0.00027213 -0.000158312 -0.00103207 -0.00062879 0.000417839 0.000483543 0.000629333 7.10579e-05 0.00184295 -0.000796566 -0.00178355 2.51196e-05 -0.000798041 -0.00125906 -0.000261508 -0.00120866 -0.000825749 0.00058642 0.00077417 0.000171128 -0.000698679 -0.000420397 -0.00104343 -0.000210443 -0.000304972 -0.000888392 0.000702456 -0.000513147 0.000633549 0.00061052 0.00184268 -0.00130326 0.00239321 0.00249999 -0.00182029 0.000440072 -0.00145357 0.0011292 0.00108833 -0.00105403 -5.87606e-07 0.00230035 0.000937479 0.00069524 0.00146051 -0.000821332 0.000983096 0.000919113 0.00126614 0.00170413 0.00157035 0.00147462 0.00106836
internal_weight=233564 70686 162878 73497 66058 26530 59340 4628 89381 55703 19080 46967 36623 25125 33678 5422 34521 17089 21108 24819 3689 21842 18227 15235 14546 5700 29906 8046 6717 3027 20074 26879 17432 6718 23760 10181 3195 3615 11154 3389 3723 8846 3511 3845 3976 1236 15725 24189 939 628 14601 5202 22255 17550 1699 9918 16551 936 9507 5164 1601 9399 8357 2578 3116 4070 1063 19163 18164 735 4597 2793 1804 954 17429 4343 7543 15872 13586 2130 3694 2998 850 4705 2286 3563 6986 11717 3295 999 2831 8655 3382 3023 1682 1341 10747 607 1934 2529 2018 1280 4869 2153 2053 3207 2753 775 689 814 7896 7429 1613 666 2086 1034 725 8268 970 3786 1464 2912 1848 1542 1715 1267
internal_count=233564 70686 162878 73497 66058 26530 59340 4628 89381 55703 19080 46967 36623 25125 33678 5422 34521 17089 21108 24819 3689 21842 18227 15235 14546 5700 29906 8046 6717 3027 20074 26879 17432 6718 23760 10181 3195 3615 11154 3389 3723 8846 3511 3845 3976 1236 15725 24189 939 628 14601 5202 22255 17550 1699 9918 16551 936 9507 5164 1601 9399 8357 2578 3116 4070 1063 19163 18164 735 4597 2793 1804 954 17429 4343 7543 15872 13586 2130 3694 2998 850 4705 2286 3563 6986 11717 3295 999 2831 8655 3382 3023 1682 1341 10747 607 1934 2529 2018 1280 4869 2153 2053 3207 2753 775 689 814 7896 7429 1613 666 2086 1034 725 8268 970 3786 1464 2912 1848 1542 1715 1267
is_linear=0
shrinkage=0.05


Tree=7
num_leaves=127
num_cat=2
split_feature=4 2 3 4 2 1 4 1 2 1 1 3 2 1 7 2 1 3 6 3 3 3 1 7 3 10 1 6 7 4 3 10 4 7 6 7 1 1 1 7 2 3 3 6 9 10 6 6 3 1 3 1 1 3 2 2 4 1 2 10 7 7 7 2 6 7 10 2 2 3 10 6 1 7 10 7 10 7 6 3 7 3 6 2 3 7 6 7 2 4 3 6 3 4 7 7 1 7 1 7 2 10 6 7 2 9 2 4 7 2 2 4 2 6 1 3 1 7 6 7 3 6 7 6 6 2
split_gain=31.1211 8.04801 6.74317 6.29278 4.69694 4.65933 3.97966 3.46166 2.34015 1.05415 0.983874 1.46587 0.912266 0.846236 0.813072 0.814029 0.807053 0.671189 0.59427 0.561408 0.527753 0.522191 0.509416 0.482849 0.361971 0.353325 0.350529 0.339669 0.331989 0.328959 0.341361 0.328879 0.313359 0.312394 0.450142 0.347784 0.322975 0.290054 0.285463 0.273683 0.272588 0.268838 0.264715 0.257475 0.253215 0.251434 0.240722 0.599742 0.630279 0.234356 0.234065 0.237223 0.225798 0.233049 0.225553 0.214244 0.204608 0.268082 0.198908 0.197363 0.193234 0.185037 0.184974 0.183514 0.18218 0.180322 0.168303 0.549119 0.534627 0.211745 0.166091 0.161456 0.159597 0.158094 0.155792 0.145267 0.143474 0.137143 0.133716 0.128969 0.126304 0.121551 0.119465 0.105115 0.100504 0.0930467 0.105984 0.0922527 0.0894249 0.0861836 0.0854053 0.0828188 0.0824412 0.0783978 0.0767246 0.0758487 0.0731255 0.0704013 0.0647515 0.0636923 0.0631676 0.0621288 0.0594591 0.058142 0.0565563 0.0555782 0.0516999 0.0511453 0.0504617 0.0502864 0.0482676 0.0468124 0.0458782 0.0454359 0.0598649 0.0804311 0.0434225 0.0364575 0.0359982 0.0356089 0.0340044 0.0295282 0.0283996 0.0283094 0.0280816 0.0443606
threshold=0.37846508908947307 -1.5234992450425164 0.52400433325556872 0.085965624323829884 0.26535510833388076 2.7199039846568369 0.91742065224796543 2.7199039846568369 -2.0355558689132205 2.7483181195514308 2.4715825367611983 0.70064578131376032 0.32493368410321394 2.175849449951361 0.23500000000000001 0.89721970681854202 3.3942039109129687 1.1721296656852429 -0.68499999999999994 1.2662224913856599 0.63201137778972638 2.7951509118372742 3.0142191392946702 0.23500000000000001 1.7935712044545753 1.0000000180025095e-35 2.8679712494691469 0.13500000000000004 0.75500000000000012 1.0000000180025095e-35 0.539210654373668 1.0000000180025095e-35 0.24083994395696681 0.33500000000000008 0.24500000000000002 -0.53499999999999992 2.0148491851347292 0.81109428017627072 2.130348007483116 -0.31499999999999995 0.073875898231651818 0.16348021835854312 1.1653121628675691 0.80500000000000016 0 1.0000000180025095e-35 0.35500000000000004 0.075000000000000025 0.38840942030216985 0.44706197575595374 1.1582995657768993 1.4735654458202883 0.7111231510523971 2.2845762426127827 -0.40424849291997927 0.49488126836614349 1.5236104946760702 0.44706197575595374 1.2608946563004155 1.0000000180025095e-35 0.19500000000000003 0.15500000000000003 0.60500000000000009 0.0095320702128924521 -0.46499999999999991 0.6150000000000001 1.0000000180025095e-35 0.93034487162247792 0.083020561747815955 1.2889598008626291 1.0000000180025095e-35 0.68500000000000016 2.2408373995183046 0.7350000000000001 1.0000000180025095e-35 0.25500000000000006 1.0000000180025095e-35 0.60500000000000009 -0.21499999999999997 1.1721296656852429 0.025000000000000005 1.5051637764555525 0.10500000000000002 -0.21399616672082719 0.49317757077411234 0.075000000000000025 0.53500000000000014 0.78500000000000014 0.083020561747815955 0.21433690185976031 1.400704002197884 0.46500000000000002 1.7098265761088085 1.1572340975158815 0.065000000000000016 -0.40499999999999997 2.901594768634653 -0.054999999999999993 3.2907108373745673 0.34500000000000003 0.027688399417557304 1.0000000180025095e-35 -0.044999999999999991 0.17500000000000002 -0.0089422921017071489 1 -0.34475516123197908 0.18932391295255926 0.38500000000000006 1.2458578263969662 0.36706296409530714 0.14616831642381808 -0.38025381232996619 0.095000000000000015 1.2062490423716337 1.9134577347583834 1.0000000180025095e-35 0.30500000000000005 0.31500000000000006 0.115 1.9425166463176959 -0.15499999999999997 0.17500000000000002 1.1050000000000002 0.17500000000000002 -0.5736080632952324
decision_type=2 2 2 2 2 2 2 2 2 2 2 2 2 2 2 2 2 2 10 2 2 2 2 2 2 2 2 10 2 2 2 2 2 2 10 2 2 2 2 2 2 2 2 10 1 2 10 10 2 2 2 2 2 2 2 2 2 2 2 2 2 2 2 2 10 2 2 2 2 2 2 10 2 2 2 2 2 2 10 2 2 2 10 2 2 2 10 2 2 2 2 10 2 2 2 2 2 2 2 2 2 2 10 2 2 1 2 2 2 2 2 2 2 10 2 2 2 2 10 2 2 10 2 10 10 2
left_child=2 8 9 4 10 6 13 32 56 12 11 28 18 14 15 27 20 29 72 79 26 23 37 52 65 -17 71 -3 54 30 -12 58 66 35 41 -20 -37 49 60 -11 78 -35 -18 64 94 81 47 59 -49 116 51 -22 53 -8 -4 103 -2 -58 -15 88 95 -42 83 -61 -14 -16 67 89 112 -70 -36 -6 -1 -26 82 -28 -52 97 -13 106 -76 109 -66 90 85 100 -87 -62 -41 -5 -21 117 -93 102 -40 -34 -50 -33 -83 105 -48 -31 -25 -47 -74 -81 -9 -69 121 -7 -95 -108 -68 120 -115 -116 -10 -57 -85 -23 -39 -100 -46 -54 -105 -126
right_child=1 5 3 7 16 45 21 19 22 39 17 40 43 31 24 25 42 -19 33 62 50 119 -24 93 73 -27 75 -29 -30 101 -32 77 38 34 70 36 -38 113 44 46 61 -43 -44 -45 122 55 84 48 96 -51 76 -53 123 -55 -56 91 57 -59 -60 63 87 -63 -64 -65 74 -67 68 107 69 -71 -72 -73 104 -75 80 -77 -78 -79 -80 99 -82 98 -84 118 -86 86 -88 -89 -90 -91 -92 92 -94 110 -96 -97 -98 -99 108 -101 -102 -103 -104 124 -106 -107 111 -109 -110 -111 -112 -113 -114 114 115 -117 -118 -119 -120 -121 -122 -123 -124 -125 125 -127
leaf_value=-0.001600637618223971 0.0039492975001255036 -0.00059644768117831531 0.00073809783463222645 -0.00031159154965035551 -0.00052922463030516636 0.0011668236191843962 0.00025325026194789345 0.00071400378386526572 0.0017053245888163622 0.00096788214878214425 0.00038064173679178652 -0.00069833054161547712 -0.0012430730849744621 0.0010008861104596389 0.00015431999069317142 0.0015686222591784909 -0.00043311597833012837 0.0012516763852304155 -0.0009330478297994041 0.00082397759066922842 -0.00027049167827968517 0.0013509426744167229 0.0041265439160977071 0.0014721583957745953 0.00072128090057828418 0.0002657933992495984 -0.0025794227248091407 -6.3518240884732175e-05 -0.0013157544692901568 -0.0005619965419088284 -0.0010189149534459655 0.0013586158991641187 -0.00085486150080541857 -0.00041146849423598001 0.0002552284921038751 0.0021946609864525561 0.00063000362464912037 0.001077552558705996 0.00056796380075598691 -0.00097507606086909586 -0.00057450721917254386 0.00077532320311641037 0.0012405634284470041 -0.0012968634346960919 0.0015008891683713061 0.0022220602095795838 -0.0010320396037129345 0.0019139232518242987 -0.00066535382441100977 0.0035845347628121558 -0.00013042701462235147 -0.0013784307290481733 0.0011133360527010995 0.0007997440419141125 0.00015682970168205077 0.001904242661441221 0.0045285936441927747 0.0067225437098758448 0.0023088792883460261 -0.001073759651435443 -8.1587967844321875e-06 -0.0013167086458353847 0.00054222537174956106 0.00045913820781482854 9.1813738513367861e-05 0.00076400611319833711 0.00053605113661660904 0.00056313477163661937 -0.00085551532005030771 -0.00037061948415577833 -0.00045765903778887995 -0.0013223615306235652 8.4149084107144342e-05 0.0017099349716199264 0.00068851469101243172 -0.0010434070950193911 -0.0010539866959950398 -0.00030088522500121214 -0.00036033199963343162 0.00086451688805584583 -6.8530400300337172e-05 0.0019005263171528017 -0.00093082783402735321 0.0021681135583215489 -0.00011741272259000811 -0.0013205080079247064 -0.00035450722116880766 0.00087802762950536242 -0.0020755699107113455 -0.00082999834821170988 0.0017407861587252092 0.00022980073984675675 0.0013200139711406821 0.0017936831853237996 -0.00018725904878362631 -0.00030151398993872344 0.00025687473596796429 0.00063157688693773681 0.0022694819640855222 0.00045778276382501767 -0.0020780679732649069 0.00013975567516464412 0.00096850657056108238 0.0013028061017570866 -0.00079963871989467054 0.0017114414108892802 -0.00015041371748561946 0.0013121333645843617 0.0021562150022872528 0.0020824830080001465 0.001329437930421536 0.00041516285383816332 1.3012400318091796e-05 0.0013017991549158501 0.0017701215602624759 0.002853100098151293 0.0025473884472360844 0.0011334372210440851 0.0016280376371050978 0.0016209070884799313 0.001725982919598422 0.0029047094182003391 0.0008287798378618594 0.00060210583675415243 0.0023413410056167499 0.001461559096530183
leaf_weight=336 311 4795 2379 5095 4282 356 3112 509 381 329 448 3809 357 599 6324 552 627 379 345 588 503 3187 344 842 5056 9460 355 8006 317 506 10902 448 699 551 1323 339 15509 429 492 496 1826 3311 376 571 377 1081 326 520 513 480 507 30175 3433 5380 5699 367 318 310 607 386 4839 1617 464 388 452 1511 890 684 5893 3722 2109 769 430 449 772 301 2898 324 13386 639 1886 609 737 810 347 528 656 311 328 972 500 381 340 847 1048 6435 359 1570 370 556 315 816 2554 427 301 315 741 378 719 332 2554 706 830 303 518 309 375 363 738 2671 550 980 366 347 324 365
leaf_count=336 311 4795 2379 5095 4282 356 3112 509 381 329 448 3809 357 599 6324 552 627 379 345 588 503 3187 344 842 5056 9460 355 8006 317 506 10902 448 699 551 1323 339 15509 429 492 496 1826 3311 376 571 377 1081 326 520 513 480 507 30175 3433 5380 5699 367 318 310 607 386 4839 1617 464 388 452 1511 890 684 5893 3722 2109 769 430 449 772 301 2898 324 13386 639 1886 609 737 810 347 528 656 311 328 972 500 381 340 847 1048 6435 359 1570 370 556 315 816 2554 427 301 315 741 378 719 332 2554 706 830 303 518 309 375 363 738 2671 550 980 366 347 324 365
internal_value=2.33117e-07 0.000829094 -0.000401643 -0.00057621 -0.000823945 0.000698435 0.000565469 -5.75642e-05 0.00285004 0.000212227 -0.000453147 -0.000290772 0.00033136 0.000254395 0.000181894 3.49164e-07 -0.00120633 -0.000813932 0.000454411 0.000990741 -0.00124166 0.00106068 0.00227922 0.000933028 0.00049196 0.000338272 -0.000794196 -0.000263565 0.000265864 -0.000876199 -0.000963203 0.000991482 -0.000266124 0.00050697 0.000234133 0.000629536 0.000663925 0.00208657 -9.22859e-05 -0.000423132 -0.000517441 0.000604644 0.000189936 -0.00030031 0.000420346 0.00192264 -0.000512927 -0.000219585 0.00053671 0.00270284 -0.00131641 -0.00136044 0.000744685 0.000600117 0.000328704 0.00162893 0.00508246 0.00562851 0.00166473 -0.000881436 -0.000187993 -0.000924814 0.00148051 -0.000299278 -0.00016349 0.00027262 -0.00040299 -0.000211418 -0.000523005 -0.000668388 -0.000181398 -0.000651205 -0.000697226 0.000803122 -6.17085e-05 -0.00188491 -0.000918017 0.000642099 -0.000435532 0.000550951 0.000149645 0.00223888 -0.000538117 0.0016435 -0.000914158 -0.00106276 -0.000790262 4.45459e-05 -0.00142118 -0.000395593 0.00125111 0.00114755 0.000751951 0.00127219 5.09873e-05 -0.000356545 -0.000280088 0.00079605 0.00239578 0.000899465 -0.0015563 -0.000125285 0.00109525 0.00194392 -0.000273528 0.0011509 0.000279027 0.000835415 0.00253815 0.00161832 0.00144702 0.000122178 0.000286714 0.00172193 0.00195305 0.00218376 0.00213243 0.00152987 0.00191508 0.00147514 0.00144833 0.00273612 0.00117809 0.0010679 0.00166828 0.00188531
internal_weight=233564 76270 157294 122474 82877 71642 64628 39597 4628 34820 42084 29033 29329 39701 36153 22813 40793 13051 24554 6566 39790 24927 3689 19069 13340 10012 5707 12801 8395 12672 11350 3548 33031 23487 7294 16193 15848 3345 14567 5491 20638 3862 1003 4775 2283 7014 5162 2990 1392 1236 34083 30678 12272 8492 8078 3648 939 628 1206 1598 12284 3443 3100 774 4204 7835 18464 7129 11335 9615 3432 5051 1067 5505 3847 656 3405 2342 17195 3466 2658 3366 1189 2636 2172 1825 1184 5150 824 6067 1088 1451 721 6797 1540 7134 872 2018 2678 1510 641 1322 3396 2197 731 954 1956 1062 2069 688 3401 1447 1720 2109 1130 827 756 730 1548 5858 979 1350 743 3780 1116 689
internal_count=233564 76270 157294 122474 82877 71642 64628 39597 4628 34820 42084 29033 29329 39701 36153 22813 40793 13051 24554 6566 39790 24927 3689 19069 13340 10012 5707 12801 8395 12672 11350 3548 33031 23487 7294 16193 15848 3345 14567 5491 20638 3862 1003 4775 2283 7014 5162 2990 1392 1236 34083 30678 12272 8492 8078 3648 939 628 1206 1598 12284 3443 3100 774 4204 7835 18464 7129 11335 9615 3432 5051 1067 5505 3847 656 3405 2342 17195 3466 2658 3366 1189 2636 2172 1825 1184 5150 824 6067 1088 1451 721 6797 1540 7134 872 2018 2678 1510 641 1322 3396 2197 731 954 1956 1062 2069 688 3401 1447 1720 2109 1130 827 756 730 1548 5858 979 1350 743 3780 1116 689
cat_boundaries=0 1 2
cat_threshold=2 2
is_linear=0
shrinkage=0.05


Tree=8
num_leaves=127
num_cat=9
split_feature=4 3 4 1 4 1 3 1 1 1 4 1 3 0 3 7 0 9 7 1 6 0 6 3 1 3 0 0 0 1 9 9 0 0 0 0 1 9 0 9 0 8 7 7 7 7 6 3 8 3 7 3 7 8 8 0 3 7 0 8 8 3 1 7 6 4 6 6 6 0 8 7 0 6 0 9 8 3 6 6 0 0 7 3 1 3 6 0 0 8 3 7 3 6 1 9 1 8 9 3 8 7 7 6 8 7 7 0 6 7 6 4 8 8 4 0 0 0 3 8 0 3 0 9 0 3
split_gain=28.1082 5.60916 6.79518 4.70702 5.1053 3.6913 1.35162 1.15352 0.951957 0.922443 0.800619 0.679901 0.64529 0.638416 0.631669 0.589211 0.58235 0.711654 0.556029 0.550901 0.549823 0.533313 0.828548 0.532843 0.510245 0.53655 0.46908 0.376314 0.373029 0.641685 0.449454 0.370441 0.349139 0.525162 0.346551 0.370141 0.342702 0.396042 0.580115 0.321683 0.940877 0.317853 0.313209 0.298505 0.286991 0.274462 0.290074 0.268734 0.330299 0.268067 0.263094 0.249988 0.24731 0.326148 0.229178 0.220533 0.217508 0.216871 0.211136 0.210801 0.207496 0.206485 0.206433 0.198519 0.194113 0.193662 0.190963 0.190076 0.465577 0.434768 0.24214 0.177344 0.172283 0.221805 0.167719 0.173303 0.160322 0.153487 0.151004 0.244828 0.201673 0.160638 0.141045 0.139183 0.138951 0.138579 0.145334 0.145746 0.12242 0.119073 0.117411 0.11454 0.123357 0.107243 0.103724 0.103139 0.101966 0.108224 0.101835 0.0941437 0.131644 0.0930758 0.0889145 0.0874515 0.0846753 0.0799384 0.0768621 0.0752806 0.0705125 0.0702955 0.0684943 0.0682251 0.0672404 0.072186 0.0664444 0.0699277 0.0698681 0.062678 0.0610052 0.0588141 0.0578863 0.0570097 0.0550257 0.0608747 0.163209 0.0542638
