tree
version=v4
num_class=1
num_tree_per_iteration=1
label_index=0
max_feature_idx=12
objective=regression
feature_names=release_speed pfx_x pfx_z release_spin_rate spin_axis_sin spin_axis_cos spin_efficiency fb_velo delta_velo arm_angle pfx_x_dev_from_slot pfx_z_dev_from_slot ay_residual
feature_infos=[36.099998474121094:98.400001525878906] [-2.9500000476837158:2.4000000953674316] [-2.559999942779541:2.1600000858306885] [16:3562] [-1:1] [-1:1] [0:129.35536193847656] [81.333335876464844:101.95500183105469] [-45.312828063964844:3.388885498046875] [-69.300003051757812:79.5] [-1.9102674722671509:2.3300900459289551] [-2.6783647537231445:2.5742776393890381] [-19.549205780029297:22.982139587402344]
tree_sizes=10418 12272 11144 11734 10903 11305 9902 11110 11900 10876 10609 9245 11552 10496 8446 11014 7789 11927 8958 7906 12046 8986 11917 10407 12212 12192 12082 12190 10239 11094

Tree=0
num_leaves=109
num_cat=0
split_feature=7 3 2 7 2 6 7 2 3 2 4 11 7 11 10 10 3 12 2 5 10 11 1 7 3 3 2 2 3 1 7 1 5 7 4 1 12 2 12 5 7 3 11 7 11 11 3 12 5 5 1 1 10 11 2 11 2 1 5 12 12 7 1 12 3 7 6 4 4 11 12 5 5 2 1 7 3 10 1 7 4 4 3 3 7 6 6 1 3 1 5 7 12 3 10 2 3 10 11 5 11 3 12 5 3 12 1 3
split_gain=2.99761 1.76853 1.20844 0.956756 1.2916 0.723442 0.686478 0.681646 0.631378 1.07344 0.785545 0.535722 0.505572 0.496838 0.789734 0.46991 0.420615 0.399364 0.375644 0.403727 0.538076 0.37476 0.363399 0.396243 0.32979 0.323662 0.315939 0.313095 0.305409 0.304793 0.304552 0.29976 0.338932 0.296709 0.293526 0.344632 0.420823 0.291416 0.325271 0.310833 0.286027 0.349916 0.34618 0.285123 0.35898 0.357361 0.327104 0.276609 0.556206 0.540658 0.404417 0.266772 0.257219 0.248667 0.245764 0.24552 0.24467 0.234469 0.227547 0.213146 0.201952 0.194093 0.223688 0.193762 0.191726 0.191481 0.190613 0.186898 0.186574 0.186078 0.184054 0.180121 0.177242 0.175797 0.178326 0.172235 0.158607 0.231804 0.270498 0.152776 0.147837 0.152446 0.141922 0.173148 0.137264 0.128498 0.125232 0.157126 0.21851 0.123316 0.121666 0.11599 0.112577 0.110573 0.0968631 0.0935502 0.091815 0.156869 0.102245 0.0859143 0.085288 0.0718989 0.0704891 0.0674391 0.0622872 0.061272 0.042556 0.0256756
threshold=1.0000000180025095e-35 2539.5000000000005 -0.014999999664723871 94.495006561279311 1.1549999713897707 0.47255408763885504 93.882347106933608 0.6850000023841859 2026.5000000000002 0.17500000447034839 -0.87878364324569691 0.41720640659332281 88.87683486938478 0.25442384183406835 -0.13278610259294507 0.75274702906608593 1207.5000000000002 0.81241637468338024 -0.34499999880790705 -0.034899612888693803 -0.6757526397705077 0.43403844535350805 -0.90500000119209278 96.773067474365249 2600.5000000000005 1879.5000000000002 0.5249999761581422 -1.3250000476837156 3026.5000000000005 1.4450000524520876 96.098152160644545 0.22500000149011615 0.90255087614059459 89.18378067016603 -0.71322336792945851 1.2450000047683718 -1.0688787102699278 -0.79500001668930043 -0.78306859731674183 -0.60181513428688038 91.47953033447267 2533.5000000000005 0.36595980823040014 91.350673675537124 -0.45698539912700648 -0.19089146703481671 3006.5000000000005 0.38116268813610082 -0.9426056146621703 -0.82409477233886708 -0.4849999994039535 -0.8149999976158141 0.37914176285266882 0.40145350992679601 0.37500000000000006 0.034209297969937331 0.41499999165534979 1.794999957084656 0.7603769600391389 1.8820968270301821 -1.1618716716766355 92.712337493896499 -1.1649999618530271 3.2754808664321904 2907.5000000000005 98.51822662353517 0.67257431149482738 0.095842167735099806 -0.35836797952651972 -0.14390263706445691 2.9872419834136967 -0.10452841967344283 0.69465836882591259 -1.0449999570846555 0.5249999761581422 94.23309707641603 2279.5000000000005 -0.10739056766033171 -0.7250000238418578 98.51822662353517 -0.99809676408767689 -0.90255096554756153 2533.5000000000005 2338.5000000000005 95.427761077880874 0.56640172004699718 0.41038040816783911 -1.0249999761581419 2620.5000000000005 0.11499999836087228 0.8038262426853181 92.129028320312514 -0.11318818479776381 2632.5000000000005 -0.16926987469196317 0.46500000357627874 2632.5000000000005 0.325162023305893 0.086475089192390456 0.43049462139606481 0.36595980823040014 2380.5000000000005 0.30504959821701055 0.83385407924652111 3006.5000000000005 -0.48271201550960535 0.5249999761581422 2758.5000000000005
decision_type=10 2 2 10 2 10 10 2 2 2 2 10 10 10 10 10 2 2 2 2 8 8 10 10 2 2 2 2 2 10 10 10 2 10 2 8 2 2 2 2 10 2 10 10 10 8 2 2 2 2 10 10 8 8 2 10 2 10 2 2 2 10 10 2 2 10 10 2 2 10 2 2 2 2 10 10 2 8 10 10 2 2 2 2 10 10 10 10 2 10 2 10 2 2 8 2 2 8 8 2 8 2 2 2 2 2 10 2
left_child=13 3 6 8 7 22 15 27 9 37 21 53 25 47 -15 34 60 -18 40 20 -20 82 86 33 79 52 -21 101 31 30 -29 32 93 56 61 59 -37 55 39 -39 42 -42 -12 45 -45 -7 69 48 -1 105 -51 -27 -11 70 -35 90 -24 67 64 -36 -14 62 -3 84 92 71 -31 -33 -49 -47 -9 -13 -26 103 -75 -40 77 -6 -79 -25 94 -82 83 -10 -46 -63 87 99 -89 -34 -2 -60 -17 -8 -23 -65 98 -98 -88 -4 -76 -5 -80 -30 -66 -50 -103 -59
right_child=1 2 5 4 76 43 28 11 10 12 18 65 16 14 -16 58 17 -19 19 26 -22 80 23 24 72 51 -28 29 73 66 -32 57 89 54 35 36 -38 38 75 -41 41 -43 -44 44 63 46 -48 68 49 50 -52 -53 -54 -55 -56 -57 -58 107 91 -61 -62 85 -64 95 104 -67 -68 -69 -70 -71 -72 -73 -74 74 100 -77 -78 78 102 -81 81 -83 -84 -85 -86 -87 96 88 -90 -91 -92 -93 -94 -95 -96 -97 97 -99 -100 -101 -102 106 -104 -105 -106 -107 -108 -109
leaf_value=-0.0014665661283959778 -0.005417770404860571 -0.0065899877925497154 -0.010601790217947223 -0.0069174713005826227 -0.0024203559099820523 -0.0095577545291659644 -0.0082205425944949576 -0.00648407931269378 -0.0072607249299630229 -0.0054822855547410117 -0.0067211143816244424 -0.0069596688119646297 -0.0082042571123831301 0.00074977090025512335 -0.0051127986688588129 -0.0066011196967428847 -0.0065740633201650713 -0.0070134118097054388 -0.0059022196909803851 -0.0072173297959229809 -0.0070787573338953486 -0.0061225918228556553 -0.0070290027414969414 -0.0067877599426217393 -0.0081877479997155677 -0.00470948864565703 -0.0077222315154231516 -0.007271915939446834 -0.0063484237810787891 -0.0088693410240933013 -0.0074856334608668033 -0.0052720708928563099 -0.0066700247821623792 -0.0073005363697615407 -0.0069778084726118276 -0.0064503785225226654 -0.0074156457338138406 -0.007913728723174791 -0.0074971819025277126 -0.0068090099795762261 -0.0070684121245196772 -0.0053877625409496184 -0.0050001275067686904 -0.0053089933221188547 -0.0080059993126875197 -0.0053571787201621068 -0.01016976216050706 -0.005589973609956984 -0.0080960719559948508 -0.0053987156233017046 -0.0015200692107885079 -0.0075223747744297366 -0.0027237560694444527 -0.0040357163225530485 -0.0075663445613684596 -0.0039569066413957989 -0.0052886487014926287 -0.0082973483563263169 -0.0052992961366971356 -0.0065892684523569927 -0.0071434844195452964 -0.0078041445548737379 -0.0076888892514294718 -0.0074680878622739458 -0.010264560537493403 -0.0087642884635555102 -0.0074841908848437243 -0.0072829376955010879 -0.008216763746015647 -0.0073508234148733633 -0.0045898604985622204 -0.0079765063344427352 -0.0069038039076553745 -0.0064126623836429581 -0.0087130345939824012 -0.006399546892632375 -0.0064353531639681875 -0.0072278070374076691 -0.0032582430752534563 -0.0081562016872669327 -0.0085800597585936091 -0.0069741007684869325 -0.0057818738509654074 -0.0076527877374801883 -0.0086448938392985723 -0.0095092224565898227 -0.0081097186522129747 -0.0097712528949512288 -0.0073357340236388392 -0.0077673257815640611 -0.0071669599748933515 -0.0075064133229370616 -0.008002900615499773 -0.007703515774173433 -0.0078884880312091767 -0.0059490856016889745 -0.0077492286674427776 -0.0098098400062462589 -0.0062429237653994669 -0.0087306470256307764 -0.0073022935476166062 -0.0060202638883820291 -0.0052580514707083609 -0.0079485730028968846 -0.0085837488384021901 -0.0064098792111032098 -0.0044794231170933816 -0.009582879435126021
leaf_weight=114 142 865 125 107 110 195 1619 2487 7252 673 6585 2674 605 100 143 158 16254 7644 986 39644 68129 124 681 874 3289 111 3362 53098 169 529 24355 115 940 27791 20414 1324 7609 740 9663 4427 14812 316 307 122 8666 120 100 188 111 198 107 332 100 119 12707 104 291 101 116 4297 1701 1207 993 480 111 188 487 22626 102 3424 137 518 286 103 977 368 139 102 115 264 1273 161 133 4638 958 124 126 131 321 347 347 114 1189 3072 204 127 580 112 170 155 129 116 100 104 149 102 101 102
leaf_count=114 142 865 125 107 110 195 1619 2487 7252 673 6585 2674 605 100 143 158 16254 7644 986 39644 68129 124 681 874 3289 111 3362 53098 169 529 24355 115 940 27791 20414 1324 7609 740 9663 4427 14812 316 307 122 8666 120 100 188 111 198 107 332 100 119 12707 104 291 101 116 4297 1701 1207 993 480 111 188 487 22626 102 3424 137 518 286 103 977 368 139 102 115 264 1273 161 133 4638 958 124 126 131 321 347 347 114 1189 3072 204 127 580 112 170 155 129 116 100 104 149 102 101 102
internal_value=-0.00721405 -0.00722128 -0.00737251 -0.00714959 -0.00728861 -0.00753257 -0.00722854 -0.00730454 -0.0070874 -0.00691922 -0.00713656 -0.0067966 -0.0067301 -0.00468249 -0.00265698 -0.00708885 -0.00677666 -0.00671437 -0.0070996 -0.00713674 -0.00706188 -0.00749587 -0.00743951 -0.00741278 -0.0078475 -0.00573207 -0.00725693 -0.00734408 -0.00740636 -0.00735055 -0.00733919 -0.00737026 -0.00768574 -0.00736324 -0.00704981 -0.00700627 -0.00727195 -0.00724732 -0.00729008 -0.0069683 -0.00691072 -0.00703286 -0.00664342 -0.00784631 -0.00798302 -0.0074762 -0.00736283 -0.0052261 -0.00463711 -0.00535423 -0.00400751 -0.00682477 -0.00511363 -0.00627757 -0.00738407 -0.00616143 -0.00650139 -0.00728783 -0.00786856 -0.00691002 -0.00741993 -0.00750756 -0.00717992 -0.00801558 -0.00808059 -0.00721649 -0.00821123 -0.00727246 -0.00653133 -0.0072814 -0.00638231 -0.00712643 -0.00808358 -0.0081069 -0.00836623 -0.00745634 -0.00491047 -0.00442874 -0.00515426 -0.00711016 -0.00817732 -0.00839623 -0.00739551 -0.0074141 -0.00807026 -0.00796835 -0.00815369 -0.00865358 -0.00805673 -0.00696996 -0.00664618 -0.00641143 -0.00783443 -0.0078832 -0.00721405 -0.00715694 -0.0077772 -0.00809322 -0.00705475 -0.00959286 -0.00855324 -0.00579671 -0.00415188 -0.00697671 -0.00932942 -0.00726525 -0.00527091 -0.00897624
internal_weight=408953 407788 131169 276619 85482 62095 69074 84916 191137 43211 147926 6123 27420 1165 243 38670 26204 23898 134141 112121 69115 13785 47903 46183 4713 1216 43006 78793 30404 78469 77453 28922 5978 41470 36833 33644 8933 15791 15198 5167 22020 15128 6892 14192 10353 3839 3644 922 632 518 305 443 773 2743 40498 593 972 22944 1837 24711 2306 3189 1858 10231 1607 3380 1016 22741 290 3544 2624 3192 3575 1482 1209 10031 566 427 317 1138 1762 1434 12023 11890 9624 1331 1720 732 452 1287 489 230 1347 4691 328 607 988 692 296 280 1106 324 215 273 260 213 217 203
internal_count=408953 407788 131169 276619 85482 62095 69074 84916 191137 43211 147926 6123 27420 1165 243 38670 26204 23898 134141 112121 69115 13785 47903 46183 4713 1216 43006 78793 30404 78469 77453 28922 5978 41470 36833 33644 8933 15791 15198 5167 22020 15128 6892 14192 10353 3839 3644 922 632 518 305 443 773 2743 40498 593 972 22944 1837 24711 2306 3189 1858 10231 1607 3380 1016 22741 290 3544 2624 3192 3575 1482 1209 10031 566 427 317 1138 1762 1434 12023 11890 9624 1331 1720 732 452 1287 489 230 1347 4691 328 607 988 692 296 280 1106 324 215 273 260 213 217 203
is_linear=0
shrinkage=1


Tree=1
num_leaves=127
num_cat=0
split_feature=7 5 2 2 6 8 7 10 7 6 1 7 12 2 5 7 11 10 10 7 8 7 7 2 8 1 10 7 1 11 6 10 7 8 2 8 1 10 11 2 1 6 12 7 1 10 2 10 12 5 5 1 2 10 4 12 10 2 10 8 8 8 6 5 8 1 7 7 11 7 2 4 6 12 4 4 1 10 2 2 4 12 6 5 1 1 12 11 7 5 4 2 12 6 1 5 1 6 7 1 10 7 10 8 10 10 4 5 5 1 6 2 6 4 11 10 8 4 10 2 11 7 6 10 10 12
split_gain=2.70956 1.49869 1.66858 0.961706 0.98362 0.759914 0.659398 0.646201 0.610352 0.555436 0.567619 0.536707 0.532526 0.532496 0.511331 0.453727 0.448583 0.712703 0.431223 0.47699 0.424837 0.661749 0.421121 0.419404 0.598256 0.405632 0.421772 0.441637 0.393291 0.378067 0.369645 0.3643 0.324146 0.317364 0.310994 0.410675 0.295759 0.284188 0.397343 0.393124 0.280638 0.27181 0.267876 0.263153 0.262432 0.300613 0.287046 0.262219 0.249998 0.50184 0.488581 0.364819 0.249798 0.281151 0.274979 0.249192 0.248823 0.24068 0.238774 0.237419 0.237274 0.228712 0.225892 0.281983 0.21817 0.215531 0.219219 0.212696 0.211425 0.207278 0.207034 0.204316 0.202067 0.199684 0.313046 0.202478 0.199292 0.272746 0.27892 0.209176 0.198911 0.197584 0.196305 0.232326 0.189149 0.178539 0.174635 0.454652 0.227104 0.173067 0.168635 0.16245 0.194114 0.172145 0.160412 0.15762 0.416272 0.240238 0.189976 0.20966 0.203234 0.167469 0.217896 0.18977 0.152599 0.151014 0.189193 0.173598 0.144624 0.160441 0.143894 0.188777 0.177379 0.143543 0.142098 0.139145 0.130466 0.117289 0.112411 0.101647 0.0958209 0.0886321 0.0703799 0.0612467 0.0556454 0.0553616
threshold=1.0000000180025095e-35 -0.43049465119838709 -0.11499999836087225 0.44499999284744268 0.71404653787612926 -10.542125701904295 95.526355743408217 0.22893198579549792 93.369533538818374 0.62399405241012584 -0.37499999999999994 96.75583648681642 -0.60258838534355152 0.53499999642372142 -0.72534674406051625 96.098152160644545 0.25442384183406835 -0.13278610259294507 0.33124922215938574 93.045307159423842 -9.1730041503906232 88.87683486938478 91.210166931152358 0.5249999761581422 -10.920467376708983 0.21499999612569812 -0.1942416653037071 93.103363037109389 1.4950000047683718 0.086475089192390456 0.73015981912612926 0.35721427202224737 90.741722106933608 -13.109020233154295 0.19500000029802325 -8.1064453124999982 -0.87499999999999989 -0.39418093860149378 0.47053742408752447 1.294999957084656 1.1950000524520876 0.69213283061981212 -3.6861486434936519 90.399059295654311 0.98500001430511486 0.0062146536074578771 0.21499999612569812 0.95469477772712719 0.38116268813610082 -0.9426056146621703 -0.82409477233886708 -0.4849999994039535 -0.074999999254941926 0.068779092282056822 -0.66259482502937306 -2.8595093488693233 -0.27319140732288355 0.41499999165534979 -0.6757526397705077 -9.2435913085937482 -8.2504310607910138 -12.961536407470701 0.54093030095100414 0.26722814142704016 -8.7994232177734357 -1.6850000023841856 93.882347106933608 97.243198394775405 -0.19464487582445142 87.113803863525405 -0.12499999627470969 -0.87878364324569691 0.47255408763885504 -2.4043525457382198 -0.93038219213485707 -0.98897817730903614 0.064999999478459372 -0.40894623100757593 0.56499999761581432 0.99500000476837169 0.97988739609718334 1.2801839709281924 0.40727654099464422 -0.60181513428688038 1.2050000429153445 -0.7250000238418578 -3.049946546554565 -0.3050981312990188 98.872097015380874 0.89490026235580455 -0.35836797952651972 -1.3250000476837156 1.0270814299583437 0.55989691615104686 -0.96500000357627858 -0.91702517867088307 -0.054999999701976769 0.21479726582765582 95.98486709594728 -1.2849999666213987 -0.37372562289237971 96.098152160644545 0.22893198579549792 -12.120315551757811 0.088205367326736464 0.33779209852218633 -0.87032258510589589 -0.078456122428178773 -0.99961927533149708 -0.014999999664723871 0.54722812771797191 0.49500000476837164 0.59495460987091076 0.71933981776237499 0.19507820159196856 -0.46344453096389765 -13.260913848876951 0.64278760552406322 0.12510264664888385 0.25499999523162847 -0.34357659518718714 93.347702026367202 0.67257431149482738 0.41084700822830206 -0.25611558556556696 -0.48271201550960535
decision_type=10 2 2 2 10 10 10 10 10 10 10 10 2 2 2 10 10 10 10 10 10 10 10 2 10 8 8 10 10 10 10 8 10 10 2 10 8 8 10 2 10 10 2 10 10 8 2 10 2 2 2 10 2 10 2 2 10 2 10 10 10 10 10 2 10 10 10 10 10 10 2 2 10 2 2 2 10 10 2 2 2 2 10 2 10 10 2 8 10 2 2 2 2 10 10 2 10 10 10 10 8 10 10 10 10 10 2 2 2 8 10 2 10 2 10 10 10 2 10 2 10 10 10 10 8 2
left_child=16 3 5 6 37 15 25 9 36 10 110 13 20 -12 18 31 48 -18 84 -20 56 -22 23 24 32 47 27 81 62 67 -23 58 -9 91 73 55 105 76 39 61 42 72 -38 -37 46 -46 -28 52 49 -1 125 -52 54 -54 -2 -36 -6 -43 120 -42 64 -39 89 -64 -25 122 -67 68 -24 118 -60 -71 -31 74 -11 -75 77 79 -79 -5 -62 -27 83 -40 -14 -26 87 -35 -88 -10 -50 92 -17 -93 -84 96 97 119 99 124 -101 102 -100 -103 -13 107 -107 -7 -98 -110 111 -4 -112 -58 -29 117 -69 -78 -16 -8 -3 -117 -33 -30 -97 -51
right_child=1 2 7 4 12 8 95 22 28 34 11 104 14 -15 69 33 17 -19 19 -21 21 30 29 60 85 26 44 114 123 41 -32 65 -34 86 35 43 40 38 82 -41 59 57 -44 -45 45 -47 -48 -49 90 50 51 -53 53 -55 -56 -57 113 -59 70 -61 80 -63 63 -65 -66 66 -68 116 -70 71 -72 -73 -74 75 -76 -77 115 78 -80 -81 -82 -83 94 -85 -86 -87 88 -89 -90 -91 -92 93 -94 -95 -96 98 108 -99 101 100 -102 103 -104 -105 -106 106 -108 -109 109 -111 112 -113 -114 -115 -116 121 -118 -119 -120 -121 -122 -123 -124 -125 -126 -127
leaf_value=0.0054626044085269556 -0.00098703879807974441 -0.0016734559225796209 -0.00047812761702498174 0.00043367997057507346 0.0023327363181725202 -0.00075509236235010593 -0.00078597612305325863 0.00044065335070772734 -0.00034893641107423888 -0.00027514294203338693 -3.5656191522744894e-05 -0.00042878583018041654 0.00086477305679931882 -0.00045823304931437848 -0.00012494628884463158 0.0027687737217409482 0.0075695680830590792 0.0019969142686851334 0.0012011547279048207 0.0055974909300030226 0.0047546929237777718 0.0029655155701661003 3.4644067985191216e-05 -0.00088923185669496647 -0.00080833438432875997 0.0023392007723136462 0.00041299619210364224 -0.00026221137338357817 -0.0031742954457261545 -0.00051049009405239928 0.0010242877681467841 -0.00038066406295752354 0.0018830069064883989 -0.0013704559081012294 0.0024613347106230248 0.0019442610421851764 -0.00070920608621040588 0.0024621937345337434 -9.7542133669000167e-05 0.0025297103221057341 0.00019452590198889495 0.0013757178465627342 0.00025713842043601875 0.00063603611268708664 0.00041423127761658086 -0.0018177878638623438 6.3891024585218303e-05 0.002204245334083229 0.0015432981418435853 -0.00083831864658610086 0.0017250197516852552 0.0054119137165253052 -0.00011123861058367105 0.00024548279160020118 0.0016993149245175922 1.6954070268416391e-05 -0.00014696426244057104 -0.00054125122642510856 0.00027845503894336301 -0.00057256095242602244 -0.00057155483556511043 0.00016489489151392948 -0.00027287649176908891 0.00098626825644689757 -0.0033065567955146411 0.00013908665679106613 -0.00029876309598001003 0.00041745209123569821 -0.00038085874781316608 -0.00049635870333718907 0.0011891835593104468 0.00033450261031254229 -0.00096433710998207781 0.00055670944418081839 0.0029405988186228145 -0.00039098131547393055 -0.00022928946983322295 0.0038645362721945278 0.00085827858916501384 0.0019315591542258027 0.0017793488969034866 0.00022174686240355692 0.0011915938915851398 0.0015613133029493433 -0.001264093906083362 -6.2492087146825669e-05 -0.00042744092873544604 0.0032220056483846741 -0.0020702434162037124 6.8685902623062133e-05 -0.00095306878848435371 0.00020087514157372322 0.00027576995718745737 -0.00093427441313877592 -0.00064613880270087017 0.0015222426068073917 -0.0010925487749419527 0.00079555746272117606 -2.6603607527499993e-05 0.00034982089980165293 -0.0010046529888939567 0.00072067450867512105 0.0018636176416880848 -0.00041085671093881479 -0.0010439843554118321 -0.0023595480777976268 -0.00053547258929424117 0.00016717940066221428 0.0019661509271624478 0.00016411926763842879 0.00026627534378916533 -0.0011402098696220756 -0.00071052235871360298 0.0015311850457510447 0.0016700420931029397 -0.0020878359047864659 -0.0013235652866391979 0.00099642459539547195 -0.002341915294962099 -0.0024253190724744596 -0.00026069967748975931 -7.1827525026955697e-05 -0.002153822557572029 -0.0015034932635829875 0 0.00076434862130836953
leaf_weight=114 1114 138 9284 3825 131 809 161 1722 19028 173 67785 5865 2588 8381 121 126 100 143 168 101 134 268 3999 1286 990 577 9636 501 103 4484 3295 102 509 104 106 456 743 108 5728 177 1779 285 18247 2643 261 346 15246 128 188 111 198 107 23008 7264 102 4286 1094 378 47699 2306 227 36152 988 801 102 9887 4019 120 12766 818 635 7299 5609 671 130 3398 573 127 211 250 146 143 122 218 106 4319 4444 108 222 2830 102 2830 217 377 2477 102 217 104 689 305 2503 389 193 6500 1238 191 598 1363 128 3371 1262 1234 732 143 116 126 761 292 117 279 1016 105 150 167 157 102
leaf_count=114 1114 138 9284 3825 131 809 161 1722 19028 173 67785 5865 2588 8381 121 126 100 143 168 101 134 268 3999 1286 990 577 9636 501 103 4484 3295 102 509 104 106 456 743 108 5728 177 1779 285 18247 2643 261 346 15246 128 188 111 198 107 23008 7264 102 4286 1094 378 47699 2306 227 36152 988 801 102 9887 4019 120 12766 818 635 7299 5609 671 130 3398 573 127 211 250 146 143 122 218 106 4319 4444 108 222 2830 102 2830 217 377 2477 102 217 104 689 305 2503 389 193 6500 1238 191 598 1363 128 3371 1262 1234 732 143 116 126 761 292 117 279 1016 105 150 167 157 102
internal_value=0 -6.87522e-06 -7.63499e-05 0.000125381 0.000262601 5.99385e-05 5.30466e-07 -0.000190806 -8.9872e-05 -0.000128338 -0.000168338 -0.000121072 0.000599334 -8.22259e-05 0.00040784 0.000163838 0.00240686 0.0043323 0.00097253 0.00288496 0.00102608 0.00130494 -0.000369013 -7.63506e-05 8.53407e-05 7.66982e-05 0.00021973 0.00108577 -0.000272266 -0.000464671 0.0011725 0.000209526 0.000772661 -0.000180575 0.000194181 0.000389916 7.74896e-05 0.000153231 0.000111568 0.000183603 0.000138021 -0.000698723 0.000219031 0.000830712 0.000174066 -0.00085073 0.0001993 -4.45086e-05 0.00188984 0.00244992 0.00176802 0.00304825 -5.38784e-05 -2.54701e-05 -0.000756384 7.76337e-05 0.000268434 0.000276086 0.000273513 -0.000237308 -0.00077115 0.000171943 -0.000250311 0.000288331 -0.00107273 -1.37845e-05 1.21709e-05 -0.000321692 -0.000281453 0.000206889 0.000290548 0.000250105 -0.000763273 -0.000140062 0.00109324 -0.000233375 0.000492426 0.000642432 0.00201067 0.000527252 0.000337566 0.00192648 -0.000194998 -3.56299e-05 0.000778716 -0.000202641 -0.000442578 0.000949769 -0.000507101 -0.000294637 0.000647826 0.000178055 0.00121149 6.5624e-05 -0.000557525 -0.000293957 -3.49721e-05 -0.00132639 -0.000395281 -0.000729373 -0.00085568 -0.000262703 0.000382996 -0.000346142 -0.000536846 -0.000392429 -0.000985799 -0.000174226 0.000153045 0.000232012 -0.000482465 -0.000556381 -8.99785e-05 4.40749e-05 9.50887e-05 -0.000107045 -0.00108055 0.000179377 -0.00124096 -0.00183995 -0.000435274 -0.00119728 -0.00146022 -0.00216868 0.000618809 -4.74943e-05
internal_weight=408953 407788 267374 140414 66874 122027 73540 145347 49953 107644 95781 83269 16383 76166 11318 72074 1165 243 2963 269 5065 3697 37703 9301 7540 58442 26826 1337 23917 28402 3563 63646 2231 8428 11863 7491 26036 50491 44982 36437 23075 10756 18990 3099 25489 607 24882 31616 922 632 518 305 31488 30272 1216 4392 1368 663 49488 4085 1761 36260 23647 1789 1388 14158 13906 17646 16765 8355 48334 8117 10093 4372 303 4069 5509 4413 338 4075 373 720 8545 5946 2694 5309 4878 212 4666 21858 290 3550 343 3207 2599 15098 4260 544 10838 3067 2808 7771 882 6889 7103 2961 789 2172 3716 3499 12512 10518 1994 1237 617 1096 881 865 238 440 1154 231 252 270 259 213
internal_count=408953 407788 267374 140414 66874 122027 73540 145347 49953 107644 95781 83269 16383 76166 11318 72074 1165 243 2963 269 5065 3697 37703 9301 7540 58442 26826 1337 23917 28402 3563 63646 2231 8428 11863 7491 26036 50491 44982 36437 23075 10756 18990 3099 25489 607 24882 31616 922 632 518 305 31488 30272 1216 4392 1368 663 49488 4085 1761 36260 23647 1789 1388 14158 13906 17646 16765 8355 48334 8117 10093 4372 303 4069 5509 4413 338 4075 373 720 8545 5946 2694 5309 4878 212 4666 21858 290 3550 343 3207 2599 15098 4260 544 10838 3067 2808 7771 882 6889 7103 2961 789 2172 3716 3499 12512 10518 1994 1237 617 1096 881 865 238 440 1154 231 252 270 259 213
is_linear=0
shrinkage=0.05


Tree=2
num_leaves=116
num_cat=0
split_feature=7 3 2 7 2 6 2 7 3 2 4 8 7 8 10 8 8 8 10 10 10 1 7 8 5 1 2 3 4 8 4 7 2 4 3 3 7 2 6 6 1 1 10 2 12 5 4 1 12 12 12 1 2 7 1 10 7 12 8 12 6 4 2 5 5 3 3 2 10 5 10 8 3 6 2 5 1 5 3 3 12 7 1 3 8 6 8 10 10 7 1 10 10 12 1 7 3 4 5 12 3 2 1 8 7 7 8 12 8 7 8 10 2 3 12
split_gain=2.44927 1.51528 1.01859 0.806187 1.10736 0.612631 0.581581 0.579048 0.535372 0.896833 0.661143 0.437456 0.43695 0.432198 0.4063 0.387677 0.376493 0.371353 0.386466 0.364218 0.569765 0.363769 0.376731 0.339586 0.417039 0.428547 0.409361 0.308808 0.301849 0.458533 0.300969 0.297602 0.296686 0.295138 0.284264 0.283878 0.283668 0.385212 0.283262 0.475073 0.279383 0.273663 0.269906 0.259978 0.281648 0.283589 0.256472 0.299214 0.378945 0.255089 0.350793 0.25001 0.338218 0.24662 0.240733 0.238886 0.229453 0.235792 0.229015 0.227114 0.22661 0.218021 0.214523 0.213518 0.204769 0.203145 0.199573 0.196929 0.192862 0.189982 0.326807 0.186118 0.184614 0.234995 0.184344 0.342419 0.250792 0.223537 0.23193 0.179922 0.314821 0.176171 0.205452 0.174858 0.173642 0.158064 0.157697 0.185298 0.154638 0.154082 0.150524 0.217619 0.150194 0.148422 0.147284 0.142182 0.141306 0.1362 0.135005 0.19057 0.147706 0.133628 0.129634 0.126316 0.104513 0.102511 0.180791 0.10066 0.0910134 0.0794935 0.0783933 0.0715557 0.0571785 0.0357433 0.0179966
threshold=1.0000000180025095e-35 2539.5000000000005 -0.014999999664723871 94.495006561279311 1.1549999713897707 0.48448196053504949 0.6850000023841859 93.882347106933608 2026.5000000000002 0.17500000447034839 -0.87878364324569691 -3.8592071533203121 88.87683486938478 -4.822307586669921 0.75274702906608593 -9.1730041503906232 -15.128852844238279 -13.995922088623045 0.33779209852218633 -0.15576775372028348 -0.25207443535327906 -0.90500000119209278 89.18378067016603 -11.967460632324217 -0.72534674406051625 -0.39499999582767481 -0.03499999921768903 1207.5000000000002 0.77159520983695995 -14.782302856445311 -0.68832832574844349 96.773067474365249 0.92500001192092907 0.96811076998710643 2600.5000000000005 1879.5000000000002 91.210166931152358 1.1150000095367434 0.73783019185066234 0.80003163218498241 0.10500000044703485 0.38499999046325689 0.48920395970344549 -0.8149999976158141 -0.78306859731674183 -0.60181513428688038 -0.71322336792945851 1.2450000047683718 -1.0688787102699278 0.19111624360084536 -0.82788372039794911 0.22500000149011615 0.41499999165534979 95.331916809082045 -0.8149999976158141 0.37914176285266882 91.350673675537124 3.2754808664321904 -7.891674041748046 -1.184885501861572 0.43659789860248571 -0.56638476252555836 0.37500000000000006 0.6560589373111726 0.7603769600391389 2957.5000000000005 3026.5000000000005 -0.87499999999999989 0.088205367326736464 -0.26722811162471766 0.065744023770093932 -9.5503883361816388 2656.5000000000005 0.5768321454524995 0.31499999761581426 0.052336061373353011 -0.7849999964237212 -0.19080893695354459 2299.5000000000005 2108.5000000000005 -1.0926846265792844 92.712337493896499 -1.1649999618530271 2907.5000000000005 -15.990280151367186 0.38422267138957983 -7.4363174438476554 -0.31122089922428126 -0.34884989261627192 94.23309707641603 1.1050000190734866 0.29019753634929663 0.42819015681743627 1.1864435076713564 -0.31499999761581415 90.372127532958999 2467.5000000000005 0.87878364324569713 0.41467741131782537 -0.54309239983558644 2676.5000000000005 0.42499999701976782 0.50499999523162853 -12.280647277832029 92.129028320312514 91.032463073730483 -9.1390533447265607 -0.11318818479776381 -12.120315551757811 96.024959564208999 -12.280647277832029 -0.027509021572768685 -0.4849999994039535 1565.5000000000002 0.91740804910659801
decision_type=10 2 2 10 2 10 2 10 2 2 2 10 10 10 10 10 10 10 10 10 10 10 10 10 2 10 2 2 2 10 2 10 2 2 2 2 10 2 10 10 10 10 8 2 2 2 2 8 2 2 2 10 2 10 10 8 10 2 10 2 10 2 2 2 2 2 2 2 8 2 10 10 2 10 2 2 10 2 2 2 2 10 10 2 10 10 10 10 10 10 10 8 8 2 10 10 2 2 2 2 2 2 10 10 10 10 10 2 10 10 10 10 2 2 2
left_child=19 3 7 8 6 21 23 14 9 43 74 53 35 38 46 30 79 18 28 20 61 98 51 26 25 -25 41 -21 63 -30 -14 62 -17 -28 -33 55 37 -18 60 -40 88 -5 -38 67 45 -45 81 58 -49 50 -29 94 -53 -6 -37 -11 65 86 -48 -26 -8 -1 -24 -9 83 90 69 95 -42 70 -19 101 73 -20 77 85 -77 96 -79 80 -12 82 -3 107 -81 -76 87 -58 -15 -46 108 -92 -71 -74 -23 -2 -10 -88 105 100 -100 -59 -68 -83 -66 -4 -107 -16 -7 -55 -85 -101 -104 -52 -51
right_child=1 2 5 4 11 56 13 17 10 12 16 -13 15 40 64 32 36 66 72 27 -22 22 31 24 59 -27 33 49 29 -31 -32 34 -34 -35 -36 54 42 -39 39 -41 68 -43 -44 44 89 -47 47 48 -50 114 113 52 -54 109 -56 -57 57 71 -60 -61 -62 -63 -64 -65 104 -67 102 -69 -70 92 -72 -73 93 -75 75 76 -78 78 -80 84 -82 103 -84 110 -86 -87 97 -89 -90 -91 91 -93 -94 -95 -96 -97 -98 -99 99 111 -102 -103 112 -105 -106 106 -108 -109 -110 -111 -112 -113 -114 -115 -116
leaf_value=0.0011369089010192762 0.0021724302616020594 0.00059992395191272999 -0.0023723598032585952 -9.3662498818737172e-06 0.002798169740401338 0.0012252673853395714 0.00023489175246291423 -0.0017220448203125788 -0.00077255776691509902 0.0015964586284869691 0.0035163782731068276 0.0050869665158321514 -0.00021688647622779413 0.0004022228827820877 0.00058844295741826208 0.00044661694602517068 0.00023610984305181605 0.0017776307984151776 0.0019275887904835769 0.0034753871143701869 0.0067264115230634683 0.00050577810369794825 -8.5824466144117267e-05 0.0010126144525433995 -5.7416623339612979e-05 -2.8614961986613453e-05 -4.186305636012764e-05 -2.426809648431402e-06 0.0001508745732541495 0.0029702026036317114 0.0004675019265399686 9.9891079169666004e-05 0.0010897262289815308 -0.00088316144649506025 -0.00079885404862598008 0.0023585313966457636 5.8895987881063605e-05 -0.00060661539696183452 0.0020183541087484269 0.00023114294328303343 -0.0005675603267152261 0.00053628335597897387 -0.00033726485018477684 -0.00067025582105148833 -0.00025906271077306417 0.00038468688546622635 0.00035534341253942682 0.0007230287581719546 -0.00019292948355948325 -0.00081839868689284601 0.0023448826948227631 0.00051763462380984351 0.0028405206350643826 -0.00049071174021810286 -0.00031356343834146343 0.0042542674363646102 0.00092759368331849434 0.00022800428183023436 -2.8698687414043045e-05 -0.00031707627748520421 -0.00064909515900644498 0.0037556247335596713 -0.00033134504380016568 0.00031114065512758148 0.0018265580584724936 -0.0020092041321309673 0.00069658232823970306 0.0029300103816785853 0.0019195854137324846 -0.00031021788893274426 -0.0003448667477112874 -0.0014808539103153939 -0.0013730577061448893 -0.00059345601844111584 -0.00080893338513291402 -0.0015986859228951289 -0.00028552853781031837 0.00030208870071145018 -0.00026645527811874762 0.00023905890136772078 0.00058813602144838426 -5.0272309770317466e-05 -0.0004531988977422747 -0.00084011031079639505 0.00084716734636252093 0 -0.0010604495474314489 -0.00078767076717192394 0.002392525191280069 0.00077896654366725073 -0.00093857088443086351 -7.1633353895242431e-06 5.8307020177812935e-05 -0.00015065260683045243 -0.0017889883975870909 1.4063900303464648e-05 0.0005995078216297911 -0.0034780544293859955 -0.00087258823755606302 -0.0019269539589515411 0.0014236525024200993 0.0022774559820384209 -0.00056884885502473846 -0.0010788202167624724 -0.00026657302118837835 -0.0012922285210393023 0.00093245701067896545 -0.00073643482712131339 4.355928454817614e-05 0.0012223265437736504 -0.0027155920453428191 -0.00059640571742904569 -0.0013442921282096057 0.0039433528978363884 6.3222097014015188e-05
leaf_weight=175 101 865 181 4030 197 251 1883 132 1638 673 130 103 3834 130 158 17599 35399 314 151 168 102 153 28422 1047 11287 17231 4812 145 317 270 2759 1150 2012 1335 3614 111 86329 1406 487 1600 242 5291 4521 740 9711 4438 19919 1324 7609 101 102 517 229 119 332 100 157 339 4792 33760 1174 159 13008 3846 116 158 112 111 113 19259 420 119 626 231 812 991 591 3387 3811 4408 328 474 993 102 1620 2348 162 8384 494 368 994 1726 3202 428 124 322 207 100 106 147 193 106 410 857 114 781 100 1189 488 147 158 386 686 101 112
leaf_count=175 101 865 181 4030 197 251 1883 132 1638 673 130 103 3834 130 158 17599 35399 314 151 168 102 153 28422 1047 11287 17231 4812 145 317 270 2759 1150 2012 1335 3614 111 86329 1406 487 1600 242 5291 4521 740 9711 4438 19919 1324 7609 101 102 517 229 119 332 100 157 339 4792 33760 1174 159 13008 3846 116 158 112 111 113 19259 420 119 626 231 812 991 591 3387 3811 4408 328 474 993 102 1620 2348 162 8384 494 368 994 1726 3202 428 124 322 207 100 106 147 193 106 410 857 114 781 100 1189 488 147 158 386 686 101 112
internal_value=5.68427e-09 -6.52516e-06 -0.000146502 5.98324e-05 -6.77686e-05 -0.000293459 -8.25296e-05 -1.4319e-05 0.000116925 0.000271793 7.16513e-05 0.00213422 0.000444661 0.000386638 0.000113967 0.000401359 0.000105564 -0.000177645 0.000174209 0.00228835 0.00344123 -0.000212541 -0.000185142 -0.000119057 -0.000170385 3.08073e-05 9.07535e-05 0.00158822 0.000399875 0.00145902 6.87816e-05 -0.00020625 0.000512904 -0.000225503 -0.000580878 0.00137258 8.66325e-05 0.000203765 0.000202112 0.000651349 0.0013499 0.000299856 3.91232e-05 -2.80725e-05 -6.6366e-05 0.000232857 0.000150276 0.000190986 -5.65458e-05 0.001009 0.00184353 0.000762423 0.00124023 0.00145702 0.000348511 0.0019518 -0.000599102 -0.000730005 0.000280669 -0.00025213 -0.000103058 0.00240596 -0.000163039 0.000242002 -0.00061102 -0.000258608 -0.000264378 0.00105475 0.000213246 -0.000231431 0.000557503 0.000253994 -0.000539475 0.000392459 -0.000257972 -0.00051078 -0.00111177 -0.000124809 3.81858e-07 0.000477326 0.00143604 -0.000277571 3.44564e-05 -0.000812255 0.000403428 -0.000208067 -0.000793639 -0.000755451 0.00198719 -0.000220593 -0.000176642 -0.000349595 -0.000257459 -0.000882026 -0.000506236 0.000545119 -0.000615669 -0.00201193 -0.000892502 -0.000405974 0.000592739 0.000731411 -0.000892152 -0.000716597 0.000770785 -0.00126822 -0.00103327 -0.000576999 0.000452794 0.000438273 -0.00200502 -0.000975652 -0.00105955 0.00318012 -0.00033333
internal_weight=408953 407788 131169 276619 85482 62095 84916 69074 191137 43211 147926 566 27420 6123 38670 26204 134141 30404 6001 1165 436 49111 47217 78793 63325 18278 15468 729 4565 587 6593 46194 19611 6147 4764 1216 127655 36805 5144 2087 979 9321 90850 15791 15257 5178 36833 33644 8933 561 348 1023 746 463 443 773 12984 9367 24711 45047 3057 334 41430 3978 1837 3617 24403 534 355 23195 734 564 1436 382 13785 4742 1582 9043 7198 6486 458 3189 1858 1607 6028 3160 8803 8541 624 10079 3459 2720 22461 1054 277 423 1845 262 1894 832 299 445 1208 1331 230 1062 881 1347 739 266 260 533 1096 203 213
internal_count=408953 407788 131169 276619 85482 62095 84916 69074 191137 43211 147926 566 27420 6123 38670 26204 134141 30404 6001 1165 436 49111 47217 78793 63325 18278 15468 729 4565 587 6593 46194 19611 6147 4764 1216 127655 36805 5144 2087 979 9321 90850 15791 15257 5178 36833 33644 8933 561 348 1023 746 463 443 773 12984 9367 24711 45047 3057 334 41430 3978 1837 3617 24403 534 355 23195 734 564 1436 382 13785 4742 1582 9043 7198 6486 458 3189 1858 1607 6028 3160 8803 8541 624 10079 3459 2720 22461 1054 277 423 1845 262 1894 832 299 445 1208 1331 230 1062 881 1347 739 266 260 533 1096 203 213
is_linear=0
shrinkage=0.05


Tree=3
num_leaves=122
num_cat=0
split_feature=0 3 5 0 6 11 4 0 12 4 12 0 10 1 1 6 10 1 7 4 11 0 0 7 4 7 12 7 10 11 10 1 6 10 12 10 7 7 0 6 11 6 10 6 7 5 10 7 5 3 11 0 4 5 1 1 7 0 12 3 5 10 3 3 3 4 10 1 4 1 1 10 11 4 4 11 6 11 5 12 3 1 5 0 3 12 11 5 11 11 11 12 1 6 10 12 0 10 0 0 11 11 10 3 11 11 3 3 3 1 11 3 12 4 12 0 6 11 11 11 1
split_gain=2.45976 1.37789 0.77007 1.02571 0.843159 0.754714 0.639307 0.62458 0.535124 0.5199 0.513283 0.580487 0.489096 0.463524 0.517297 0.415622 0.408341 0.3857 0.474412 0.406964 0.376595 0.342679 0.336518 0.310795 0.315762 0.335316 0.308319 0.306623 0.306286 0.408201 0.288182 0.35616 0.302755 0.280064 0.280035 0.27623 0.388668 0.382838 0.620366 0.283452 0.265463 0.262753 0.574559 0.281622 0.259172 0.258329 0.251615 0.249269 0.246996 0.243905 0.241869 0.245864 0.237617 0.237238 0.223176 0.22256 0.357975 0.220583 0.218473 0.348564 0.240962 0.21601 0.524437 0.26019 0.360537 0.213826 0.211552 0.325747 0.215217 0.203221 0.200062 0.19273 0.192302 0.189391 0.614371 0.250411 0.188721 0.205449 0.181289 0.374848 0.181098 0.178832 0.177294 0.169202 0.199379 0.162026 0.161223 0.159014 0.155839 0.155459 0.152872 0.152049 0.151844 0.146864 0.133159 0.132549 0.1577 0.205697 0.148519 0.131232 0.152993 0.161446 0.130466 0.128024 0.17318 0.118746 0.249018 0.155102 0.115459 0.115169 0.114708 0.110193 0.0985005 0.0945421 0.0865843 0.0800552 0.0800119 0.0693473 0.063037 0.0773945 0.0625036
threshold=66.549999237060561 2539.5000000000005 -0.55191597342491139 82.149997711181655 0.70674085617065441 0.058038312941789634 -0.40673650801181788 80.450000762939467 -0.95581203699111927 -0.68832832574844349 1.1177657842636111 82.549999237060561 -0.46344453096389765 -0.93500000238418568 1.4049999713897707 0.69921237230300914 -0.088782329112291322 1.2150000333786013 95.138690948486342 -0.90255096554756153 -0.282825157046318 83.850002288818374 84.049999237060561 95.526355743408217 0.25881908833980566 91.270027160644545 4.9552068710327157 98.940689086914077 0.325162023305893 -0.017072629183530804 0.015338811092078687 0.65500000119209301 0.56640172004699718 -0.49707287549972529 -0.11318818479776381 0.24724020808935168 93.136726379394545 89.18378067016603 80.549999237060561 0.76199379563331615 -0.47198531031608576 0.35620903968811041 -0.49707287549972529 0.36760622262954717 96.667526245117202 0.19080896675586703 -0.012656919192522762 98.82678604125978 0.25881902873516088 2957.5000000000005 0.024117458611726764 78.250000000000014 0.99535831809043895 0.4226182252168656 1.2150000333786013 0.2650000005960465 93.300609588623061 94.049999237060561 -0.80482983589172352 1000.5000000000001 -0.19080893695354459 -0.1293089762330055 1406.5000000000002 1610.5000000000002 1207.5000000000002 -0.62249088287353505 0.36430524289608007 1.4450000524520876 0.16504132747650149 -0.41499999165534968 1.5950000286102297 0.12510264664888385 0.22643987834453586 0.96359375119209301 0.92718383669853222 0.28926934301853185 1.0718777775764468 -0.50712701678276051 0.061046328395605094 1.5863461494445803 2668.5000000000005 -1.3949999809265134 -0.98897820711135853 84.149997711181655 2785.5000000000005 4.9552068710327157 -0.3644897043704986 -0.84335932135581959 0.69429278373718273 0.56143063306808483 0.20374995470047 -0.24806049466133115 1.9149999618530276 0.48448196053504949 0.14999364316463473 0.46073216199874883 82.649997711181655 -0.21284130215644834 81.850002288818374 82.049999237060561 0.11932689324021341 -0.10515930876135825 0.35060346126556402 2738.5000000000005 0.30549235641956335 -0.70869314670562733 2437.5000000000005 1117.5000000000002 2579.5000000000005 1.2450000047683718 -0.14749436825513837 2586.5000000000005 0.056800879538059242 0.93663653731346141 -0.87064963579177845 81.049999237060561 0.14056047797203067 -0.12584102153778073 0.64560675621032726 0.76138389110565197 1.3550000190734866
decision_type=2 2 2 2 10 10 2 2 2 2 2 2 8 8 10 8 8 10 10 2 10 2 2 10 2 8 2 10 10 10 8 10 10 10 2 10 10 10 2 10 8 10 10 10 8 2 10 8 2 2 10 2 2 2 10 10 10 2 2 2 2 8 2 2 2 2 8 10 2 10 10 10 8 2 2 8 8 8 2 2 2 10 2 2 2 2 10 2 10 10 10 2 10 10 10 2 2 8 2 2 8 10 10 2 10 8 2 2 2 10 10 2 2 2 2 2 10 10 10 10 10
left_child=61 2 4 6 12 7 99 8 66 10 11 91 41 95 21 27 -13 19 71 89 76 33 78 24 88 -26 72 34 73 54 31 46 -33 -15 45 37 69 38 -11 -38 -25 55 43 -43 -23 -5 -10 49 -36 -24 52 -52 -32 -31 -30 82 -57 -42 59 -22 -60 62 -1 64 -63 -39 67 68 -3 -37 86 80 -12 74 -8 -75 102 -78 79 -21 109 -80 -2 84 90 110 -68 -66 -14 103 -20 -6 94 -82 -73 96 98 -98 -9 105 101 -101 -17 116 -105 106 -4 -107 -97 -19 -16 -49 114 120 -29 -110 -7 -114 -91 -120 -85
right_child=1 5 3 15 9 17 28 13 30 35 26 16 23 14 85 20 -18 18 83 22 58 44 47 40 25 -27 -28 112 29 53 50 32 -34 -35 48 36 39 65 -40 -41 57 42 -44 -45 -46 -47 -48 111 -50 -51 51 -53 -54 -55 -56 56 -58 -59 60 -61 -62 63 -64 -65 87 -67 70 -69 -70 -71 -72 92 -74 75 -76 -77 77 -79 81 -81 93 -83 -84 113 -86 -87 -88 -89 -90 118 -92 -93 -94 -95 -96 108 97 -99 -100 100 -102 -103 -104 104 -106 107 -108 -109 115 -111 -112 -113 117 -115 -116 -117 -118 -119 119 -121 -122
leaf_value=0.0020941552189025592 0.0010325564395947979 4.0419913500293415e-05 -1.7305805381229722e-05 7.8540905100425208e-05 -2.7744943295289912e-05 0.00055789231834020092 0.00029086452405448156 -0.0011887576643402438 -7.8007321575092998e-05 0.00078270732039545832 -0.0006194633375336666 0.00034906740737993664 5.2089780352001877e-05 0.00091270128450785058 -0.00040540239136383773 -0.00034250741156814017 0.0011967420246844439 0.00062753891279355859 -0.0014377042364973863 -0.00073046250845543734 -0.0014026066852483629 -8.9370518823172378e-05 -0.00024262486494687529 0.0021277779283728013 0.00059732007981510118 0.00015795267803234706 0.002378688441606722 -0.0011100755190849305 0.00069472832466141985 -0.00068740030330224292 -7.1975968145736582e-05 0.00091885316543926338 0.0036744303024060761 6.2651229827376782e-05 -0.0003549677626114566 0.0016675575645708975 0.0010951398822434692 0.0010032251609579388 0.004301197605075583 0.0042615362124675017 -0.00018948007360519221 0.0030959806190538636 0.0042990263153923989 0.00054950299461976307 -0.00044118217240618799 -0.00017002802686309787 0.0019937323323163973 -6.1495073565865971e-05 -0.00012210042074762943 -0.001007532272330926 0.0026551024023998785 0.00019484861426312348 -0.0024293844114247438 1.0016754940919021e-05 1.2269999413325444e-05 0.003576582659393045 -0.00030593412905895656 0.0016046829491307302 0.00021707984715096728 0.00071745642490587513 -0.00051413991946347199 0.0032436384390955066 0.0064555521610942072 0.0042665598158676986 -0.0010546714609793934 0.00032403868707460312 0.0010987698895436142 0.0035989581198345891 0.0009913426380673111 -0.00020417784734409511 0.0019349746637260625 0.00052269629059348754 0.00018232724020307675 0.00033380644440227493 0.0010315089052035859 -0.0002842203209551937 0.0025538007966079343 -0.00028954585224551997 -0.00091830771789936565 0.0014446771267051521 -0.0012024941971092403 0.00013989117183752008 0.00011554898290784988 -0.0010088635837962863 -0.0027116901609786533 0.0010293280803362686 -0.00070744560058046905 0.0013832601134856834 -0.00056869340343657787 0.0009925751189189386 0.00091413419532640646 -0.0012386794465687927 0.0014501092996482457 -0.0030245397394682641 -0.00047423325354044868 0.0007330524962002688 0 -0.0023450289455400758 0.00025480248721565258 0.00052825103012995949 -0.0003889190930435639 0.0030558633673296986 -0.0015150874666869643 -0.0010304843169651207 -0.0029085716721846872 -0.0012834046868097394 0.0027134422423416935 -0.00012299586377678863 0.00031068328225121992 -0.0010111288408542636 -0.00086048320592884732 -0.0018684304650711419 0.00024727036649015101 -0.0034492571517204247 -0.0031233115091495092 -0.00073830782763942759 -0.00086500296784409461 -0.0012613905271036158 -0.0013122042690906508 0.00054987268757408943 -0.002483657685380755
leaf_weight=189 637 791 306 20793 604 101 26462 476 1840 396 2087 3425 45317 1018 3650 3065 2457 177 129 1544 204 33159 16139 126 5681 18671 107 124 2205 2340 12314 992 112 20350 20438 339 120 1806 186 194 13452 122 133 1035 6232 20986 158 117 25928 1119 160 289 107 2516 2655 132 103 172 8944 3195 1285 178 114 109 115 3332 154 105 2546 245 112 348 1152 3915 3139 2812 113 137 414 225 443 9956 3144 147 110 157 585 154 1032 130 145 465 108 157 6373 181 123 402 276 184 181 101 260 393 189 293 112 17123 204 261 2308 368 112 149 113 1285 1447 207 112 105 182
leaf_count=189 637 791 306 20793 604 101 26462 476 1840 396 2087 3425 45317 1018 3650 3065 2457 177 129 1544 204 33159 16139 126 5681 18671 107 124 2205 2340 12314 992 112 20350 20438 339 120 1806 186 194 13452 122 133 1035 6232 20986 158 117 25928 1119 160 289 107 2516 2655 132 103 172 8944 3195 1285 178 114 109 115 3332 154 105 2546 245 112 348 1152 3915 3139 2812 113 137 414 225 443 9956 3144 147 110 157 585 154 1032 130 145 465 108 157 6373 181 123 402 276 184 181 101 260 393 189 293 112 17123 204 261 2308 368 112 149 113 1285 1447 207 112 105 182
internal_value=1.30481e-08 -5.60394e-06 5.76163e-05 -8.35562e-06 0.000162953 -0.000139105 0.000149062 -5.80392e-05 0.000186228 0.000486837 0.000263854 0.000508988 0.000101856 -0.000129009 -0.000101872 -0.000104045 0.000704147 -0.000316716 -0.000612019 -0.000236885 0.000120708 -5.76589e-05 -0.000185603 7.25284e-05 0.000114868 0.000260677 -0.000243895 -0.000147692 0.000248451 -3.94374e-07 5.26666e-05 0.000485344 0.001206 0.000103424 -0.000140237 0.00083293 0.00165212 0.000703183 0.0019212 0.00307464 -0.000144807 0.00056759 0.0011899 0.000824776 -0.000145167 -4.61991e-05 8.42381e-05 -0.000324397 -0.000224861 -0.000292566 -5.1261e-05 0.00108662 -9.28802e-05 -0.000325096 0.000323012 0.000366204 0.00185961 -0.000166346 0.00024074 0.00058837 0.000124692 0.00267125 0.00376736 0.00205924 0.00150151 0.000563894 0.000681847 0.000856361 0.000767514 0.000874772 -1.83118e-05 -0.000488978 -0.000332783 0.000315141 0.000369606 7.47138e-05 -0.0003354 0.000980781 1.68642e-05 -0.000450321 -0.00112608 9.70783e-05 0.000271595 -0.00172728 -0.000920612 -0.000540279 -0.000323316 0.000322457 3.81477e-05 -0.000853198 -0.000176138 -0.000559823 -0.000391256 -0.00169182 -0.0004218 -0.000742867 -0.0011288 -0.00179877 -0.000652665 -0.000100735 0.000725142 0.00144904 -0.000436129 -0.00101326 -0.0016529 -0.000122635 0.000707174 -0.000142878 -0.00044426 -0.000337617 -0.000582645 -0.00144384 -0.00131821 -0.00236161 -0.00210007 -0.000591123 -0.000768637 -0.000716961 0.000115042 -0.000389874 -0.00184491
internal_weight=408953 408094 276920 170248 106672 131174 64344 90086 20265 16915 10297 6951 89757 69821 66874 105904 5882 41088 8729 32359 17203 60759 29882 84451 70701 24352 3346 88701 46044 9716 15972 3102 1104 21368 88145 6618 898 5720 582 314 13750 5306 1290 1157 39391 41779 1998 17743 46366 17258 12870 449 12421 4856 4860 4016 235 13624 13628 3399 10229 859 303 556 447 5138 4293 3442 3337 584 851 7867 3239 36328 29601 6727 3575 250 12139 1769 1038 10370 3781 862 384 6115 739 269 46349 2477 274 1069 6829 600 6721 2947 1277 525 752 18300 466 285 3325 2130 582 17834 418 17416 1670 438 5958 485 556 478 237 1489 1548 319 347 217 329
internal_count=408953 408094 276920 170248 106672 131174 64344 90086 20265 16915 10297 6951 89757 69821 66874 105904 5882 41088 8729 32359 17203 60759 29882 84451 70701 24352 3346 88701 46044 9716 15972 3102 1104 21368 88145 6618 898 5720 582 314 13750 5306 1290 1157 39391 41779 1998 17743 46366 17258 12870 449 12421 4856 4860 4016 235 13624 13628 3399 10229 859 303 556 447 5138 4293 3442 3337 584 851 7867 3239 36328 29601 6727 3575 250 12139 1769 1038 10370 3781 862 384 6115 739 269 46349 2477 274 1069 6829 600 6721 2947 1277 525 752 18300 466 285 3325 2130 582 17834 418 17416 1670 438 5958 485 556 478 237 1489 1548 319 347 217 329
is_linear=0
shrinkage=0.05


Tree=4
num_leaves=114
num_cat=0
split_feature=0 3 2 7 2 3 2 4 2 5 0 3 9 2 7 3 10 12 3 10 10 7 0 10 12 4 0 9 12 10 10 7 4 9 10 5 10 2 10 9 6 10 5 3 12 12 3 9 6 9 5 5 6 6 6 9 9 0 4 9 5 9 4 7 7 0 3 0 7 9 6 7 9 4 2 10 5 0 10 6 9 10 5 7 7 0 0 0 5 5 3 6 6 4 9 5 6 12 12 9 12 6 7 2 12 7 6 2 10 4 10 2 0
split_gain=2.22311 1.25892 0.841773 0.836752 0.954672 0.567923 0.79985 0.644207 0.507431 0.78745 0.535037 0.50792 0.435755 0.402413 0.371328 0.418982 0.49506 0.371366 0.446365 0.371131 0.365512 0.330844 0.328862 0.569922 0.326152 0.317156 0.471702 0.34583 0.312912 0.448262 0.493056 0.307795 0.411101 0.454419 0.333241 0.289956 0.260238 0.257639 0.257632 0.256878 0.255284 0.26786 0.250234 0.246578 0.252255 0.244689 0.25215 0.244525 0.263845 0.24095 0.236482 0.236358 0.235079 0.315128 0.291456 0.223465 0.369258 0.2673 0.287825 0.222172 0.220807 0.211781 0.203515 0.232552 0.20311 0.201152 0.199775 0.19936 0.197884 0.194024 0.193757 0.249857 0.199418 0.191153 0.190406 0.187771 0.183361 0.176114 0.168404 0.178646 0.168321 0.166348 0.162385 0.264702 0.211031 0.163254 0.162247 0.221918 0.149645 0.147199 0.14633 0.137803 0.136137 0.200679 0.172981 0.133113 0.129093 0.126291 0.131413 0.123967 0.119263 0.116799 0.107726 0.0881357 0.0832007 0.0828334 0.0820925 0.0773505 0.0740206 0.0646182 0.0588126 0.0475153 0.0298305
threshold=66.549999237060561 2636.5000000000005 -0.03499999921768903 94.495006561279311 1.1549999713897707 2026.5000000000002 0.085000000894069686 -0.87878364324569691 0.45499999821186071 -0.10452841967344283 83.350002288818374 2347.5000000000005 33.049999237060554 -0.34499999880790705 88.87683486938478 1879.5000000000002 0.40265785157680517 0.81241637468338024 1207.5000000000002 -0.6757526397705077 0.15368907898664477 98.872097015380874 82.450000762939467 0.52666142582893383 0.21032294631004336 0.9536806344985963 82.750000000000014 30.250000000000004 -1.1379095315933225 0.17601995915174487 0.35060346126556402 91.270027160644545 -0.2503704354166984 3.1499999761581425 -0.15226554870605466 -0.2923718243837356 0.28529955446720129 0.31499999761581426 0.13556573539972308 46.149999618530281 0.19962866604328158 0.20772817730903628 0.82409474253654491 2943.5000000000005 2.7500621080398564 -3.8101403713226314 3006.5000000000005 39.649999618530281 0.55989691615104686 20.849999427795414 -0.35019394755363459 0.43049462139606481 0.48159471154212957 0.49924612045288091 0.40727654099464422 52.95000076293946 49.350000381469734 54.850000381469734 -0.68832832574844349 33.049999237060554 -0.94828754663467396 19.349999427795414 0.9170251488685609 94.908142089843764 98.51822662353517 91.850002288818374 2573.5000000000005 81.750000000000014 93.109260559082045 28.050000190734867 0.36460734903812414 94.349845886230483 64.149997711181655 -0.94828751683235157 -0.98500001430511464 -0.22833534330129621 -0.69465830922126759 93.450000762939467 -0.12310495600104331 0.72199451923370372 44.350000381469734 -0.037206878885626786 0.68199834227561962 95.285762786865249 94.932922363281264 83.350002288818374 83.450000762939467 82.250000000000014 0.62249094247818004 0.64278754591941845 2972.5000000000005 0.59495460987091076 0.32014574110507971 -0.91702511906623829 20.849999427795414 0.62249094247818004 0.50512960553169262 0.70845064520835888 0.22931750863790515 37.649999618530281 -1.7919318079948423 0.34542222321033483 92.870037078857436 -0.41499999165534968 -4.1116778850555411 95.778659820556655 0.33489239215850836 -1.424999952316284 0.36430524289608007 -0.96811076998710621 -0.18673694878816602 -0.37499999999999994 84.250000000000014
decision_type=2 2 2 10 2 2 2 2 2 2 2 2 8 2 10 2 8 2 2 8 10 10 2 8 2 2 2 8 2 10 10 10 2 8 10 2 8 2 8 10 10 8 2 2 2 2 2 10 10 8 2 2 10 10 10 10 10 2 2 10 2 10 2 10 10 2 2 2 10 10 10 10 10 2 2 10 2 2 8 10 10 10 2 10 10 2 2 2 2 2 2 10 10 2 10 2 10 2 2 10 2 10 10 2 2 10 10 2 10 2 10 2 2
left_child=55 3 22 5 8 6 36 37 10 40 12 80 89 25 15 16 -8 18 -16 39 31 65 23 28 -14 27 -27 -9 29 42 -31 32 109 -34 -35 -21 59 52 43 -15 -10 -42 -3 44 -33 104 64 48 51 61 69 -25 54 -54 -7 56 57 99 -59 88 -6 -38 74 -64 90 -12 -13 -19 -45 -39 71 -30 -72 -52 -48 -61 78 -23 -62 -80 -11 -57 83 92 102 105 87 -40 -2 -5 -47 -50 94 -94 -22 -87 -17 98 -49 -1 -51 -88 -84 -66 106 -85 111 -99 -86 -4 -111 -24 -104
right_child=1 2 20 4 60 7 14 13 9 11 21 66 24 19 17 96 -18 67 -20 35 82 77 45 47 -26 26 -28 -29 70 30 -32 38 33 34 -36 -37 49 50 86 -41 41 -43 -44 68 -46 46 62 97 91 100 73 -53 53 -55 -56 81 -58 58 -60 75 76 -63 63 -65 103 -67 -68 -69 -70 -71 72 -73 -74 -75 -76 -77 -78 -79 79 -81 -82 -83 84 85 108 95 101 -89 -90 -91 -92 -93 93 -95 -96 -97 -98 107 -100 -101 -102 -103 112 -105 -106 -107 -108 -109 -110 110 -112 -113 -114
leaf_value=0.0024207001308089882 -0.00037173907964514248 8.9480300184274119e-06 7.5134609396067953e-05 -0.00020039979624735535 -0.00012551936510841823 -0.0001402372474812543 0.0013521965953703229 -0.00024785649325126673 0.0023178164013322225 0.00090542371449431531 -0.00018272936956607573 -0.001219737909452622 0.00055072115526848796 0.00052712333950117013 -0.00027312785037869386 0.0014110722369166898 0.0049722030033465155 -0.00042221288756272491 0.00054753993639774991 0.00010807952186370076 -0.0019104232063510463 -0.0011430780522253656 -0.0019967387689023538 0.0022184530830503825 6.4274285875978614e-06 0.0023783400108489351 1.6172609583553032e-05 0.00028824966581368649 0.00029740023586782632 0.0019383321953768057 8.7558926122624002e-05 -0.00030975593101156259 -0.0022467025566548417 0.0020369169278037706 0.0004619199661378173 -3.9966177829788482e-05 -0.00022157078240324105 -0.0011461612851225388 0.00048544243826957731 0.0025002902161565376 0.00018502037607677222 0.00089407627037507318 0.0011669085293762784 -8.8477041282890274e-05 0.00049730497596221811 -8.5724379734828551e-05 0.00065870769921487558 5.7131314085340885e-05 -0.0021981168231927496 -0.00011444149789725333 -0.00054966782981893795 -0.00042251578931097611 0.0018412045287185326 8.8692130782913982e-05 -0.0010638587587927211 0.0053909137848126556 -0.00049828504820746678 0.0013545728554122177 0.0046887624527777796 -0.00015005327135075191 0.0047114567260189552 0.0017673017516341293 0.0019775973065328358 -0.00098939324577904152 -0.0018540582015844625 -0.0008982490409053678 -5.3068863570137451e-06 0.00019452200824254549 -0.0012481221137365872 0.00039026529088825737 1.7128489967636856e-05 0.0020278744510667476 0.0016123195975812988 -0.0014491438318654125 -0.00098200702340057338 0.00046303090526239029 0.00087180538816125945 0.00093865452804257747 0.0036245481746612187 0.00071744708663962751 -0.0011602391866851662 0.00256809120039804 0.00043210597900119989 -0.00061584016062940158 0.00029732857130047884 -0.0013118331044389363 0.00048521994150840472 0.0034163628673345293 0.00037892393243892992 -0.0010195041613649659 0.00064024885502205473 -0.00095822825916242024 -0.0013860333567639049 -0.0005032746513509086 -0.0001314327027075315 0 -0.00035741148948460099 -0.0016951992420618919 0.0015698564293658516 0 -0.0011106553280064001 -0.0011983004626716033 -0.0018300719427553796 -0.00032234285895979515 -0.0021034299252033471 0.0011799199220741184 0.00047442358606540174 -0.00025557759295925461 0.0021261803624347772 -0.00023015375657884694 -0.0015630788716079142 -0.00074837294452590874 -0.00058554279168264098
leaf_weight=100 3541 2600 129 2619 102 6197 932 3410 150 580 62193 1805 5490 2003 1814 133 106 1568 18174 68736 142 1273 109 101 5556 426 427 24935 887 982 577 15567 121 470 1219 63682 759 257 191 181 15087 1466 570 546 1027 19885 192 600 297 406 3479 498 278 3301 994 106 115 105 197 1909 108 161 147 116 225 1001 427 7860 1192 1001 13367 276 198 724 1770 3554 148 107 111 111 116 130 184 149 101 1953 411 101 810 702 717 1069 699 9395 3443 217 445 106 191 106 1300 136 103 177 158 110 102 878 145 129 292 349 123
leaf_count=100 3541 2600 129 2619 102 6197 932 3410 150 580 62193 1805 5490 2003 1814 133 106 1568 18174 68736 142 1273 109 101 5556 426 427 24935 887 982 577 15567 121 470 1219 63682 759 257 191 181 15087 1466 570 546 1027 19885 192 600 297 406 3479 498 278 3301 994 106 115 105 197 1909 108 161 147 116 225 1001 427 7860 1192 1001 13367 276 198 724 1770 3554 148 107 111 111 116 130 184 149 101 1953 411 101 810 702 717 1069 699 9395 3443 217 445 106 191 106 1300 136 103 177 158 110 102 878 145 129 292 349 123
internal_value=2.30143e-08 -5.31633e-06 -0.000175985 3.98617e-05 -8.10007e-05 9.3502e-05 0.000255728 5.43005e-05 -9.29593e-05 0.000134391 -0.000149561 -0.000621309 0.000126181 8.40968e-05 0.000391544 0.00113068 0.00173111 0.000350732 0.000472801 4.75495e-05 -0.00035013 -0.000210989 -3.44177e-05 9.96215e-05 0.000277426 0.0002524 0.00120313 0.000223571 0.00020846 0.000562488 0.00125704 -0.000213419 0.000324311 0.000689582 0.000904101 3.68444e-05 -8.26743e-05 -0.000246076 -0.000279889 0.000694008 0.000267193 0.000248169 0.000219041 -0.000319285 -0.000259479 -0.000164466 -0.000136095 -0.000465166 -0.000849388 -0.000524793 -0.000526023 1.74114e-05 -0.000103628 0.000226692 -0.000268733 0.00253951 0.0020204 0.00260026 0.00355432 3.51585e-05 0.00193945 0.000122594 -0.000642443 0.000651233 -8.21905e-05 -0.000194156 -0.000989753 9.13867e-05 -0.00088695 7.17524e-05 9.4415e-05 0.000713757 4.08982e-05 -0.000706107 -0.000818647 0.00024789 0.00238988 -0.000977485 0.00305091 0.00220315 0.000552802 0.00387446 -0.000525393 -0.000556892 0.000240114 -0.00103956 0.000574306 0.00152448 -0.000230789 -0.000375304 -6.01862e-05 -0.00123288 -0.000470748 -0.000565031 -0.000203805 -0.00118136 4.2622e-05 -3.67628e-05 0.000430238 0.00116702 -0.000876708 5.61012e-05 -0.000445244 -0.00119453 -0.00107392 0.000129212 -0.000771312 -0.000417299 0.0013998 -0.000867758 -0.00116801 -0.00106007 -0.00118033
internal_weight=408953 408094 85439 322655 99152 223503 43472 180031 98572 19631 78941 2928 14367 163800 31032 1616 1038 29416 19988 134602 38295 64574 47144 23197 11046 29198 853 28345 19457 4729 1559 21531 2360 1810 1689 132418 12440 16231 19171 2184 16703 16553 3170 18332 16594 23947 23229 3740 1965 2626 5461 599 10770 3579 7191 859 623 508 302 9814 580 920 2225 263 21004 63194 2232 9428 1738 1258 14728 1163 13565 4203 1962 5463 478 1380 330 222 696 236 16764 16108 656 2429 839 292 4351 3321 20602 1366 13679 10094 3585 2170 578 1775 791 206 1706 547 410 402 718 259 560 984 246 550 421 458 226
internal_count=408953 408094 85439 322655 99152 223503 43472 180031 98572 19631 78941 2928 14367 163800 31032 1616 1038 29416 19988 134602 38295 64574 47144 23197 11046 29198 853 28345 19457 4729 1559 21531 2360 1810 1689 132418 12440 16231 19171 2184 16703 16553 3170 18332 16594 23947 23229 3740 1965 2626 5461 599 10770 3579 7191 859 623 508 302 9814 580 920 2225 263 21004 63194 2232 9428 1738 1258 14728 1163 13565 4203 1962 5463 478 1380 330 222 696 236 16764 16108 656 2429 839 292 4351 3321 20602 1366 13679 10094 3585 2170 578 1775 791 206 1706 547 410 402 718 259 560 984 246 550 421 458 226
is_linear=0
shrinkage=0.05


Tree=5
num_leaves=118
num_cat=0
split_feature=0 3 11 7 0 9 5 8 1 4 1 4 1 4 1 7 7 8 12 7 3 12 4 11 0 5 9 9 5 7 3 1 1 9 7 4 7 3 3 8 8 8 1 7 4 7 9 4 12 4 5 12 0 5 11 7 8 1 9 9 0 4 0 9 12 12 9 1 0 9 12 11 1 4 4 8 4 7 8 0 12 7 8 12 4 8 4 9 11 5 5 3 1 4 11 9 8 8 11 1 9 3 3 12 9 8 3 1 3 9 8 7 1 1 8 12 1
split_gain=2.00905 1.13896 0.754423 0.638585 0.591658 0.790441 0.493852 0.626573 0.458534 0.465478 0.429805 0.372322 0.366322 0.362451 0.358362 0.352206 0.334518 0.314972 0.308582 0.30331 0.3018 0.335648 0.429943 0.297947 0.312479 0.295715 0.293677 0.292513 0.291246 0.289191 0.287862 0.274557 0.268077 0.26792 0.299445 0.272955 0.259527 0.258362 0.252766 0.251737 0.23573 0.357156 0.23495 0.79399 0.255691 0.23461 0.227436 0.227406 0.225359 0.250216 0.224611 0.221773 0.386586 0.221081 0.215172 0.209705 0.406823 0.206993 0.201654 0.33403 0.241172 0.259176 0.200648 0.196347 0.193336 0.254936 0.191702 0.191327 0.190235 0.189702 0.185497 0.219494 0.357108 0.182464 0.262017 0.385077 0.177611 0.173437 0.19907 0.169907 0.265712 0.19182 0.169172 0.166797 0.166614 0.164954 0.163514 0.158257 0.155776 0.194654 0.245984 0.226391 0.187082 0.171629 0.144517 0.164371 0.143936 0.143091 0.140987 0.140005 0.13545 0.134653 0.130198 0.13013 0.128511 0.202262 0.141881 0.121041 0.116685 0.112125 0.10953 0.105208 0.0965859 0.0947804 0.0823732 0.0764993 0.0540117
threshold=66.549999237060561 2473.5000000000005 0.0070466389879584321 95.245410919189467 82.850002288818374 31.250000000000004 -0.43837104737758631 -10.802204132080076 1.2749999761581423 0.20791165530681613 -1.1449999809265134 -0.72534677386283863 1.2050000429153445 -0.90255096554756153 0.014999999664723875 95.159519195556655 91.270027160644545 -13.886524200439451 1.6706276535987856 89.640186309814467 2768.5000000000005 2.9872419834136967 0.99140709638595592 -0.043457103893160813 85.049999237060561 0.34202010929584509 33.850000381469734 16.349999427795414 0.15643451362848285 95.033554077148452 1879.5000000000002 1.8650000095367434 -0.7250000238418578 33.049999237060554 94.573722839355483 0.79863548278808605 93.903640747070327 2779.5000000000005 2957.5000000000005 -6.341228485107421 -13.418930053710936 -12.017921447753904 -0.57499998807907093 89.696052551269545 0.25881908833980566 87.113803863525405 36.649999618530281 0.13052122667431834 4.2038605213165292 0.6883283555507661 0.4226182252168656 1.1177657842636111 89.649997711181655 0.71933969855308544 0.27413611114025122 95.656806945800795 -6.1098403930664054 -1.2849999666213987 52.95000076293946 49.350000381469734 54.850000381469734 -0.68832832574844349 85.750000000000014 36.45000076293946 -0.95581203699111927 -1.5316914916038511 40.649999618530281 -0.51499998569488514 84.149997711181655 41.350000381469734 -2.44824206829071 -0.18376702070236203 0.30500000715255743 0.9996192753314973 0.99353402853012096 -10.468288421630858 0.46173107624053961 98.940689086914077 -7.7018318176269522 86.149997711181655 -4.7989718914031974 93.593650817871108 -6.1587486267089835 1.6986545920372011 0.90992662310600292 -12.120315551757811 0.99687939882278453 12.650000095367433 -0.074127428233623491 -0.80382627248764027 -0.9238443374633788 2389.5000000000005 -0.7849999964237212 -0.58068084716796864 0.56143063306808483 17.750000000000004 -9.1730041503906232 -10.359767913818358 0.037540229037404067 0.25499999523162847 47.350000381469734 2222.5000000000005 2331.5000000000005 -1.9547712206840513 38.049999237060554 -7.3555641174316397 2026.5000000000002 0.034999999217689044 2576.5000000000005 37.649999618530281 -11.967460632324217 90.816150665283217 0.38499999046325689 -1.1649999618530271 -7.7813568115234366 -3.2809538841247554 -1.2450000047683714
decision_type=2 2 10 10 2 10 2 10 8 2 8 2 10 2 10 8 10 10 2 10 2 2 2 10 2 2 10 10 2 10 2 10 10 10 10 2 10 2 2 10 10 10 10 10 2 10 10 2 2 2 2 2 2 2 10 10 10 10 10 10 2 2 2 10 2 2 10 10 2 10 2 10 10 2 2 10 2 10 10 2 2 10 10 2 2 10 2 8 10 2 2 2 10 2 10 10 10 10 10 10 10 2 2 2 10 10 2 10 2 10 10 10 10 10 10 2 10
left_child=58 3 4 6 5 31 15 11 9 113 29 83 13 27 84 18 73 26 42 -16 21 28 -23 24 70 -11 -6 40 -19 30 -9 64 69 34 -13 -35 79 62 46 57 -4 -42 43 -2 -44 -20 -38 55 49 -10 94 52 -49 -28 76 56 -41 104 59 60 109 -62 -22 -57 65 -3 -39 111 96 -17 99 72 -72 74 85 -76 -34 78 -59 80 -15 -81 -47 87 -12 -14 -66 -8 89 90 -26 -91 116 -94 95 -18 -52 -69 -60 110 -70 -73 -85 -40 106 -106 -25 -79 -96 -1 -5 -29 -53 -7 -31 -101 -90
right_child=1 2 12 23 17 8 7 10 48 25 14 33 16 36 19 32 50 20 45 -21 37 22 -24 39 88 -27 53 67 -30 114 -32 -33 54 35 -36 -37 38 66 103 47 41 -43 44 -45 -46 82 -48 51 -50 -51 68 112 -54 -55 -56 63 -58 77 98 -61 61 -63 -64 -65 86 -67 -68 97 100 -71 71 101 -74 -75 75 -77 -78 107 -80 81 -82 -83 -84 102 -86 -87 -88 -89 92 91 -92 -93 93 -95 108 -97 -98 -99 -100 115 -102 -103 -104 -105 105 -107 -108 -109 -110 -111 -112 -113 -114 -115 -116 -117 -118
leaf_value=0.0023008635129761136 0.0016749616741741958 -0.00014461128510618847 -0.00074227289417459763 0.0008001337410218414 -0.0006889461291377779 0.00027461742160770139 -0.00073074444787071043 0.00065910134598728368 -0.00080493427351409461 0.0012317619225371268 -0.0003396417981984198 0.00012864753842337467 -0.0011479506004945029 -0.0013362141460027826 0.00043378489660881887 0.0037851550773443641 -0.00028967987357783387 4.0349171648139302e-05 -0.0017506914767412682 -8.0006811788618429e-05 -0.0017262916637064592 0.00026941844819646773 0.0028491722260745628 -0.00020168151804399368 -0.00030576572721077938 0.00042902882050802602 0.0042242447936259144 -0.0016141930247531675 -0.0002287399161442407 -0.0014425008538617007 3.5967946664623193e-05 -0.0022018725551003881 -0.00080668752962833343 0.00022542776117560499 -0.00077785669211826412 0.000587373615567368 -0.00044345632039759176 -8.7179376342058632e-05 -0.00012932780549347286 0.0028578373750551018 0.0036493758412012669 -0.00015559352973762615 7.8113955620493465e-05 0.00029353735873816029 0.00030011440778087177 -0.00017115641161019688 -0.00011064284291939622 0.0027712415901325707 0.0017083478047597138 -4.3950846564574942e-06 -0.00032208591213816866 -0.0018961851465130689 -0.00035464316218394745 0.00087894361174587063 0.0023478545471698458 0.0013838778411791263 -0.00038998881571127903 -5.418804618759532e-07 0.0025303200480845133 -0.00047358554482845394 0.0012874831492630415 0.0044555083496879422 -0.00033053434286261835 0.00042943797100628163 -0.00026257504010802874 0.00073512345018492673 -0.00046660165776899322 0.0014448514449109963 -0.0011410477200422895 0.0011036147970078921 -0.00034932969991995343 0 0.00067110092520438077 -0.001816553185128474 0.00026944815522793981 0.0038947363615072536 0.0013363059036238421 0.00037829966778887337 -0.00038439882989841918 -0.00037624050425394845 6.5561732833563328e-05 0.00048002506001780575 0.00016396064760571048 -0.00029892043992242606 0.00060759541279447715 5.7928545079826864e-06 -0.0018466247433467497 6.508734140135972e-05 -0.00027605827692188107 -0.00050446003361759079 0.001151611686370013 3.1413028597318041e-05 -0.0027647717414121774 -0.00091325733177247462 0.0014819338617538943 -0.0011461555957122424 0.00086488511411630096 -0.00041196922808741081 0.0051616774393976207 -0.00083658561633411259 0.00068560176690262873 -0.00089352052733639132 -0.0013565676052623269 -0.0014874450024334157 0.001627767255070597 -0.0006020420614824912 0.0013375402426026996 -0.0012788896870418885 -0.00051576793717220419 0 0.0027982395742520306 -0.00083702712990131828 0 -0.00018854075599677306 9.4781471659307896e-05 0.00090761206408803774 0.0011151328761939351
leaf_weight=100 1101 2631 186 173 102 1571 690 3664 1216 1238 16610 8101 352 343 3155 141 701 18090 193 31814 567 3495 169 667 703 17068 101 587 22563 301 3786 168 256 15769 1025 7838 8038 6932 258 107 113 129 31872 19193 21968 7405 14365 121 164 4996 3599 236 515 106 127 938 895 19166 136 115 105 197 491 1319 9464 1194 6475 120 1062 138 1586 751 1855 139 273 101 154 136 4106 5128 18915 744 7661 1078 473 2464 166 6489 170 8685 487 2527 147 999 102 3179 272 708 100 121 108 942 408 622 438 128 191 491 249 106 126 1991 100 3688 114 128 113
leaf_count=100 1101 2631 186 173 102 1571 690 3664 1216 1238 16610 8101 352 343 3155 141 701 18090 193 31814 567 3495 169 667 703 17068 101 587 22563 301 3786 168 256 15769 1025 7838 8038 6932 258 107 113 129 31872 19193 21968 7405 14365 121 164 4996 3599 236 515 106 127 938 895 19166 136 115 105 197 491 1319 9464 1194 6475 120 1062 138 1586 751 1855 139 273 101 154 136 4106 5128 18915 744 7661 1078 473 2464 166 6489 170 8685 487 2527 147 999 102 3179 272 708 100 121 108 942 408 622 438 128 191 491 249 106 126 1991 100 3688 114 128 113
internal_value=2.85159e-08 -5.04667e-06 -0.000105166 6.46376e-05 -2.07743e-05 0.000118967 0.000105881 3.00608e-05 0.000262699 0.000364526 -7.32351e-05 0.000179684 -0.000238681 -0.00018016 -0.000125356 0.000190979 -0.000480892 -0.000123882 0.000181466 -3.3497e-05 -0.00013234 -6.74688e-05 0.000390517 -9.62449e-05 -0.000247875 0.000483654 0.00146438 -0.00064844 -0.000108878 0.00027105 0.000343151 -0.000196559 0.00122549 0.000256878 2.62103e-05 0.000345833 -0.000142959 -0.000330726 -0.000263254 3.70479e-06 0.00057575 0.00160824 0.000223618 0.000368808 0.000168792 -2.29982e-05 -0.000230291 0.000360818 -0.000112857 -0.00016201 -0.000635289 -0.000306837 0.000235629 0.00254769 0.000558242 0.000561514 -3.56765e-05 -5.57767e-05 0.00241416 0.00192019 0.00247178 0.00337843 -0.00108419 0.000828751 -0.000170987 0.000128817 -0.000270818 -0.000803863 -0.000407893 0.00248534 6.35381e-05 -2.89253e-05 0.000199354 -4.93011e-05 2.66828e-05 0.00126958 0 -9.08577e-05 -6.84962e-05 -3.13004e-05 4.02673e-05 -0.000266834 -4.19321e-07 -0.000111343 -0.000313088 -0.000137006 -0.000290589 -1.07977e-05 -0.000376166 -0.00031852 0.000286925 -0.000383245 -0.000872395 -0.00115732 -0.000904875 -0.000992819 -0.000237189 -0.000135415 0.00368347 0.000937374 -0.000967723 -0.000495696 -0.00059339 -0.00109554 0.00052913 0.00111451 0.000136303 -0.000911444 5.31171e-05 0.00110855 0.00166533 -0.00101648 -0.00134614 -4.92069e-05 -0.00100898 4.0074e-05 0.0002638
internal_weight=408953 408094 167503 240591 102655 43564 191524 101315 29941 23565 59917 41398 64848 52247 52052 90209 12601 59091 89393 34969 58782 44317 3664 49067 19513 18306 309 3834 40653 7865 7450 13623 816 32733 9126 23607 48413 14465 23283 29554 428 242 74134 20294 53840 15259 22403 4231 6376 6212 9272 972 636 207 537 3259 1002 25323 859 623 508 302 1058 2257 13455 3825 13407 3406 5041 279 5682 5134 3441 3329 3190 374 410 23899 23272 25130 19258 5872 15066 8665 17083 2816 9630 7179 13831 12402 1190 11212 1429 1146 4231 3880 3871 828 236 548 1170 1693 1486 880 1424 566 858 627 351 206 299 2578 336 5259 415 249 283
internal_count=408953 408094 167503 240591 102655 43564 191524 101315 29941 23565 59917 41398 64848 52247 52052 90209 12601 59091 89393 34969 58782 44317 3664 49067 19513 18306 309 3834 40653 7865 7450 13623 816 32733 9126 23607 48413 14465 23283 29554 428 242 74134 20294 53840 15259 22403 4231 6376 6212 9272 972 636 207 537 3259 1002 25323 859 623 508 302 1058 2257 13455 3825 13407 3406 5041 279 5682 5134 3441 3329 3190 374 410 23899 23272 25130 19258 5872 15066 8665 17083 2816 9630 7179 13831 12402 1190 11212 1429 1146 4231 3880 3871 828 236 548 1170 1693 1486 880 1424 566 858 627 351 206 299 2578 336 5259 415 249 283
is_linear=0
shrinkage=0.05


Tree=6
num_leaves=103
num_cat=0
split_feature=0 3 7 11 7 3 4 11 6 8 9 4 4 0 9 11 0 1 7 11 7 4 7 0 0 7 9 0 4 8 12 1 6 6 6 1 0 6 1 6 1 6 4 1 11 4 4 3 3 1 3 4 12 1 6 11 8 11 6 3 4 4 11 12 0 11 4 9 7 3 3 7 11 12 12 6 7 7 7 9 12 9 9 9 0 3 12 8 0 4 0 6 0 3 12 7 9 9 3 6 9 8
split_gain=1.81568 1.04672 0.693072 0.632464 0.511363 0.481752 0.530195 0.482516 0.442503 0.377695 0.371373 0.408965 0.367839 0.346587 0.337617 0.446239 0.417231 0.397446 0.359613 0.325498 0.324465 0.361918 0.321816 0.28569 0.281312 0.273542 0.318015 0.287641 0.263629 0.48224 0.261513 0.468083 0.246977 0.245738 0.37406 0.366751 0.234334 0.229704 0.228155 0.226157 0.225232 0.222056 0.302419 0.269219 0.220273 0.206407 0.262104 0.225027 0.223408 0.230174 0.206138 0.211557 0.205692 0.200994 0.222671 0.194091 0.192068 0.425315 0.27498 0.209227 0.185184 0.515402 0.180731 0.180235 0.22558 0.181669 0.257154 0.1772 0.177174 0.176084 0.172663 0.227118 0.176293 0.168621 0.165269 0.160298 0.152504 0.28997 0.190808 0.151017 0.147802 0.141876 0.139266 0.134255 0.128014 0.126306 0.123389 0.119798 0.178905 0.140706 0.11236 0.107574 0.205024 0.132485 0.134607 0.118677 0.0863963 0.0802015 0.0776983 0.0754586 0.0392909 0.0133502
threshold=66.549999237060561 2636.5000000000005 94.495006561279311 -0.18376702070236203 91.47953033447267 2026.5000000000002 -0.87878364324569691 -0.37489666044712061 0.48750363290309912 -9.1730041503906232 37.850000381469734 0.99535831809043895 0.99992385506629955 77.450000762939467 24.150000572204593 0.28926934301853185 80.850002288818374 1.3750000000000002 94.400119781494155 0.18713141977787021 94.349845886230483 -0.22495103627443311 94.057159423828139 78.049999237060561 80.750000000000014 96.75583648681642 32.45000076293946 83.950000762939467 -0.68832832574844349 -10.920467376708983 0.74926477670669567 1.0850000381469729 0.21479726582765582 0.48159471154212957 0.49924612045288091 -0.90500000119209278 86.049999237060561 0.77127197384834301 -1.5950000286102293 0.3757701069116593 -1.3250000476837156 0.67894196510314953 0.79332309961318981 1.1449999809265139 -0.38607612252235407 -0.9099266231060027 -0.96811076998710621 2943.5000000000005 3006.5000000000005 1.2150000333786013 2768.5000000000005 0.81915202736854564 3.2754808664321904 1.2050000429153445 0.42811711132526403 0.044303970411419875 -6.4352111816406241 -0.070944000035524354 0.79016706347465526 2549.5000000000005 -0.34202025830745691 -0.24192178249359128 -0.18740322440862653 -0.9340357482433318 89.450000762939467 -0.24979304522275922 0.89100655913352977 37.45000076293946 91.084247589111342 1914.5000000000002 2596.5000000000005 95.462242126464858 -0.43556596338748926 -1.2086285352706907 -3.5737421512603755 0.97438108921051036 95.922241210937514 95.515369415283217 97.840347290039077 26.250000000000004 0.1534860581159592 3.1499999761581425 42.149999618530281 52.350000381469734 54.850000381469734 2733.5000000000005 -1.3291456699371336 -12.635959625244139 84.549999237060561 -0.99809676408767689 86.350002288818374 0.32984499633312231 85.549999237060561 2331.5000000000005 0.7917068898677827 97.557823181152358 22.94999980926514 19.849999427795414 2347.5000000000005 0.49624106287956243 35.250000000000007 -11.041511535644529
decision_type=2 2 10 10 10 2 2 10 10 8 8 2 2 2 10 10 2 8 10 8 8 2 10 2 2 10 10 2 2 10 2 10 10 10 10 10 2 10 10 10 10 8 2 10 10 2 2 2 2 10 2 2 2 10 10 10 10 10 10 2 2 2 8 2 2 10 2 8 10 2 2 10 10 2 2 10 10 10 10 10 2 10 8 8 2 2 2 10 2 2 2 10 2 2 2 10 8 10 2 10 10 10
left_child=60 2 5 38 45 7 19 23 13 28 11 56 24 86 15 68 18 -18 -16 33 22 -22 -11 37 30 26 -15 -27 40 -30 31 -12 -17 35 -35 -7 52 -2 96 -32 -9 43 -43 -26 69 46 80 53 49 -49 63 76 81 54 -47 -48 70 59 -59 -58 67 -62 74 64 73 85 -67 75 -8 -25 72 -72 -4 -40 -53 -1 77 -52 -78 -55 -5 -10 -50 84 -69 -65 -6 89 -89 -21 -46 93 98 94 -13 -95 101 -54 -93 -57 -38 -3
right_child=1 3 10 4 8 6 14 9 36 20 12 91 -14 25 16 32 17 -19 -20 87 21 -23 -24 44 41 27 -28 -29 29 -31 39 -33 -34 34 -36 -37 100 -39 50 -41 -42 42 -44 -45 90 47 55 48 82 -51 51 62 97 79 -56 99 57 58 -60 -61 61 -63 -64 65 -66 66 -68 83 -70 -71 71 -73 -74 -75 -76 -77 78 -79 -80 -81 -82 -83 -84 -85 -86 -87 -88 88 -90 -91 -92 92 -94 95 -96 -97 -98 -99 -100 -101 -102 -103
leaf_value=0.0014692927209877323 0.0027924360960236635 -0.0023408510745397178 0.00023759764628578564 0.0016656925750241384 0.0029162030541381146 -0.0010878296848307581 0.00022874236423840022 0.00056942510331244153 -0.0019301618275292618 0.00041968623216157323 0.0005443845888641086 -0.00078421843374869033 0.0023773206472531725 -0.00046862050350062454 0.00023861378925539939 0.0013982239654200584 7.1245413168131096e-05 -0.00052934186433033572 0.0016123507097075434 0.0010783570745454519 0.00093026407995993937 0.0039002265606442529 -0.00022674949924654335 -0.00030238505525448877 -3.8725417516411641e-05 0.00065695679397322244 -0.00010401505156367781 -0.00079723293987780388 0.00069544919407996922 -0.00021248199190986006 0.0020856551903502638 0.0029887681341226983 -0.00068164446282679547 0.0019785451007700832 0.00010302952091911473 -9.1186494041860513e-05 -0.0026691862595778939 -0.00016715187686853686 0.0003362385082102111 -0.00030720534633878064 -0.00036445744155353381 0.00018936723852529356 0.0022219662805963753 -0.00071294969849266003 -0.00084228446851313584 6.3614317912026664e-05 -7.7519342797579223e-05 0.00050070118025350981 -0.00059734742638344572 0.0037726884258881912 3.8697490508642817e-05 -0.0015678677260133344 0.0014453107392503404 -0.0008031018253557865 0.00091557358466742844 -0.0035668609603660591 -0.00053916929332482216 0.0002381913209738646 0.0014070768523616812 0.0013006158968399666 0.0061842865967012654 0.0016221688716765775 0.001197496720703033 -0.00013736961689111326 -0.0016289881024366391 0.00014162368068339345 0.001357010262216563 -0.00069513578990904902 -0.00013067099530020523 0.00048985949563158855 -0.0001327646856628527 -0.0011733786228436771 -0.00020046063951737757 0.0012166129705629585 -0.00031404613350455909 0.0042094944814091619 -0.00054214350136954097 0.0012688344006869243 0.00078767258858823273 1.9064447032658275e-05 -0.00061364584675792496 -0.00064838900726561105 0.0016220484814080207 0.0026107497498194811 0.0015064023248387796 0.00025125594424155504 0.00050447878857948257 -0.00081293577961253814 1.501486834367917e-05 -0.00036830690266712604 -0.0028943000380892221 0.00026899231020973373 -0.0027902400844640619 -0.00055095255760414933 -0.002807090371033224 0.00095306913960058995 -0.00038708663548181422 -1.0368427144015549e-06 -0.00122916381028323 -0.0015622742306299483 -0.0013160295719754393 -0.0013301060331994059
leaf_weight=116 141 109 2471 122 107 1105 5417 760 226 23635 1659 309 163 8885 32205 146 109659 2823 484 216 891 117 2085 4556 43684 370 18451 3691 3173 2700 107 223 3728 285 3913 5677 157 116 3417 1129 4153 6440 188 1533 217 2291 125 100 179 127 9585 275 126 794 1163 108 2360 3638 587 163 103 166 188 8720 129 1842 574 125 9338 824 1107 1017 30763 655 6787 115 1927 504 310 1840 164 7522 114 100 134 2744 117 3507 787 741 104 115 196 731 118 157 198 363 294 110 117 106
leaf_count=116 141 109 2471 122 107 1105 5417 760 226 23635 1659 309 163 8885 32205 146 109659 2823 484 216 891 117 2085 4556 43684 370 18451 3691 3173 2700 107 223 3728 285 3913 5677 157 116 3417 1129 4153 6440 188 1533 217 2291 125 100 179 127 9585 275 126 794 1163 108 2360 3638 587 163 103 166 188 8720 129 1842 574 125 9338 824 1107 1017 30763 655 6787 115 1927 504 310 1840 164 7522 114 100 134 2744 117 3507 787 741 104 115 196 731 118 157 198 363 294 110 117 106
internal_value=2.90382e-08 -4.79512e-06 3.63987e-05 -0.000160418 -0.000282376 8.52178e-05 4.911e-05 0.000234632 -0.000352165 0.000301067 -7.35961e-05 -0.000181882 1.27965e-05 -0.000265752 7.61434e-05 -0.000124118 0.000101877 5.61232e-05 0.000259155 -0.000223386 0.000401875 0.00128347 0.000367082 -0.000182813 5.65011e-06 -0.000279894 -0.000222718 -0.000663381 5.0785e-05 0.000277229 0.000466903 0.000838111 -0.000601629 -6.80061e-05 0.000231989 -0.000254444 -0.000672559 0.00144174 -8.53622e-06 -9.44958e-05 -0.00021889 -2.20021e-05 0.000248102 -6.17096e-05 -0.000257165 0.000103939 -0.000759268 0.000186965 0.0011852 0.00236173 4.16545e-06 -0.000108123 -0.000623671 0.0001007 0.000352108 -0.00169177 -0.000149186 9.47491e-05 0.000402068 -0.00041786 0.00229505 0.00340396 -0.000322459 0.000126014 0.00041304 3.87573e-05 0.000432889 0.00177609 9.48069e-07 -0.000180047 -0.000195883 -0.000633695 -0.000167734 0.000479342 -0.000363794 0.00286728 1.75573e-05 0.000100765 -0.000355356 -0.000227085 0.000343654 -0.000686666 0.000251745 0.00105406 0.000426066 -4.38991e-05 0.00168657 -0.000547263 -0.000660058 -3.57831e-05 -0.00152956 -0.000895857 -0.00145392 -0.000634395 -0.00136017 -0.000278642 -0.00117595 0.000363627 -0.000796098 -0.00258996 -0.00211645 -0.00187414
internal_weight=408953 408094 322655 85439 47369 223503 180031 43472 40132 37514 99152 44026 55126 31621 163800 18629 145171 112482 32689 16231 26728 1008 25720 5958 54963 31397 27336 4061 10786 5873 3118 1882 3874 10980 4198 6782 8511 257 38070 1236 4913 51845 6628 45217 5701 7237 629 6608 520 227 37657 19576 8237 6088 3454 343 42106 6748 4225 2523 859 269 7250 18081 4201 13880 2416 590 14755 5380 35358 2124 33234 4072 7062 231 12326 10089 2237 2634 286 7748 293 359 259 11464 224 5251 4294 957 321 1920 605 1315 427 888 413 489 409 218 274 215
internal_count=408953 408094 322655 85439 47369 223503 180031 43472 40132 37514 99152 44026 55126 31621 163800 18629 145171 112482 32689 16231 26728 1008 25720 5958 54963 31397 27336 4061 10786 5873 3118 1882 3874 10980 4198 6782 8511 257 38070 1236 4913 51845 6628 45217 5701 7237 629 6608 520 227 37657 19576 8237 6088 3454 343 42106 6748 4225 2523 859 269 7250 18081 4201 13880 2416 590 14755 5380 35358 2124 33234 4072 7062 231 12326 10089 2237 2634 286 7748 293 359 259 11464 224 5251 4294 957 321 1920 605 1315 427 888 413 489 409 218 274 215
is_linear=0
shrinkage=0.05


Tree=7
num_leaves=115
num_cat=0
split_feature=0 3 2 6 5 2 0 6 2 11 3 1 12 12 6 7 4 2 1 0 1 0 11 12 1 2 4 6 11 7 5 3 11 0 11 6 7 2 7 12 12 11 4 7 5 6 11 12 0 1 12 6 11 2 6 4 4 0 11 11 4 0 3 6 12 4 4 11 11 7 3 2 5 11 4 3 3 1 1 0 1 12 12 11 4 2 1 12 4 12 7 2 6 6 4 6 1 1 2 11 4 3 12 12 0 12 12 6 6 4 4 6 1 3
split_gain=1.64187 0.944737 0.664461 0.64729 0.572368 0.687933 0.851569 0.555228 0.60533 0.407514 0.597305 0.378698 0.33073 0.349746 0.320097 0.309033 0.305995 0.497428 0.272336 0.263091 0.576809 0.259603 0.375764 0.355474 0.250583 0.247797 0.23919 0.229707 0.228057 0.22634 0.226159 0.25105 0.231899 0.216121 0.210738 0.206146 0.3649 0.342375 0.312945 0.290214 0.283397 0.205792 0.201439 0.199015 0.44778 0.195677 0.187015 0.21146 0.215051 0.177187 0.176253 0.170854 0.169431 0.167678 0.209921 0.166855 0.465047 0.165515 0.3015 0.168002 0.165041 0.164964 0.164503 0.182723 0.173129 0.204696 0.158367 0.316458 0.168325 0.297143 0.294987 0.15699 0.156567 0.148669 0.542893 0.155377 0.146956 0.142368 0.25403 0.245144 0.141377 0.188543 0.181341 0.140089 0.210855 0.133176 0.132822 0.130885 0.215344 0.192946 0.175161 0.173835 0.16112 0.140898 0.181522 0.138218 0.12898 0.124478 0.257855 0.198056 0.122968 0.118249 0.113389 0.107415 0.103505 0.0939894 0.0880366 0.0877971 0.136127 0.0603071 0.0600878 0.0534328 0.0518759 0.0321045
threshold=66.549999237060561 2636.5000000000005 -0.03499999921768903 0.17633119970560077 -0.55191597342491139 -0.15500000119209287 83.350002288818374 0.70674085617065441 0.41499999165534979 0.27899767458438879 2045.5000000000002 1.4750000238418581 -4.1116778850555411 -0.58317616581916798 0.25130254030227667 95.245410919189467 0.79863548278808605 -0.89499998092651356 1.0850000381469729 85.450000762939467 -1.3650000095367429 81.950000762939467 0.030814970843493942 -1.023732542991638 0.70499998331069957 0.34499999880790716 0.60873830318450939 0.19572895765304568 -0.10159920156002043 96.773067474365249 0.81408447027206432 3222.5000000000005 -0.33361102640628809 72.350002288818374 0.003637594287283719 0.48159471154212957 91.762832641601577 -1.014999985694885 90.874599456787124 0.58418250083923351 4.4146106243133554 -0.79876253008842457 0.90992662310600292 94.777648925781264 0.69465836882591259 0.66017684340477001 -0.3644897043704986 0.89626342058181774 85.149997711181655 0.49500000476837164 0.21032294631004336 0.05222809128463269 -0.084327872842550264 1.3849999904632571 0.68508347868919384 -0.34202025830745691 -0.24192178249359128 83.850002288818374 0.13486326485872271 -0.19843170791864392 0.87032258510589611 86.250000000000014 2753.5000000000005 0.15915576368570331 -0.78306859731674183 0.79332309961318981 -0.9099266231060027 -0.22085791081190106 -0.060578044503927224 91.270027160644545 2640.5000000000005 0.044999999925494201 0.83867058157920849 -0.067439142614603029 0.83385407924652111 3076.5000000000005 2579.5000000000005 -0.35500000417232508 -0.57499998807907093 54.850000381469734 0.085000000894069686 -4.7989718914031974 -2.0193529129028316 -0.63589322566986073 0.93663653731346141 0.034999999217689044 0.11499999836087228 -3.6861486434936519 -0.26722829043865198 -4.3091468811035147 98.940689086914077 0.14500000327825549 0.11537905782461168 0.16791652143001559 -0.0087262410062791656 0.090932834893465056 -0.84499999880790699 -0.095000002533197389 0.33500000834465032 -0.0032788151875138278 -0.95878329873085011 2930.5000000000005 0.58418250083923351 1.2329421043395998 87.350002288818374 -2.1999467611312862 -1.5586415529251096 0.3813771009445191 0.29457652568817144 0.98897820711135875 0.72534677386283886 0.648888260126114 0.19500000029802325 2696.5000000000005
decision_type=2 2 2 10 2 2 2 10 2 8 2 10 2 2 10 10 2 2 10 2 10 2 10 2 8 2 2 10 10 10 2 2 8 2 10 10 10 2 10 2 2 8 2 10 2 10 8 2 2 10 2 10 10 2 10 2 2 2 8 8 2 2 2 10 2 2 2 8 8 10 2 2 2 8 2 2 2 10 10 2 10 2 2 8 2 2 10 2 2 2 10 2 10 10 2 10 10 10 2 10 2 2 2 2 2 2 2 10 10 2 2 10 10 2
left_child=55 3 21 15 7 6 16 18 26 12 14 24 100 -14 -11 28 41 -18 53 33 -21 23 45 30 -8 -12 96 29 80 46 31 32 -3 -10 72 36 38 40 -25 -38 -37 -6 61 66 57 73 50 60 -49 -36 104 76 -39 54 -5 77 -57 58 -45 -59 -48 101 64 109 113 -66 67 -29 70 -70 -68 -46 -32 75 -75 -23 105 78 79 -1 81 -2 -83 84 -82 -69 -85 88 -17 92 93 -91 -90 95 -95 -89 -9 98 -53 -99 -7 -24 -28 -73 -4 -30 -63 108 -44 -64 -13 -20 -52 -31
right_child=1 2 27 4 5 9 11 8 19 10 25 110 13 -15 -16 87 17 -19 111 20 -22 22 42 35 -26 -27 102 43 51 62 34 -33 -34 -35 49 37 39 52 -40 -41 -42 -43 107 44 71 -47 47 48 -50 -51 112 97 -54 -55 -56 56 -58 59 -60 -61 -62 106 63 -65 65 -67 68 85 69 -71 -72 103 -74 74 -76 -77 -78 -79 -80 -81 83 82 -84 86 -86 -87 -88 90 89 91 -92 -93 -94 94 -96 -97 -98 99 -100 -101 -102 -103 -104 -105 -106 -107 -108 -109 -110 -111 -112 -113 -114 -115
leaf_value=-0.00056235382338994751 0.0016382619510163907 0.00095503876936208886 0.0012942789876406997 0.00012028760713320376 -0.00068734888226248839 0.00070333763681006654 -0.00019670808313943826 -0.00015045781522323172 0.0021664788869356928 0.0025847256604492642 1.10204141184421e-05 -0.0026520621688821571 0.00014838430262025356 -7.7147831979881756e-05 0.00023327128674541632 0.0020374145078374596 -0.00093613901944063953 0.00058468039920571435 -0.0023780885635794184 -5.744618018970831e-06 0.0010529916379115108 -4.3489702011326989e-05 -0.00037723889675870696 0.00038156466654330214 0.00020964366493067359 -0.00041667054502337973 0.00022904189187102021 0.0019219552171831527 -0.0017352344445712136 0.00044502803576585738 0.0022534966641675229 0.0026835997953352161 3.6344319474873425e-05 0.00029915384796726658 0.001113102185065536 8.1629087849070128e-05 -0.00035237801241311869 -0.00025983250175109888 0.0021995229209032375 0.00066171003474821042 0.0020753447490531713 0.000205691816212644 -6.9993081903730589e-05 -0.00080665108536667079 0.0022069352223180647 -0.0016892939829776484 -0.00028779575554219855 -0.00061858275545015285 0.00088316342332442821 0.0041316015114459927 -0.0018575505812287981 -5.5513344978470495e-05 -0.00095785572232606167 0.0016076026961425361 -0.00056960478755182305 0.005878045519997474 0.0015415461353775015 0.00054847336205114661 0.00071255706926709635 -0.00095597823452051077 0.00030064691380518149 -0.0024239041452444551 -0.00092377309303265072 -0.0025659441464213712 -0.0019016584613901568 0.00019326747020419972 0.0020457320829154928 0.00042331509178734152 0.00024067335913243419 -0.00029586447655953485 -0.0005746370762832033 -0.00038554451157811026 0.00033463558604037672 -7.1070004566243592e-05 0.0025739552022283341 -0.00063127742524512055 0.0010670766534233993 0.00050540881011047387 0.0040617278072436775 0.002480298997037755 0.002153309000216957 -0.0010060554171286279 -0.0002771267749565927 0.00056166217295946662 -0.00025494196798265634 -0.0011046886419308355 -0.00014364360521632011 -0.00050212576250074415 -0.0018006960406219059 0.0018290816350983313 -0.0018349931939398328 -0.0006048863714769189 7.2868784987162248e-05 0.00032616610155814684 -0.0010635186688207384 -0.00016369593955340979 -0.0012227731097266498 0.00044988169017660051 -0.0018320667175277042 5.7485834886801643e-05 -0.00092775569248667851 -0.0011564311255970728 0.0026220719237742881 0.0014807637239978447 -0.0005035111246317035 -0.00047861502181008661 -0.00097602649720195014 -0.00057342499028891316 0.0024790552114227829 0.00017037819653302683 -0.0011502605591327088 -0.0007836859223936054 -0.00075679867245588713 0.0017644539311856477
leaf_weight=103 115 902 130 78419 654 123 15814 3099 159 150 4122 142 26795 47945 3868 146 566 9675 114 1692 5245 20803 1767 585 4980 18416 101 100 183 102 138 109 2924 6207 106 6085 1878 4508 407 1128 183 34435 100 921 145 182 2838 285 1343 101 229 3375 1089 187 1115 103 166 189 502 4308 2049 206 644 164 178 324 108 153 3216 12879 5027 227 494 863 248 1190 130 186 129 172 174 1012 5728 713 182 1416 9818 4297 192 194 191 113 271 288 1156 10391 310 4345 217 12520 1254 691 107 114 201 924 253 103 101 147 163 123 246 110
leaf_count=103 115 902 130 78419 654 123 15814 3099 159 150 4122 142 26795 47945 3868 146 566 9675 114 1692 5245 20803 1767 585 4980 18416 101 100 183 102 138 109 2924 6207 106 6085 1878 4508 407 1128 183 34435 100 921 145 182 2838 285 1343 101 229 3375 1089 187 1115 103 166 189 502 4308 2049 206 644 164 178 324 108 153 3216 12879 5027 227 494 863 248 1190 130 186 129 172 174 1012 5728 713 182 1416 9818 4297 192 194 191 113 271 288 1156 10391 310 4345 217 12520 1254 691 107 114 201 924 253 103 101 147 163 123 246 110
internal_value=3.31529e-08 -4.55369e-06 -0.000152402 3.45813e-05 6.72838e-05 1.17353e-05 0.000137136 0.000164192 0.000424496 -6.93506e-05 -0.000238 -0.000125099 -1.04436e-05 3.64159e-06 0.000322921 -0.000118804 0.000259305 0.000500056 0.000109041 0.000580506 0.000794072 -2.66131e-05 -0.000130223 0.000106225 -9.91442e-05 -0.000338231 -0.000147915 -0.000307121 -4.14596e-05 -8.52947e-05 0.000484463 0.000323654 0.000254431 0.000346911 0.00123144 -7.31435e-06 0.000302814 -0.000112253 0.00113394 2.65887e-05 0.000140957 0.000188885 -0.000636471 -0.000374996 -0.000622104 -5.9958e-05 3.38714e-05 0.000123439 0.000616978 0.00262272 -0.000683178 6.71098e-05 -0.000396686 0.00011414 0.000110546 0.00218244 0.00323613 -0.000742344 -0.000267076 -0.00089153 -4.00421e-05 -0.000764862 -0.000610713 -0.00103975 -2.92205e-05 -0.000541918 -0.000305625 -0.000776069 -0.000268371 -0.000188338 -0.000518164 0.000830793 0.000764424 -4.68341e-05 0.000516646 -7.55484e-05 -0.000502597 0.00168891 0.00221884 0.00132466 -0.000174491 -0.000352502 -0.000387449 -6.19246e-05 0.000910853 -0.000952327 -9.53674e-05 -0.000295436 0.000282988 -4.53958e-05 -0.000328217 0.000917902 -0.000695504 -0.000309954 -0.000782858 -0.000263072 -0.000249766 0.000101826 -0.00016471 0.000158898 -0.000778026 -0.000598702 0.00149065 0.000226268 0.000189281 -0.00069224 -0.00164056 0.000577568 0.00119205 -0.000714164 -0.00187218 -0.00157839 -0.00130077 0.00115818
internal_weight=408953 408094 85439 322655 265980 169102 66429 96878 16920 102673 26556 21099 76117 74740 4018 56675 45330 10241 79958 13303 6937 47144 26507 20637 20794 22538 3617 38295 39436 8990 4774 3935 3826 6366 839 15863 3998 11865 992 3006 6268 35089 3221 29305 6406 23286 7321 6515 1628 207 806 21694 5597 79721 79534 859 269 5920 1423 4497 4887 2917 1669 955 714 502 22899 1669 21230 16095 5135 486 632 23104 1111 21993 1237 590 404 275 17742 6855 6740 10887 356 1569 10531 17239 916 770 16323 307 463 16132 1444 14688 3409 20457 3592 16865 1377 2458 208 341 331 1107 459 304 201 791 305 237 475 212
internal_count=408953 408094 85439 322655 265980 169102 66429 96878 16920 102673 26556 21099 76117 74740 4018 56675 45330 10241 79958 13303 6937 47144 26507 20637 20794 22538 3617 38295 39436 8990 4774 3935 3826 6366 839 15863 3998 11865 992 3006 6268 35089 3221 29305 6406 23286 7321 6515 1628 207 806 21694 5597 79721 79534 859 269 5920 1423 4497 4887 2917 1669 955 714 502 22899 1669 21230 16095 5135 486 632 23104 1111 21993 1237 590 404 275 17742 6855 6740 10887 356 1569 10531 17239 916 770 16323 307 463 16132 1444 14688 3409 20457 3592 16865 1377 2458 208 341 331 1107 459 304 201 791 305 237 475 212
is_linear=0
shrinkage=0.05


Tree=8
num_leaves=124
num_cat=0
split_feature=0 3 2 0 0 2 1 4 4 4 8 1 11 4 11 8 2 8 10 1 10 9 8 4 10 3 2 3 0 2 9 12 0 4 1 12 12 1 0 11 11 1 9 11 3 4 10 10 4 8 8 4 4 0 3 10 11 3 3 8 9 9 9 3 3 2 10 11 3 0 12 8 11 9 4 11 11 3 9 12 11 2 9 12 12 11 11 10 12 8 1 4 12 8 11 10 3 3 9 3 11 1 12 10 3 3 11 12 11 8 8 4 8 9 2 2 11 11 9 12 11 12 12
split_gain=1.48418 0.875598 0.813788 0.97234 0.700709 0.677545 0.671148 0.637371 0.632909 0.581014 0.562242 0.790313 0.530018 0.523022 0.692773 0.595906 0.505569 0.524855 0.501411 0.484266 0.435045 0.427264 0.423321 0.39437 0.387969 0.353613 0.343053 0.434838 0.329166 0.360038 0.317141 0.390341 0.315876 0.304869 0.361959 0.301006 0.298895 0.289711 0.287283 0.421381 0.2823 0.275634 0.257558 0.253693 0.563293 0.244636 0.253323 0.236184 0.24155 0.236042 0.228108 0.226487 0.382725 0.226417 0.222905 0.213415 0.476692 0.227373 0.315416 0.211829 0.35221 0.298241 0.209446 0.201022 0.305386 0.206983 0.271345 0.223887 0.20013 0.196045 0.191114 0.201881 0.186765 0.181336 0.178433 0.169824 0.168922 0.324127 0.264739 0.234189 0.23242 0.196251 0.161896 0.156788 0.216818 0.156565 0.156346 0.155505 0.154575 0.152454 0.150932 0.145225 0.26587 0.144334 0.144314 0.18442 0.18228 0.144198 0.143166 0.174165 0.142628 0.14197 0.135467 0.133479 0.124152 0.28535 0.240241 0.201028 0.178801 0.170409 0.119339 0.112926 0.109694 0.109192 0.104066 0.0983953 0.0922123 0.0906917 0.0860933 0.074837 0.0698719 0.0572345 0.0502229
threshold=66.549999237060561 2335.5000000000005 0.45499999821186071 82.350002288818374 80.649997711181655 0.054999999701976783 1.3149999976158144 0.94260558485984813 -0.63605406880378712 0.53727921843528759 -6.2953491210937491 -0.095000002533197389 0.41720640659332281 0.97233289480209362 0.047674482688307769 -11.374889373779295 0.91500002145767223 -5.6039161682128897 0.48920395970344549 1.044999957084656 -0.012656919192522762 30.849999427795414 -5.9647865295410147 0.87878364324569713 0.25196932256221777 2768.5000000000005 0.085000000894069686 1000.5000000000001 85.850002288818374 0.49500000476837164 29.250000000000004 -1.4279173612594602 81.549999237060561 -0.87878364324569691 -1.205000042915344 -2.6355108022689815 6.1579759120941171 -1.3250000476837156 81.850002288818374 0.21719931811094287 0.31717644631862646 1.325000047683716 13.84999990463257 0.40846250951290136 2006.5000000000002 0.9536806344985963 0.29565915465354925 0.34403818845748907 0.79863548278808605 -8.0317764282226545 -14.228248596191404 0.96811076998710643 0.78257840871810924 84.049999237060561 2331.5000000000005 -0.14263607561588285 0.20810618996620181 1610.5000000000002 1207.5000000000002 -9.6903076171874982 38.549999237060554 41.250000000000007 55.750000000000007 2570.5000000000005 2555.5000000000005 0.5249999761581422 -0.45334321260452265 0.69429278373718273 2347.5000000000005 89.049999237060561 2.0738364458084111 -8.7260589599609357 -0.56032899022102345 37.45000076293946 -0.99809676408767689 0.15430520474910739 0.17449603974819186 2063.5000000000005 66.850002288818374 -0.22765333950519559 0.32911969721317297 0.83499997854232799 44.350000381469734 -0.74309232831001271 0.50176972150802623 0.27899767458438879 0.21719931811094287 0.07216339930891992 0.52176252007484447 -16.274135589599606 0.12499999627470972 0.99535831809043895 0.28522920608520513 -9.3467140197753888 -0.15839505195617673 -0.37372562289237971 2521.5000000000005 2303.5000000000005 53.95000076293946 2267.5000000000005 -0.89176383614540089 1.3750000000000002 0.74926477670669567 0.66720250248909008 2696.5000000000005 2713.5000000000005 0.097300376743078246 2.4583649635314946 0.051008958369493491 -7.4753150939941397 -14.109786987304686 -0.93663653731346119 -10.393726348876951 24.550000190734867 -0.28499999642372126 -0.085000000894069658 0.11563009768724443 -0.32858984172344202 20.849999427795414 -3.3689763545989986 0.50077533721923839 1.1864435076713564 1.5327853560447695
decision_type=2 2 2 2 2 2 10 2 2 2 8 8 10 2 8 10 2 8 10 10 8 10 10 2 10 2 2 2 2 2 10 2 2 2 10 2 2 10 2 10 8 10 10 10 2 2 10 10 2 10 10 2 2 2 2 8 10 2 2 8 10 10 8 2 2 2 8 10 2 2 2 10 8 10 2 10 8 2 8 2 10 2 10 2 2 10 8 10 2 8 10 2 2 10 10 10 2 2 8 2 8 10 2 10 2 2 10 2 10 10 10 2 10 10 2 2 10 8 10 2 10 2 2
left_child=55 2 3 9 5 7 8 21 42 59 12 16 43 14 15 -9 28 22 33 20 54 94 -18 24 32 36 69 49 29 -12 31 -26 115 97 -35 -22 53 -30 39 -27 -19 -34 112 51 -45 46 -29 48 -23 93 -40 52 -4 -10 -11 56 -1 58 -57 72 86 -62 102 64 65 66 -7 -67 -49 100 71 -44 111 -60 -74 -53 78 79 81 -78 -79 -13 -32 -66 -85 -47 -61 -51 -46 116 -38 119 -93 -28 96 -96 -3 -14 99 -71 -5 -102 -21 122 106 108 118 -107 -106 -108 -15 -2 117 -72 -112 -8 -65 -6 -25 -91 -105 -114 -20
right_child=1 4 10 26 6 63 23 13 25 19 11 76 18 110 -16 -17 17 40 103 62 35 47 -24 104 30 38 27 45 37 -31 82 -33 41 34 -36 -37 90 -39 50 -41 -42 -43 70 44 88 85 -48 68 -50 87 -52 75 -54 -55 -56 57 -58 -59 73 60 61 -63 -64 89 83 67 -68 -69 -70 98 113 -73 74 -75 -76 -77 77 80 -80 -81 -82 -83 -84 84 -86 -87 -88 -89 -90 91 -92 92 -94 -95 95 -97 -98 -99 -100 -101 101 -103 -104 120 105 107 109 -109 -110 -111 114 -113 121 -115 -116 -117 -118 -119 -120 -121 -122 -123 -124
leaf_value=0.0016115193046375657 0.00040100337159369259 -0.00086935457420721338 0.00020297205582731583 0.0011996918225470653 -0.00075671140449685482 0.0022051608790530333 -0.00020485603072267539 0.001936462782223383 7.4208028645873751e-05 0.00045263810074210487 0.0033416141876659827 0.00024285984320255948 -0.00090432185857256464 0.0014896123508224266 -0.00054451907160249665 0.0055042831345242169 0.0014251458733806276 0.0016362432213153596 -0.0024942979631620591 0.00025131149851799597 0.0028224872540950751 0.0002808428210494944 0.0045279916520151097 -0.0011488029495268909 0.0032031783423451207 4.6052680603486695e-05 -0.0011364321695322903 1.7644106906992003e-05 -0.00019803735970783606 0.0009476999921029949 -0.00040049650997452915 1.5765535609549557e-06 -0.0011198105841409417 0.0011290255892285931 -6.2023293722514937e-05 0.00096691041252843434 0.0028788909160213229 0.0005998338641898523 0.001415806981514041 0.0020846314785382607 0.00040788127859495594 0.00083677049044431756 -0.0004114105636682621 0.0036960621646248068 0.00091469011034278841 -0.0003119613748733532 0.00047220501648382891 0.0020351034424805304 0.00076815453221486826 -0.0034140189546430348 -0.00029795794975957931 0.0011949037657204 0.0010319921118395999 -6.3958872625128298e-05 -0.0016792191666055235 0.0026055828419672693 0.0058478433315866385 0.0035313832677317672 0.0011766821276063899 0.00016626058753744784 0.0027747348901951104 0.00069662288774015866 0.0022562641515962295 -0.00068927754986881549 -0.00015654439629608956 -0.00078871276281910086 0 0.00041694616410649403 1.9431956146738065e-06 -0.00063231504018276623 -0.0015774668152689153 -4.6446867264442941e-05 0.00095055348451560074 -0.0013751038445827916 -4.712408822895232e-05 -0.00091488731698670964 0.0015306437888625759 -0.00086280525706935215 0.0028655546144763172 1.3548478955219228e-05 -1.6885340816086997e-05 0.0016614116351502163 -0.000980392143960216 0.0034029326938760985 0.00069503584021379447 -0.001684579642902112 -0.00133821035187187 -0.0012279795427758504 -0.0014948579837916198 0.00075584057877715839 0.00072383528513434749 -0.00071114951516564539 0.0013870218544435062 0.0005163003319852516 0.0015506412162083153 -4.1162278381392006e-07 -0.00014856322994264735 0.001028394560820672 0.0010870701157287739 -0.0023734372034786072 -0.00017088372294028534 -0.00099265952705800348 -0.00026151048219093953 0.00027926882320459477 -0.00013420011963496367 -0.00081806627781451499 -0.0012387611319675316 0.00039675746444497512 0.0027886804466747848 -0.00334949864590769 -0.0014118919128924608 -0.0010795756763039798 -0.00026125331730449721 -0.0005839377670256834 0.00025160962613173633 -0.0018595724751602463 -0.0028573825629000034 -0.0024908175463788213 -0.00023019373414937284 -0.000509283975335155 -0.0011973216397415832 -0.0016613857130342649 -0.0011299459386963206
leaf_weight=188 154 1216 15978 185 127 143 209 408 43348 6687 183 5904 1307 139 178 169 235 969 262 2865 236 16528 219 351 100 2111 295 40048 1465 1200 4161 1714 199 690 8262 3518 110 4957 194 288 931 1657 8427 171 193 2671 3321 122 3026 137 21331 109 1529 93728 123 178 107 110 139 1710 226 776 106 111 137 1713 4570 490 7905 1842 322 6946 465 137 11648 650 514 1038 102 516 3776 255 1728 130 185 227 191 231 100 116 349 295 304 233 208 2231 3230 101 106 158 29519 537 2335 113 102 2338 1531 392 100 105 124 657 281 2364 369 168 101 234 1007 4531 237 104 116
leaf_count=188 154 1216 15978 185 127 143 209 408 43348 6687 183 5904 1307 139 178 169 235 969 262 2865 236 16528 219 351 100 2111 295 40048 1465 1200 4161 1714 199 690 8262 3518 110 4957 194 288 931 1657 8427 171 193 2671 3321 122 3026 137 21331 109 1529 93728 123 178 107 110 139 1710 226 776 106 111 137 1713 4570 490 7905 1842 322 6946 465 137 11648 650 514 1038 102 516 3776 255 1728 130 185 227 191 231 100 116 349 295 304 233 208 2231 3230 101 106 158 29519 537 2335 113 102 2338 1531 392 100 105 124 657 281 2364 369 168 101 234 1007 4531 237 104 116
